-22 -13 4 -4 3 -16 10 -3 4 15 -13 -9 -17 -11 -4 -28 -14 28 -4 24 -13 29 11 6 -13 12 0 32 28 17 -2 -10 27 25 -12 4 -18 0 4 -6 -13 -7 1 -7 32 -8 24 -10 16 -12 -9 -17 -3 16 -6 29 21 0 16 -2 -10 32 12 4
15 -20 12 19 5 -28 16 18 -10 3 -7 -10 10 -22 2 26 -8 27 -16 16 -12 -30 16 16 -21 16 3 19 -29 7 15 -34 7 -9 -7 31 -3 9 12 -10 22 -13 -20 0 -29 -35 22 -17 -6 5 21 10 -15 24 -16 24 -19 9 23 -30 -14 -26 -33 20
-8 -6 18 11 -28 11 26 -16 -7 -25 -23 -4 -9 -20 -25 -43 -35 -21 0 -27 -27 0 14 2 -23 19 -3 -6 21 -19 32 -22 -8 15 19 18 17 24 19 16 -33 33 -18 -1 -14 27 24 8 13 -16 2 25 -3 -12 19 29 -5 -23 -21 -24 16 -16 -19 15
9 -15 21 -24 34 -29 12 28 -17 -32 23 -12 -26 -27 12 -21 17 -7 -21 4 10 26 -23 -9 -39 -26 -24 -25 7 7 16 -12 6 -24 20 -4 -15 -27 44 -30 -38 58 -27 -44 -11 -22 4 -33 -18 7 7 -19 33 8 20 8 -29 17 32 9 -12 -9 -24 53
-18 6 11 1 17 -4 -11 45 8 -29 24 -5 -2 16 -5 8 -3 1 -10 23 2 -1 34 -16 4 9 -7 19 29 16 -5 11 -14 26 28 -20 5 29 58 -21 -24 -31 -23 4 26 0 18 26 29 26 -32 18 23 0 15 7 -10 10 54 20 17 31 -31 50
17 5 29 -26 -36 19 -20 -12 -11 -28 -33 -28 -5 18 -32 9 -26 -29 -13 28 -16 -22 -8 -14 15 -29 16 22 -20 -21 -18 -1 -31 30 -11 1 2 35 -20 -15 -21 17 -22 9 24 17 -24 20 3 -6 -3 13 -31 19 -24 -13 1 21 -14 9 9 -25 3 6
6 28 0 43 19 23 8 -38 -12 -16 -21 9 -34 11 -28 4 -29 -23 29 7 43 -2 0 14 -27 12 -10 -30 -12 -3 35 12 22 20 -17 -23 26 -28 -85 -4 31 21 12 8 -22 63 12 26 -5 39 21 25 -20 10 -5 13 18 -23 -65 -13 12 22 44 -79
6 -21 21 20 -29 10 14 21 1 -23 11 -18 32 25 31 -12 10 -21 2 28 -1 24 14 0 19 20 -17 -15 28 -29 -15 19 12 21 -19 -31 26 21 41 18 -5 -12 8 -18 27 -47 -2 9 29 9 -29 27 -21 9 -26 -16 6 -9 -2 -11 -15 26 13 -4
20 -11 14 0 -14 -6 -30 -20 5 2 17 8 -9 33 6 -35 -35 -24 -17 2 -11 -33 -2 -5 20 -14 -20 30 -31 19 -28 -2 -23 14 -18 27 -6 -16 -29 2 -28 -11 13 -20 3 14 -15 -18 -10 11 -12 3 -10 -13 -40 8 24 -15 12 17 21 28 4 -20
-8 24 6 -1 -18 -22 -30 15 26 22 19 -3 -24 -36 -19 21 4 30 -1 -2 26 31 -25 -25 -3 29 -6 -7 9 10 -37 8 2 -8 28 15 25 -2 19 32 24 33 12 36 22 -30 -5 -8 30 -26 34 36 -1 -21 26 0 23 -7 -30 -24 -8 15 -29 -10
16 -20 -28 20 -28 -34 2 -6 -19 6 -32 5 24 -34 38 5 30 -9 -2 28 -22 6 -25 -19 -22 26 19 24 0 15 -7 -16 10 -19 -17 -7 -30 50 28 25 19 -40 -32 23 21 -31 18 2 -9 17 4 41 -10 27 0 -15 31 -22 -7 -31 14 2 49 20
14 -17 -3 39 -56 15 21 14 -24 -5 23 37 13 -2 16 1 -1 -6 20 23 -10 -29 -33 -25 -10 -30 8 -22 25 15 -4 -8 -5 12 15 34 10 11 -16 14 25 -45 4 -21 28 37 -15 -12 11 17 -27 -3 -65 -27 -26 9 25 -27 -10 -20 -22 22 15 -61
39 -30 -24 -7 -32 20 -5 16 -19 -7 2 39 -10 0 -3 -34 6 31 38 -26 32 -14 9 -18 -8 8 16 -8 30 -14 -14 -16 32 31 -8 -26 -8 1 -33 -6 -15 -40 -18 -35 -25 97 -15 -30 31 -8 -23 9 6 18 -24 -20 -4 38 -25 2 33 4 35 -34
-26 15 -26 30 10 15 -14 -31 -10 -19 -21 0 -16 17 3 -21 9 21 4 -6 1 28 14 10 9 -8 5 -22 9 -26 21 -1 -27 22 7 15 31 2 -21 15 7 -40 4 21 14 0 -13 -2 11 30 -33 2 -1 -27 33 -7 14 -21 20 -19 16 -3 29 -11
-5 -1 -36 -29 -30 -1 13 2 -3 14 22 -14 15 -6 10 -37 -4 23 -21 9 -12 -16 13 23 13 -19 19 5 2 -9 30 11 -25 -25 -39 23 -33 -16 19 19 -19 3 22 -42 24 10 2 7 19 20 8 -8 26 -8 -6 26 3 -31 18 -6 -23 -21 24 15
-14 -12 -7 17 14 25 -25 -20 30 17 22 12 -4 -2 -28 29 -5 17 -26 2 -22 13 3 4 -15 15 26 3 21 10 33 -9 23 11 -27 10 -28 13 45 -15 -31 38 15 -8 -20 -46 31 -13 -17 -2 -3 4 -4 9 14 23 4 11 17 -11 13 28 -20 25
-2 -24 7 -31 43 23 -17 16 22 5 -6 20 5 -7 8 -20 -5 -6 -21 20 -35 -23 14 -34 -15 23 21 8 -6 21 -1 -34 -33 22 -17 29 -6 -24 8 -37 24 28 -16 -38 20 -47 29 -5 -11 -16 -4 -38 18 -20 14 9 -18 16 32 -16 -36 4 16 -4
20 15 18 18 -16 -26 -11 -36 3 7 -28 -24 -32 39 12 -14 12 -21 13 26 -26 15 23 4 5 29 25 19 2 25 29 10 -15 8 8 15 19 -5 -50 -34 -3 -12 19 -19 -28 12 9 14 18 -5 -1 -28 6 8 10 -25 -2 19 0 -20 -20 -32 5 -13
-20 -18 27 32 -3 -25 -9 23 6 29 -24 -25 2 -20 12 -18 -6 26 8 -22 -10 -9 21 -33 -30 -14 27 18 -23 -13 7 6 -12 27 2 28 19 -16 -28 14 0 12 35 19 -2 12 -23 14 -5 11 5 -6 -31 -4 17 -15 13 -8 -14 33 7 -5 24 -32
-2 -42 6 -25 3 -8 6 23 10 -21 -38 -21 8 19 4 -24 20 -18 32 10 14 -20 -30 -1 -1 -27 -12 -5 26 -22 40 -12 -4 31 20 -8 -9 -10 27 24 -20 -31 -19 18 13 38 14 -15 30 8 23 25 -33 30 3 -14 20 -8 2 28 -35 -23 36 -3
-14 -39 -34 -18 24 30 26 -8 2 -26 9 26 -16 2 13 -34 28 6 33 -19 -32 16 16 -16 -27 27 34 -27 -16 32 16 -8 -11 -18 -7 -3 -32 -7 -2 -28 -7 16 -35 -5 19 17 31 23 9 -21 19 -11 -27 -14 13 30 -17 -30 30 -3 4 5 -18 25
-32 -39 -22 -34 -1 -4 27 10 19 -27 6 14 28 -17 24 -22 14 4 13 -3 -43 13 -26 -20 -28 -10 -9 14 32 16 -2 4 10 3 -38 40 16 22 6 -4 -31 14 19 -3 -7 23 18 -15 29 -24 2 -4 1 19 11 8 6 5 27 -11 -38 -29 28 -14
14 4 -7 1 -4 -27 -28 4 -15 -16 -26 11 -27 34 -40 -19 -10 -30 18 8 -40 -29 -32 -20 18 17 30 -12 -12 9 -15 -36 2 -8 -15 -24 -32 -13 66 -5 8 -25 -33 -19 -3 5 9 -15 -8 -10 -13 -1 28 -29 -6 -16 1 -15 21 12 13 -14 28 2
9 1 5 13 27 15 -10 -11 1 32 -5 -42 9 -16 -28 -30 5 -27 -9 -1 -2 5 -30 -8 -9 22 -19 0 27 7 2 -16 -8 -29 19 8 -10 -16 47 -8 -3 -31 0 1 33 -2 -16 2 -19 15 -37 -28 14 -15 19 19 13 -4 2 -5 -20 15 -9 27
-12 -20 20 -29 -29 -19 18 24 -11 19 -26 -7 1 -18 3 13 -6 19 -22 18 -31 -23 -16 6 -21 -22 0 2 1 10 -18 -36 30 -27 -23 -13 -16 21 -7 -27 -22 14 -21 12 8 -52 -13 9 -14 7 11 5 -5 -2 26 26 -5 -24 29 -31 23 -27 -17 -2
-36 -3 0 -20 7 -14 -14 22 -26 -10 -17 4 7 1 -1 22 0 -11 -15 4 -5 -15 7 0 14 -32 22 -32 21 -18 -19 8 18 -18 -9 36 20 -9 58 -8 1 -1 -1 -23 -1 -43 0 9 0 -10 0 -39 -25 15 -3 29 -32 9 -11 18 18 -32 4 55
