-11 4 -3 -6 2 0 -7 10 -6 7 10 -5 -17 17 1 -9 1 -1 14 6 12 -7 22 0 25 -3 3 -6 0 17 22 2 -11 -7 1 15 6 2 1 -4 3 6 11 -9 -4 8 -9 12 -1 6 -4 -9 -9 -12 -2 -7 -7 -7 -3 9 17 21 4 21 14 -9 1 18 -6 9 -4 8 23 14 18 -10 22 25 6 3 25 -5 -13 -9 23 10 -2 9 -14 12 -10 -12 9 -4 1 -6 -8 -6 16 -1 25 -7 2 11 -5 -8 -15 -8 -5 11 -9 22 -9 14 0 15 18 -9 -3 15 8 5 19 19 -11 -5 -15 15
-11 24 16 7 -5 0 1 -6 -14 12 -17 -5 -19 2 5 1 22 7 6 9 -2 4 9 -9 -10 -2 18 -24 -29 20 8 -23 -13 -27 -3 -18 1 11 -4 -8 -2 7 -10 -7 -9 25 2 -11 5 -15 -5 -25 -33 -19 10 10 8 -14 2 -9 3 -8 6 -12 -3 6 18 -15 2 17 8 -23 -22 15 -18 6 0 -12 13 -6 -17 13 -27 12 -11 15 -12 18 14 33 -16 4 -20 -18 -21 -10 -10 -4 -8 -21 -19 0 -21 -7 -13 -21 14 1 -8 -17 -21 -19 -9 -11 1 9 4 -24 -15 -22 -11 15 -1 18 7 15 -24 -11
2 47 -25 -8 26 12 -23 16 16 9 -4 -10 -25 4 29 -14 -18 -12 -5 -4 -17 -33 6 12 25 -8 -16 -12 2 11 -1 -12 -29 -2 -4 -9 -22 12 22 -3 7 -12 -1 9 2 -11 -21 -11 23 10 1 3 -11 -15 -27 -36 -24 27 6 -35 13 9 -17 -13 24 15 -18 5 -19 18 -18 -6 15 8 -7 9 15 11 -28 1 -23 -34 -8 -27 -21 22 0 -1 -4 13 12 -11 15 4 36 -16 0 5 -16 13 7 -17 -9 2 -24 -13 24 4 -21 -12 -15 -3 -16 0 8 -12 -24 28 -21 1 -23 -16 3 -21 -22 -13 -34 -6
1 -36 -3 -26 37 -13 -34 4 -28 -2 -11 -9 -1 -24 -26 -5 6 17 20 -11 -44 -19 18 -6 -10 -36 -25 0 -9 -24 -6 10 11 -25 41 -18 12 38 38 11 -12 25 17 12 1 -27 -11 -10 20 23 4 -23 -36 3 -10 24 -20 -4 -15 23 -18 15 11 21 -8 -26 21 18 1 -2 -18 1 -20 -4 -24 -13 -13 -13 -6 0 7 12 -40 -10 17 91 -18 14 3 -2 10 2 -2 9 -15 10 20 -13 4 -4 16 -2 -7 -3 6 12 2 -20 7 16 3 -23 -16 -1 -33 21 -7 -3 62 23 5 -7 -24 -6 3 -6 -31 4
-15 33 27 -16 -2 11 -18 2 -47 -20 22 23 22 -10 23 22 2 28 -22 -1 -27 7 -19 45 20 -18 -37 -19 22 -14 4 8 -14 -1 -7 16 -16 12 2 35 -6 -16 -16 -6 11 29 24 -18 34 20 -22 -3 -10 22 23 6 3 21 9 12 -3 17 -4 14 24 -17 28 5 11 21 28 24 18 17 -13 -6 5 -10 -16 17 -13 42 -32 -12 -21 26 -27 19 21 63 11 11 -21 -29 -24 -38 12 0 20 19 -3 -29 1 5 6 -9 -20 12 -11 -13 -5 5 -27 13 -25 8 -23 30 28 -15 21 27 4 25 30 21 14 6
17 31 -19 -4 -8 -12 -15 -16 -29 -2 -4 -4 -1 -11 34 -18 -10 3 12 -21 -21 -3 -2 41 -25 12 -18 15 -7 -14 6 21 10 -9 -18 -21 22 13 -4 3 -11 6 2 -7 1 22 -2 3 23 -15 11 -23 5 -2 -10 -14 -13 -9 -13 -8 22 -4 12 6 -5 9 -22 -18 -24 21 -26 -10 -9 -8 10 11 -1 -23 6 21 -24 -7 14 -23 -16 -11 11 -12 16 18 15 0 25 -41 17 -11 -26 -2 8 -14 -1 -25 -19 -23 14 12 -24 6 0 11 13 -17 15 11 5 1 31 18 -11 2 24 -16 20 -21 20 5 -19 13
5 -24 13 34 -42 22 17 -18 9 10 -17 5 11 -13 32 -5 -40 -9 2 18 24 5 23 29 -12 -7 -17 -4 1 16 -17 -13 -9 -28 9 5 -18 -26 -47 19 -2 -13 -3 -27 -22 28 -1 -6 -66 -4 4 0 -4 1 -27 20 -3 16 23 64 -15 -17 16 -16 -19 -14 11 22 -20 6 -30 13 20 -9 15 -36 5 -10 -6 -14 7 -21 35 -14 -14 -89 26 13 14 -46 -25 3 15 -13 4 -8 1 39 -17 -18 -16 -11 16 -6 -7 -19 18 -14 25 17 -3 23 39 -12 32 19 12 28 -62 8 23 8 -16 -1 -7 -36 -21 12
2 9 19 -6 -9 -17 -15 -11 24 -24 17 6 -17 15 0 1 28 -37 -10 -15 -24 -5 17 -22 17 22 15 20 -5 18 5 -1 -25 -20 -43 10 3 -20 -16 -15 9 0 21 -3 -29 -2 5 8 55 -9 -10 -5 -10 -5 -3 4 -8 -9 14 -27 3 5 15 19 25 -2 -16 20 13 5 20 -21 -18 -17 20 -21 -1 14 17 -22 -8 2 36 -24 -21 -38 14 17 -27 36 24 -21 11 7 -10 17 -1 8 13 17 16 12 -3 22 -20 12 25 10 28 -5 25 -14 16 10 2 -24 -4 -11 -49 11 -13 17 -1 -11 -25 5 27 23
-8 40 20 32 -45 20 30 -7 27 17 -17 23 17 22 22 10 -47 55 -4 17 7 27 16 21 -10 -2 1 2 16 -23 18 7 -25 -13 8 0 2 21 -20 77 1 14 -5 17 -38 4 -2 -12 18 18 -1 -19 24 -16 -26 61 12 24 22 43 -14 3 -13 -9 8 9 26 -20 1 -22 -9 18 -14 23 -1 12 13 -6 14 -12 -10 -9 -5 -11 27 -36 -28 -4 14 25 11 9 -8 14 -37 -5 17 12 3 14 15 -7 -2 -15 27 23 -9 -19 31 1 12 -6 26 12 -24 -12 -12 38 -31 2 -7 -20 3 19 -10 -8 -42 -14
14 -10 -41 19 0 -3 -1 -21 6 16 7 4 16 4 -27 -23 44 -43 -10 -15 -6 -56 4 -31 -18 11 11 20 -7 -19 7 -23 20 -3 -8 16 -9 -33 48 -83 6 18 16 -10 8 6 15 -16 8 1 -15 10 -19 -23 31 -9 -5 -27 8 12 -13 8 -14 -1 -7 15 17 17 -22 -21 12 2 16 4 1 8 -2 -19 1 10 18 -14 -10 -10 -11 16 24 3 -19 -31 -12 17 -6 25 -8 8 -17 -30 2 9 8 -3 -2 11 10 -16 23 17 -21 20 -2 -18 10 -22 18 20 -8 -18 2 11 -15 13 14 -12 16 6 41 18
4 38 -17 -5 47 -12 28 5 -1 -12 -18 14 14 -8 -8 23 25 -9 -5 -4 29 -34 5 12 -4 22 12 0 25 25 -18 -4 -20 21 1 -1 14 -14 48 -41 24 -8 -12 -26 29 43 11 15 28 8 -1 16 2 3 25 -30 18 -2 27 -37 22 1 24 -18 -13 0 -15 -1 -6 -19 4 -7 -8 -21 0 -7 21 -18 -2 -14 0 -34 -3 -8 -10 18 27 17 -10 -27 -1 17 19 26 25 6 -21 -29 -21 -6 -18 26 -14 19 13 25 2 18 -5 -27 1 -11 10 10 19 -16 10 -10 24 -5 18 16 -13 6 -5 38 33 -11
-1 -32 -5 -4 6 17 -11 -9 25 18 9 -5 0 18 32 -18 -10 -7 -17 -21 8 -17 16 -2 -6 0 7 18 25 19 -22 -10 -25 -12 1 -22 -19 -31 -15 -29 -3 -5 1 29 -11 -3 -20 -10 -36 -5 13 9 -4 15 17 -56 -22 17 -2 23 -19 -15 -29 -11 -14 28 -32 18 14 -17 -10 -15 -16 11 5 -24 12 4 -2 17 14 -13 29 5 7 -16 32 -16 -23 -28 -16 -2 20 32 34 10 -21 28 1 7 -16 15 -12 13 -13 -8 -3 -13 -6 26 12 7 28 -4 27 -23 16 -27 -90 10 -20 -13 -12 -8 -2 -30 7 9
28 -12 -44 -18 34 -12 -1 -8 45 -15 17 10 -10 8 30 -17 -3 12 12 -19 -14 -29 12 49 -17 1 -6 10 -15 5 -23 -2 12 4 9 11 9 -53 -22 -30 -23 -3 23 -11 -6 13 -11 7 -18 -1 28 11 5 39 0 -36 -16 34 13 -26 -7 22 -7 18 -6 16 -14 -13 4 19 -15 -15 8 9 11 -18 -6 19 -23 14 17 -53 9 28 -17 -34 44 -4 2 -10 15 15 4 24 47 11 -4 22 7 8 -19 1 -25 10 -3 -15 23 -13 2 -2 4 -12 20 15 22 2 -13 19 -39 6 25 0 18 7 -11 3 -8 -11
-31 -30 -14 11 11 20 6 9 -21 19 12 4 -30 -11 2 1 2 13 -1 2 20 -18 0 5 5 10 -1 14 15 -8 -9 -5 -14 10 -5 4 -3 -15 -21 -16 -14 23 8 -11 15 16 5 15 -33 -3 14 7 12 -21 5 -13 -3 6 18 20 -18 -15 -19 -3 3 -17 5 -16 -12 -18 -5 18 6 10 -8 -29 16 21 12 -13 -10 -19 -6 -22 17 3 21 21 -23 -7 -15 -9 -22 2 20 -2 -8 -13 -20 -12 -3 -13 14 17 -8 -15 -22 -19 4 20 0 -24 15 -23 10 -1 19 -11 -12 -3 -10 17 -10 -5 -15 -18 -16 -24
11 -2 16 -6 -22 7 -5 5 21 14 16 9 18 2 5 -7 -5 9 -16 2 15 -6 18 12 2 -23 21 -20 6 -18 -24 -13 12 -11 -8 18 2 14 4 28 5 -3 -13 4 -2 -18 -26 -25 22 2 -4 -13 5 -6 -22 -10 5 -2 -9 3 -17 -10 2 6 -4 -22 -4 14 -7 5 3 -7 -5 19 -11 -16 -1 -19 12 -2 -15 5 -19 4 -12 3 -18 -9 3 5 5 -8 -11 -10 -12 -9 -1 17 13 -26 25 6 9 -22 3 13 -27 0 -6 -13 -1 -14 -20 18 2 8 -15 10 -12 4 -1 6 -14 1 9 5 -32 18
-20 17 -10 -13 36 -22 5 -17 15 -11 19 -21 -18 7 -23 0 12 -18 7 -7 -3 4 -13 -17 -8 -12 1 11 -17 -14 21 -14 -12 18 15 12 -16 19 64 7 -18 -11 -16 5 -15 16 -5 3 16 -4 -38 0 -33 -32 4 -3 -24 -30 -5 3 6 20 21 6 3 -13 -19 -1 7 8 7 15 18 19 -17 11 -15 -11 17 11 -4 5 -23 -26 23 9 -28 1 -11 12 11 -14 19 -1 -13 -14 15 -18 20 11 1 -3 6 -6 -21 23 -22 18 -12 8 -13 15 -27 -22 -20 7 -7 -14 42 -1 -16 -21 -25 24 -6 11 5 9
12 -5 -19 -29 39 15 -22 15 0 29 -20 -26 4 7 -17 6 -9 -23 -25 -9 5 -29 1 2 -4 12 -20 -22 -21 -22 16 -17 -13 -21 20 16 10 13 25 -58 20 28 -1 -27 17 -2 -27 -12 -17 23 -16 -30 -8 18 -19 -3 -25 -43 -32 23 0 17 11 -18 24 -24 -28 16 -27 -13 18 20 -11 -15 -22 10 1 -8 5 20 14 11 0 -25 0 17 -17 15 -15 -21 16 -8 -5 -20 -19 1 10 -20 -24 -20 0 9 -2 -12 19 21 -34 1 -3 7 0 -11 -35 9 -12 23 2 -39 53 22 10 -7 -3 19 8 -12 -3 -4
-12 8 10 -16 -28 9 -5 -16 23 -12 14 6 -7 7 0 -1 3 -23 13 -23 8 7 -24 -13 24 -6 9 -26 -10 20 -10 -17 -6 -26 11 -14 -16 11 -4 -12 -20 -25 22 20 -13 -20 -23 -19 -30 9 7 8 14 1 15 -9 -34 10 16 18 -6 13 -4 -16 17 14 17 18 -18 3 -34 6 -22 -24 12 15 -19 -23 -16 15 9 -29 10 10 17 -4 5 13 -27 -6 -3 -30 -7 24 -16 -8 -21 -13 -5 8 -3 1 11 -5 19 0 -26 -14 16 3 -22 -8 6 12 -3 -14 3 -14 -10 17 -9 -17 -11 -1 -5 -1 -14 13
10 40 -31 -26 -30 -9 -35 14 -9 17 -20 6 12 -12 18 -35 -11 -16 -14 17 19 1 -21 25 9 -23 -20 22 9 -8 -4 -5 -19 10 3 6 8 -11 -5 3 20 1 -22 16 -38 -6 -18 -12 -8 -4 -25 -27 -32 25 -25 -29 10 -9 -22 -9 19 16 -18 -12 -15 -2 -4 16 7 -16 7 10 -6 7 -19 3 -22 -2 24 16 -22 -42 -15 -22 4 -6 12 8 6 34 -26 -31 -8 6 21 7 -34 13 -5 5 21 -4 -29 16 13 -19 -12 8 -1 25 11 15 -16 -8 -2 5 -20 30 -39 -17 -9 -22 2 -19 -34 -5 -31 24
16 28 -25 -29 37 -25 -9 -4 31 -17 11 -27 11 4 37 11 -29 -32 20 13 -3 -29 18 -2 8 2 -15 1 11 -8 -8 -24 -35 19 -40 -14 3 -31 -19 -29 -16 -21 15 -31 -10 -21 -26 4 4 -1 7 16 3 11 -4 -32 14 -16 12 7 7 5 -3 3 8 -7 -12 -25 6 -19 -38 11 13 -3 -23 -30 -22 -25 -19 -17 17 -11 20 -19 0 2 18 -7 -16 31 11 11 15 5 44 2 1 -17 11 21 16 -16 -4 7 -27 -30 21 -28 -25 4 -7 6 0 -11 30 15 2 -1 -47 -11 -1 -4 -23 4 8 -28 0 -16
12 35 -30 -6 24 9 -10 -2 13 22 16 -10 -29 8 -8 -29 -9 -1 -8 -9 19 -16 21 -5 -24 -21 1 3 -13 -22 12 -17 19 9 35 -3 -7 1 39 -54 -10 25 -20 -2 -27 -14 2 -5 12 3 3 -20 -40 -3 1 6 -16 -12 9 2 -12 -3 14 23 -22 -14 -6 -15 -3 -2 -18 -26 17 -22 -9 -24 16 15 -3 -24 -16 -28 -19 -25 9 9 11 21 -19 10 8 0 -17 23 15 17 0 -10 7 -3 5 -21 -16 15 -10 5 17 -9 -14 -13 -13 4 -4 23 -15 -15 17 -23 17 -20 16 -18 -5 -15 -20 -21 4 20
1 -31 2 -21 41 -18 -13 -14 23 -18 -22 -21 -17 -24 -27 -15 -2 -10 13 -18 25 -4 5 -3 -10 23 2 7 10 3 -10 10 -19 -16 -1 -22 -9 9 8 -48 -2 -7 -11 -18 4 9 -27 -23 -3 -6 -1 10 -28 -25 11 -6 8 -25 4 -4 -20 25 -5 7 14 15 -33 -18 5 4 -6 -14 -15 12 -1 -9 2 -23 -22 -13 -13 -22 -11 -2 2 27 9 8 6 18 -1 -1 4 -1 20 26 5 23 -8 -13 4 -22 -15 -20 -19 3 -26 7 13 -25 1 7 15 19 21 -23 -21 2 -11 -12 6 -2 14 -20 -20 -4 7 -24
-31 -11 0 3 -5 -21 -21 2 -17 2 -8 -13 -17 8 14 -27 -4 -1 -5 10 16 16 3 -14 19 16 1 -12 -12 2 24 -24 -24 3 -1 -4 17 -7 31 -11 7 -27 3 -15 -16 15 -14 -4 26 -5 -24 -31 2 -7 -29 3 -22 -26 10 -16 15 23 25 20 -23 -24 19 8 21 24 4 8 13 -25 -23 -22 -13 6 -14 -20 -18 -8 -15 -18 -9 22 -24 8 -5 -4 -29 -22 -1 -26 -2 -13 -1 0 -10 10 18 -2 -22 -16 -18 13 -2 -5 0 -2 0 -16 -28 12 1 -4 -16 -15 10 11 21 -14 8 -11 -23 0 -3 0
-34 5 7 -23 17 -14 -28 9 -14 -22 -15 14 -29 -7 2 -17 -25 8 -16 20 24 19 -10 -14 -2 10 -6 -10 -18 22 0 6 3 -17 22 -23 17 -5 30 11 5 18 -4 -22 -17 17 -25 21 37 -14 -12 -9 -11 -25 13 -1 -1 -26 6 30 -9 -4 15 2 -1 -20 -24 -9 -25 -16 7 -14 0 -16 -20 -25 -17 17 -2 -21 -17 18 0 6 2 16 -29 2 1 33 -4 0 16 3 -22 -12 17 19 21 -19 20 -29 -6 -21 -18 -14 8 -9 -8 27 2 23 -37 -21 -20 -8 -20 7 14 18 -19 0 11 -23 12 21 -11 12
-22 -12 26 4 -34 -12 1 -7 -33 -6 -19 6 10 20 -31 4 31 -24 1 7 -25 28 1 -16 -23 16 -29 -2 5 7 -1 -12 11 13 9 -21 -16 37 4 -2 21 2 21 -14 -8 0 6 -20 43 23 2 -20 -32 2 1 14 12 3 -37 -3 -7 5 -10 10 -22 -9 5 -14 -20 9 -27 16 -8 -21 -21 -2 -18 1 -23 19 -10 20 -8 -6 -3 3 9 -5 -3 32 17 -35 -14 4 -4 14 -10 -1 -4 19 14 -15 3 -14 -23 -16 -32 9 -1 -16 1 16 -20 -5 -5 4 18 12 3 2 -15 4 18 8 5 18 12 -11
0 59 26 -28 -15 5 1 5 -35 -24 -7 -17 -5 -10 -8 -28 -11 14 14 -1 25 32 -11 -7 -1 -24 -1 -24 2 2 0 10 19 -5 -17 -23 1 31 33 6 -17 -29 15 2 -3 -4 -10 -17 41 -5 -15 -26 9 -2 -23 25 -8 1 -37 0 9 3 16 23 21 -2 24 2 15 -15 7 12 -9 0 15 1 9 -9 -2 21 -5 12 -24 8 -21 -5 -13 14 -10 7 -2 16 -9 -19 -16 6 20 -10 24 3 16 -18 -29 2 7 -22 -3 -6 -26 10 -6 7 -24 -20 -36 4 15 15 10 19 14 -20 -15 19 -28 20 6 17
