-3 4 -5 -6 -8 -4 -4 22 -2 10 10 -5 1 -6 8 1 12 20 -7 0 24 5 -13 7 22 -1 20 14 -9 7 1 19 -8 15 -3 2 -7 -4 23 15 18 -6 -5 -9 15 -3 13 15 -2 18 -3 6 -1 -3 -7 -5 -3 10 -2 -3 5 9 18 5 -8 6 -10 -7 5 2 -4 7 20 18 14 10 13 -3 -4 21 -1 23 -4 16 2 23 -10 -3 -8 2 2 -14 11 16 -8 8 1 -5 3 1 4 -9 5 25 -12 0 -7 1 -3 22 0 -7 24 -8 -2 1 -7 9 20 -10 0 -10 -9 -7 11 21 8 1
-13 7 2 20 -19 -21 6 11 22 2 20 0 -13 12 -8 2 19 -23 -7 17 -9 1 6 0 -11 -22 22 17 -1 -1 -12 2 -33 20 1 -31 -2 -28 -23 -17 -3 -5 0 -6 -21 7 -20 -12 10 20 11 9 14 -18 -6 -17 8 -20 -4 -23 -13 -19 -15 3 -5 12 -25 -7 2 -19 -31 26 17 13 10 -5 12 4 -4 -3 -1 16 -2 19 15 -14 -16 -8 -18 -28 -15 -17 -14 15 5 28 11 -17 -3 -23 13 5 -24 -24 -17 2 -17 11 -9 24 -4 7 -18 -12 9 5 -28 -10 18 -21 8 13 -5 2 -12 -6 -18 3
-1 25 -13 25 5 -18 9 -21 -24 -21 4 -20 22 -10 3 -7 -4 -8 19 7 13 -25 4 8 -4 36 13 15 -1 -2 12 20 22 -15 -14 -12 -5 -19 15 -2 -1 24 30 -17 7 -18 7 18 -11 9 14 -30 -12 -2 2 8 -10 11 30 27 -7 -15 13 4 -24 16 25 14 5 8 0 41 15 11 15 11 -9 -29 -13 -4 -4 -10 7 -22 -21 -22 -2 -8 -12 -13 14 -16 -38 -23 -19 -4 -11 14 24 11 -18 -17 12 -21 -10 -2 9 -5 2 -12 26 -20 12 -6 -10 6 -3 -11 15 1 18 -27 20 -27 -20 -19 20 -19
-24 -8 -23 0 0 10 12 -14 -14 -9 -12 0 -10 -20 -4 -3 -13 20 -21 13 15 -19 -33 -26 -9 -23 1 18 2 -19 -29 3 14 7 -28 -11 16 9 16 -9 10 -9 2 -19 16 0 13 11 12 -4 -21 3 16 -27 12 -6 13 19 7 -18 -5 -4 4 -15 -11 27 -36 -14 79 23 -16 13 0 -4 -11 9 17 0 32 -22 12 -16 -15 4 25 -12 -13 -7 18 13 7 18 -39 20 13 5 21 10 -6 2 24 -5 16 4 -19 -21 21 18 -3 -18 17 17 -14 -9 12 35 -29 -19 10 -12 9 -5 -19 19 24 8 0 67
21 -3 -12 27 17 26 27 9 31 24 -1 2 2 12 -19 -35 25 15 14 26 5 -1 -16 -8 -10 -9 -23 13 29 13 -22 -13 8 14 -8 -3 -5 -1 -25 -19 14 -2 20 -4 10 12 -20 7 -12 -3 -29 -19 -12 -7 1 -6 20 -14 43 -10 -2 -22 0 -2 -19 27 -20 -45 28 -10 -36 18 -23 5 3 13 -1 -16 -1 -6 33 -2 0 22 33 11 -16 -12 -2 23 9 9 21 -10 -21 41 30 -4 15 8 38 -4 4 4 5 12 0 35 -11 16 -30 -19 -23 3 18 20 -3 -6 21 -26 -23 -18 25 11 -11 16 18 -1
23 -4 -16 -14 -17 8 -15 -11 17 -21 23 5 18 20 -22 -17 3 3 -5 -23 -22 17 -9 -33 2 37 4 -22 16 28 8 23 5 -20 -11 -28 -11 3 21 10 -19 -9 3 -1 -12 14 7 12 -3 -10 7 -20 -2 -44 -13 -22 22 4 17 -11 -1 14 -6 -23 25 -10 -27 -49 -26 -18 -29 8 24 18 0 17 -16 1 1 7 29 34 -22 -8 -36 7 -20 -18 8 2 10 -19 23 -1 -16 -2 -25 -7 -8 6 9 26 -6 0 -8 -28 -9 11 0 24 4 -2 -13 27 -13 -13 -7 -6 -19 -19 4 -9 0 -16 6 -12 -2 -12
-36 3 23 13 10 14 -13 -3 13 6 -10 -2 16 -18 -14 -12 -19 -18 23 -9 -10 1 9 8 -1 7 -22 19 -22 27 19 5 7 -7 -18 -17 26 -8 -12 -1 -18 -3 -12 6 19 7 -17 5 5 2 -2 29 8 16 0 -41 -18 -5 -60 -15 20 -12 9 3 3 6 1 -17 -83 -13 -9 15 -12 -17 24 -1 -1 36 -40 20 29 10 0 10 6 -22 15 -5 3 -23 23 -7 37 -3 -14 -3 13 -10 -18 14 -44 -19 20 -21 -15 -13 -25 -66 -21 8 12 9 4 -31 13 -28 27 44 -23 14 -15 -19 12 20 -8 2 9 -10
7 10 7 12 -33 -29 -17 18 -7 -16 -13 17 -32 -31 -9 -12 25 11 14 -12 5 0 -7 21 12 -36 -13 25 6 7 54 0 16 13 14 -30 4 -14 3 20 1 -8 46 13 -6 -4 -11 -16 -35 22 29 -2 9 26 9 31 -1 42 45 19 -12 16 -7 9 27 -7 -9 -15 -24 22 19 8 -11 -4 -8 32 8 -4 -19 4 -48 18 -18 7 -56 -6 8 -21 -24 13 -8 -2 30 18 13 -7 -12 12 5 -5 -22 -20 1 -22 -35 31 -20 12 14 -9 -22 17 6 -11 11 -18 32 -23 20 17 -6 -18 -28 -34 4 2 16 -40
-8 -22 35 -26 -10 15 26 25 -4 1 3 3 -35 18 17 -25 9 -5 -1 -28 11 -7 -15 -15 -15 17 9 -18 -19 -13 -21 0 -4 -21 -12 -44 -1 3 6 -4 13 -13 7 22 -7 -28 3 -16 1 -6 3 27 6 30 -18 4 32 -51 7 -2 -2 -6 -6 -7 23 29 -9 -21 -34 0 19 8 13 -15 3 23 8 58 -41 -15 56 9 6 4 19 2 0 -22 -3 -50 16 11 44 19 -24 26 -47 15 -24 12 -5 -26 22 14 -1 -30 13 3 -10 3 -52 -3 2 18 12 -5 3 22 5 -16 -5 6 12 5 0 19 7 -16
33 -12 -18 0 -29 -35 -1 16 22 1 -19 -15 -10 3 -12 3 -9 20 10 -1 -16 -3 -3 1 24 -22 -11 7 0 0 9 -24 -12 -14 -19 2 -22 15 -17 18 25 -12 -23 23 7 29 -21 -7 7 7 3 -13 -36 31 24 7 -26 50 -12 -5 2 13 7 16 -12 -31 13 20 -29 -23 12 -4 11 -10 -1 -7 -17 -41 37 14 -45 -4 0 -21 -10 -11 15 -8 30 -12 -12 28 9 -6 20 -25 18 0 11 -3 -46 19 -25 24 -3 38 -22 7 -6 19 23 -23 -13 -5 -15 -23 17 26 -6 27 20 -29 -36 -23 1 22 5 23
39 15 0 17 -26 -18 -17 -12 26 15 3 32 40 -4 17 -15 -11 -23 -22 29 -17 18 45 10 -13 -2 -21 12 -10 -22 26 2 17 5 20 21 -26 8 -16 -16 13 11 -8 -16 -18 13 -2 0 -27 -20 2 -19 -14 7 14 30 -10 -20 12 9 13 0 -17 -21 -9 2 0 5 26 12 20 -15 -24 -7 11 24 -4 -38 28 18 -30 -15 17 -21 0 15 19 4 -1 6 6 -7 54 11 5 -9 -8 -3 -12 -4 5 -16 -14 18 -35 10 6 3 3 -20 55 -12 22 -1 12 -14 -12 -27 -9 34 -5 4 -17 -21 -14 1 -17 -17
14 -20 23 3 32 3 10 -18 -34 12 -7 -30 20 -29 -21 22 10 9 -1 -4 16 4 10 -13 12 28 8 8 -37 -15 55 -3 -5 16 4 -1 19 -8 21 22 -1 -19 -1 1 -8 -7 -4 23 16 -3 23 49 11 18 -3 8 -7 22 -17 45 -13 -22 -16 11 -7 -38 26 2 -18 20 38 -2 24 -19 -10 -13 -8 27 -50 1 4 -17 13 -16 -31 -24 12 -10 -34 -68 31 -19 -8 8 3 -2 -21 24 -12 8 -52 -13 -1 -1 -14 21 -8 -13 7 -2 4 -5 -11 -14 14 -23 12 12 20 16 25 -15 30 -35 -20 -17 -16 -6
1 5 -15 2 17 19 2 25 38 -2 -3 11 50 -22 5 10 7 -14 23 -22 18 14 4 15 4 50 -11 -18 -28 44 28 10 34 -24 -2 3 8 8 23 6 15 -18 -10 -9 -16 -18 19 16 32 10 9 -25 -10 2 21 -16 18 -7 -43 15 17 -27 4 16 30 -34 37 3 -23 14 44 -12 3 8 9 0 -6 18 -16 -17 12 31 -1 -13 -34 11 -1 -3 -3 16 51 23 -7 -3 40 9 35 -17 -24 -23 -41 -2 7 -24 0 24 -23 7 -7 10 34 -15 -10 12 -23 -19 32 17 4 40 19 -8 -10 8 24 -14 8 38
8 -24 -1 -23 -2 -4 -21 23 -16 -14 -4 -1 14 -25 -3 -12 -24 7 -4 1 10 -17 -22 16 1 11 -9 12 -29 7 8 4 6 -11 -4 13 5 -5 5 -10 13 -23 -35 11 12 4 7 5 -16 -22 -14 9 -24 5 0 -1 -19 12 -43 8 -8 25 9 4 5 1 0 -13 -2 -17 3 -10 -13 -25 -18 18 -16 -6 -13 2 -5 12 -4 -13 20 -2 9 4 -3 19 17 -31 23 -19 -27 -22 11 -6 -24 -11 18 -19 -24 -19 -14 11 -23 -9 15 -10 4 -21 4 -11 1 -19 11 21 19 -10 14 -27 -29 -26 -4 -18 -19 -13
5 -14 -3 -7 -23 18 -8 12 -18 -8 -20 10 -19 -7 11 11 -17 6 -3 -15 4 5 -31 10 22 -23 -10 2 -21 -17 -14 4 -11 23 -19 13 -21 -8 9 4 -22 -15 0 -4 -7 -25 -6 12 5 -18 -31 -21 9 3 -24 -22 17 0 7 -2 0 -11 -21 -7 0 26 -6 -18 5 14 2 -16 21 -17 -24 13 18 26 -9 14 19 -29 15 0 -26 23 -17 -2 -13 -16 -18 -12 -20 19 6 12 -25 -25 -22 -8 6 -13 -13 -18 -22 -2 -2 -10 -26 -12 -20 13 19 -5 -2 0 -25 -5 -23 2 -10 -27 1 10 20 -7 0 -10
17 14 -12 -10 5 3 12 -4 18 -11 -18 -36 -8 8 7 13 11 10 0 -15 7 -12 3 10 3 9 -12 -25 20 -24 -26 19 8 -18 11 18 -21 18 -12 20 -24 3 24 -35 12 -16 6 -24 10 -11 -13 9 13 -10 2 18 -40 -18 59 -6 -16 8 23 0 -37 12 -25 -12 -13 14 -25 5 -5 19 0 -28 -15 -15 27 -20 -25 12 -16 5 1 5 -23 -7 -14 4 -18 -2 9 -20 5 19 13 -26 1 18 -40 -24 -12 -6 3 -6 2 15 7 2 -9 -31 5 3 -8 15 -37 21 17 2 -23 2 -20 -8 -20 -4 12 22
-9 -19 -15 -9 -32 7 17 -8 -20 -6 -24 -1 -31 -1 -13 0 16 3 -13 2 -21 -5 -17 19 10 -19 -5 -6 -4 -22 8 -23 -27 -19 -15 -16 7 -25 -14 -18 12 12 -15 -3 6 -8 -17 10 -4 -13 -3 15 -23 -23 12 14 -17 23 -2 12 -13 4 5 -5 2 1 -12 0 47 -10 -28 -5 9 23 13 -20 7 -24 31 -2 -25 -21 -27 -24 -4 16 -9 15 21 34 -19 8 13 -8 -19 5 13 21 -2 13 15 0 -23 1 -42 -1 2 -21 -28 -23 25 -7 -15 -2 -9 15 -26 21 3 7 -27 -32 -21 -16 -18 -10 17 18
-23 -4 3 -1 -24 8 -6 -10 -9 17 -2 7 -21 -6 -4 -1 15 -18 -28 -4 25 -24 -7 3 -10 -28 -5 -17 -9 34 31 11 -1 14 3 -4 -11 -10 4 -16 -1 -12 3 -33 18 0 21 18 -1 5 6 -3 14 4 -32 4 7 9 1 -17 24 17 -4 -20 -22 5 -12 2 -24 22 14 0 22 15 2 -5 14 1 -25 16 -24 9 -22 -8 -14 3 -22 -35 -13 -16 5 18 2 15 -16 -4 -33 15 -22 6 -25 -27 -15 9 -20 -28 6 -8 13 20 -20 -13 20 -11 -26 12 2 37 -25 -20 -24 9 -27 -17 25 12 -9 -16
-7 -6 -23 -20 -15 -17 -4 -10 -2 -2 2 -23 28 -7 -13 -21 17 2 -23 13 -23 -16 -39 -18 10 25 -7 11 1 2 40 2 -21 -7 29 -5 -4 24 -17 9 -6 -12 -2 -2 -11 -5 -2 11 11 5 -26 18 13 21 -22 -31 16 5 -25 -22 15 -9 -14 5 -24 -29 -28 -22 6 18 18 -15 12 19 24 24 17 -12 -11 -15 18 9 2 -8 -17 0 -19 -8 -5 -6 23 -20 -7 -10 -9 10 20 7 -15 -4 -17 4 2 18 12 14 7 -7 -16 8 21 -9 20 0 -33 -13 -18 11 18 -17 6 -17 15 4 -5 19 -9 12
-2 8 -34 -22 16 -15 -20 9 21 -10 -24 -25 28 -25 -21 -6 -23 -16 -18 -22 16 -24 -5 5 -16 42 11 -22 -4 26 48 -6 11 -25 15 -15 -35 33 -10 20 -12 15 14 -37 -12 -9 -13 -19 -19 6 9 -16 7 23 10 16 15 29 -6 17 5 -22 -20 12 3 13 9 25 -17 0 25 -2 -1 9 18 15 18 -29 -2 -19 9 -16 12 22 -20 -5 -13 -27 -25 -22 43 -20 9 14 -5 23 -8 2 21 17 -22 -2 4 -20 -15 5 -8 5 -8 -24 20 -11 10 -9 3 12 -14 -23 -14 -1 -25 -29 15 -12 22 -24 11 1
-23 -19 -28 -6 -4 -5 9 -21 5 -20 -5 -19 27 9 -1 13 7 3 4 3 14 -2 -15 -5 17 27 17 8 14 10 -9 24 -24 15 22 -9 -4 20 -7 -25 -14 -22 2 -29 3 -16 -24 14 -18 20 -3 -7 2 -1 10 -23 -6 18 6 17 -17 -3 3 -11 -42 -22 6 -1 17 -12 10 6 22 11 -14 -3 -18 -28 -9 8 -6 6 6 18 -4 20 -29 4 5 -16 16 -25 8 1 14 28 11 5 12 -10 -21 -2 -8 -4 -33 17 -17 17 -3 -16 23 -19 -10 -23 5 15 1 -3 -11 6 7 -10 -36 -9 20 1 -21 29
9 19 16 -16 -4 -14 -12 -11 16 6 0 0 42 5 0 -27 -19 -19 7 -9 15 -6 -13 -25 -17 5 25 -22 -33 11 14 15 -27 -6 -13 -6 -17 18 2 5 -22 15 -17 -14 11 7 7 1 17 -16 15 -17 5 0 3 -15 -4 32 2 -7 -12 25 3 1 -28 -11 17 -15 -11 6 13 -13 -23 -6 -19 -20 -19 -9 -6 12 -4 16 -8 -12 -35 -19 -10 -7 1 24 22 4 27 1 2 -18 -14 12 11 25 -13 -5 21 23 11 -32 17 7 -4 -5 20 9 23 5 -22 -14 -27 -27 7 -1 10 -21 -30 -6 -3 9 7 29
-30 -3 0 4 17 -20 16 13 -12 -9 23 -21 19 0 11 13 -24 15 -31 1 -1 -25 -3 16 -15 -6 -4 18 13 10 3 4 -35 -3 11 -10 -18 5 9 -4 -19 -10 -9 -33 5 3 -16 -25 21 -17 -1 -12 -17 3 9 23 -8 19 45 -21 16 -3 4 15 -4 -8 8 4 28 22 -3 -28 24 -9 7 -13 -7 16 -19 -16 1 18 -6 3 6 -18 -25 4 -17 -9 -4 -24 16 12 -10 4 -26 -10 -23 -14 -13 -6 -24 21 2 3 -26 23 -21 21 15 12 22 0 -33 -4 -29 -2 -4 -13 -7 -27 14 -2 18 0 -24 13
-29 11 -23 3 -1 -14 -6 -20 -7 -13 4 1 -6 30 1 0 -4 -11 -7 0 -6 5 -30 -21 -5 -14 -3 6 21 6 -8 19 -18 18 -1 -2 -27 8 0 -19 2 -29 8 -2 -3 -32 24 2 1 -10 2 23 13 10 -20 17 -8 -7 37 -29 14 22 -13 -18 -3 14 -27 -13 7 25 -7 13 -9 -17 19 -4 10 18 2 -11 28 1 -8 -10 24 8 0 4 7 0 7 -28 21 -23 -19 25 -6 4 11 19 23 -20 -3 -12 21 -14 15 7 -28 -22 -8 -27 -18 7 16 35 8 30 -22 2 -19 15 4 -19 -4 10 -4 4
-3 17 -18 12 -22 -18 -15 -15 -9 14 8 2 -17 -28 4 -12 13 -16 4 -3 -20 -9 7 -27 -2 -19 11 20 15 -2 -7 18 -38 -4 -18 -10 -36 -11 -25 -14 -4 10 30 -35 -6 -3 18 6 19 17 -8 0 -29 -33 -14 17 -29 -8 40 -13 -23 -6 -9 3 -33 6 -24 12 10 -11 -25 7 21 15 -13 -3 -12 -22 -14 2 -2 -14 -23 22 -20 -23 11 -18 -16 7 -31 -28 -20 -7 -5 21 -14 -8 14 24 18 -5 22 9 16 0 13 14 -22 17 -5 -30 1 0 5 -20 -10 -8 19 -18 0 -5 -33 22 -16 -8 24 -21
11 19 0 0 -24 0 34 4 -8 -16 -9 -34 -21 -15 -17 -27 -22 19 -4 26 13 -3 7 -27 6 -39 -20 -10 11 22 -34 24 -17 -24 -11 5 -4 7 17 -15 -23 -18 16 -10 0 19 6 11 21 10 -1 16 20 -4 -8 0 15 4 33 -8 -20 -19 -15 -23 -40 6 -36 -8 24 -12 -27 13 7 3 4 4 -7 -16 -6 15 -21 -20 -30 1 -20 16 -21 8 -24 -34 -2 -27 28 2 8 2 9 -26 -23 -16 -17 -13 -25 -2 -14 -16 23 15 -26 -17 -38 -18 -14 9 7 30 -29 4 -20 -37 9 16 -9 -25 -2 3 -18 10
