18 -16 -13 -17 -11 13 -21 5 -9 -12 9 -28 -21 -18 -11 -19 3 14 -6 -28 26 -25 -31 7 -4 -16 -30 4 -29 -25 12 -20
-21 -14 -50 -1 -23 -6 -18 21 -25 4 13 -20 11 28 32 19 1 -8 -12 24 -7 11 -18 29 -25 0 26 -21 -1 -28 -31 11
15 -12 2 22 -11 -26 18 -9 -8 -19 26 10 -25 -10 4 -29 -10 -7 21 22 27 17 6 -12 -11 32 -34 25 -1 19 12 22
-9 -26 -23 -18 -11 -10 24 25 -32 18 6 6 -23 -19 17 14 29 14 12 -24 -31 17 3 -8 -12 16 13 -9 -22 3 0 -19
-21 -21 17 -12 2 22 15 17 -24 -38 21 -3 -9 -11 19 -19 7 28 3 7 8 -1 -1 -5 24 6 1 21 27 19 11 -4
31 7 19 16 -19 21 -8 -14 18 26 18 28 -2 -1 4 -18 12 -22 26 -22 -33 12 -22 -25 4 21 22 -19 14 5 -6 5
10 37 -38 -11 -26 -38 7 24 -20 10 -10 14 -28 -9 31 -8 -25 23 3 -18 -24 15 10 35 9 -5 29 12 7 23 -14 3
-26 -26 -24 -27 -1 -15 14 -12 -2 -19 -22 -23 6 -33 22 9 2 -4 17 -15 22 22 -13 0 19 -5 -4 -8 -18 -24 -8 -2
5 26 -6 -29 2 21 9 11 5 -25 -27 7 19 -10 -1 -26 -1 24 13 24 24 -1 -11 4 -25 16 -32 27 -23 30 -1 -6
-9 -28 44 16 -27 25 -22 -28 -15 -11 -17 2 -19 7 -16 9 33 -20 10 -4 7 -10 20 -2 -10 -8 8 -9 14 11 -32 1
27 -6 -44 -21 -12 -25 10 11 6 15 28 14 -8 10 8 7 -35 -1 -3 2 22 -18 -19 -3 -6 -1 19 11 -31 25 22 6
-8 12 28 12 2 32 3 11 21 -30 24 -6 9 6 -9 -2 22 15 0 -26 12 -25 3 15 18 0 23 -19 -30 26 -4 4
25 -9 11 24 -9 -18 5 -25 9 -26 -14 -18 -14 -26 -5 11 -15 5 15 -17 -27 23 -21 4 25 5 -5 -29 -20 -13 -11 -26
4 22 -18 -28 22 16 -20 28 -2 11 -12 -9 24 23 -2 -6 -14 14 0 -16 -3 -6 -18 -2 -11 24 -9 -23 11 14 3 25
27 20 11 21 20 -9 -6 22 -3 31 -15 24 16 13 -20 17 -23 16 17 -24 11 -10 30 17 -28 25 28 7 25 5 17 -20
1 28 -25 22 -9 27 26 -23 -2 16 -16 -18 -7 -1 16 -6 20 15 26 25 24 -13 -8 5 -6 15 9 28 -30 4 12 29
-10 -22 23 -12 -24 -5 -5 9 9 9 -25 -29 -12 -16 -27 -17 -20 12 11 16 -12 -20 -9 -30 -19 -9 -11 19 21 -25 3 25
-23 -6 -3 6 22 -1 -21 -20 20 28 -7 -16 13 0 -18 18 22 -6 -26 4 -32 -11 24 -34 23 22 16 18 -1 -18 -16 -26
39 1 22 -29 -24 -24 12 1 -3 0 22 15 -16 -9 -9 -24 16 9 -3 -25 9 -32 17 2 23 -1 -21 -22 -1 1 4 -16
30 -16 -10 28 24 25 26 19 -27 -8 28 12 10 -2 20 13 -30 -15 -15 -27 -8 20 26 25 -12 29 28 27 -16 33 -12 28
-6 8 11 -1 -29 -30 -1 -6 17 -1 -32 2 16 10 2 -2 -23 -32 26 13 -19 5 10 24 0 -23 -22 23 28 -21 -1 -24
13 7 11 18 -30 6 -14 19 18 -7 7 17 5 13 -26 -21 29 -11 12 1 14 -5 -7 12 -10 -32 -18 -31 -2 13 10 -12
-12 2 13 -20 -11 19 19 11 14 18 18 -21 27 -20 12 1 13 5 -2 -5 14 -10 4 -11 1 11 7 11 11 -12 20 -18
-30 -13 10 12 -20 -9 -8 1 8 -24 -17 -14 -29 -10 -20 -7 13 -25 -29 26 3 -28 -9 -7 21 12 0 0 -27 -8 13 1
-24 -25 28 -2 14 -2 -11 23 -14 25 17 -22 24 -29 3 -9 0 26 9 3 -1 -15 10 -13 17 -25 -14 10 23 -7 -12 4
-4 -23 -33 13 -9 -21 -1 27 -15 43 -33 23 45 10 27 -3 -15 -9 0 14 -20 42 4 74 -12 -13 51 20 11 -3 -12 -2
-7 28 24 22 17 -33 -7 14 -21 19 6 16 29 -1 -16 -10 -2 -19 5 -11 18 7 -20 -33 0 17 -13 -12 -1 21 -15 -2
-2 -20 11 -16 9 -27 -15 15 29 -23 -21 -2 -14 20 -18 -19 -17 -30 28 17 -8 -20 -20 6 -20 -33 -13 2 16 -24 29 24
-10 -9 -29 -29 26 -31 30 -3 -24 32 -16 30 -5 -18 4 -12 -20 14 -6 9 1 29 7 3 -8 18 -8 8 -20 4 19 21
-33 -20 23 8 -31 32 -25 2 2 -18 -6 -24 17 -32 2 -12 22 -24 14 5 -31 14 1 0 -6 17 29 -18 -22 -4 31 -10
-6 -10 16 5 9 29 25 12 1 0 -22 19 -3 24 -18 -14 22 27 16 0 -11 -32 -11 3 1 -29 -19 29 4 -13 -20 -29
26 35 -7 5 -15 16 -23 -12 -18 -13 -23 13 -19 13 31 -26 -24 13 25 -5 -29 -12 5 6 23 -19 -25 -2 -5 27 -19 -26
-22 -6 22 -16 -29 45 -19 32 -26 -9 -3 -34 -11 1 -18 -23 42 -13 6 15 -3 -10 -18 -7 2 -15 17 9 -8 -27 0 35
-11 -8 -9 -3 5 1 -13 2 -9 -11 10 -1 -17 -17 5 9 17 19 1 4 29 6 24 -19 -19 12 -30 26 13 24 -26 -6
38 31 -41 17 6 -6 12 -1 -4 -9 25 -32 -4 -19 -11 19 -17 -27 -29 -6 22 32 -31 -1 -23 -3 -3 -15 15 17 11 -7
4 15 -27 11 -26 28 20 25 -15 -14 14 26 13 -19 21 7 -11 -24 27 15 -12 -2 11 31 -2 -11 -20 -29 -2 -4 16 20
6 6 -6 -20 22 -23 31 4 -29 14 18 25 24 -29 0 -17 -21 21 30 -3 4 -33 -14 17 -13 -15 -21 28 -1 22 -7 15
0 -5 32 -17 -16 -26 12 -25 -27 4 16 0 -11 25 4 29 -12 -2 21 -3 29 -9 -30 -12 27 -5 17 22 20 31 -16 -8
13 26 19 1 -22 27 12 -9 -6 14 26 -3 22 -27 28 -11 9 13 23 -11 0 -15 -33 9 -10 -6 4 -16 18 27 -23 17
11 -15 33 0 37 -19 -24 26 -21 30 15 -4 37 29 -1 17 -23 -32 7 -16 19 24 -2 17 10 7 12 -17 32 -8 3 -10
-17 -30 20 21 19 -7 -19 16 6 16 27 26 32 -30 -14 -32 -5 -1 -7 8 -8 10 20 -9 -31 -26 1 -25 29 -10 -10 -4
-28 23 21 13 32 14 14 24 -24 -19 -9 -27 21 18 -17 26 37 -7 -29 10 -14 -15 0 15 30 -18 -14 -8 14 -25 27 7
-11 -17 11 12 15 26 -2 -8 -3 22 -33 -24 -3 5 9 20 24 12 -17 13 -25 11 -6 9 -14 14 2 23 -17 -26 10 -20
10 15 -17 -31 -27 -15 4 -6 -4 27 -10 -28 11 -29 40 -11 -13 -3 -22 -16 -20 -27 -6 -21 1 1 14 -29 -21 -13 -30 -22
-14 14 17 -15 -4 10 -12 26 -10 2 10 0 -6 -17 4 19 7 11 -24 0 27 -26 -28 5 17 16 14 17 -1 -26 24 -27
-18 -17 17 -16 -24 -14 1 2 -24 -4 -12 16 -22 7 -10 -30 -7 16 27 11 5 10 -30 -5 -4 16 -30 24 27 -4 28 -30
-3 17 0 -2 -24 -15 5 -24 -2 -19 10 4 7 -6 4 9 -20 1 -14 -27 23 -31 -17 10 3 14 -8 9 -7 -12 13 -2
-32 6 -30 15 -23 17 22 -15 -24 14 -17 24 -4 -9 32 -16 21 -5 -28 -32 16 17 24 -1 -22 7 9 22 -21 -28 3 19
1 -29 26 2 -22 24 19 3 -9 -23 -19 -7 -14 1 21 24 -2 -23 21 -16 18 -26 -20 11 6 27 0 5 2 -27 -12 9
14 16 15 -8 -32 12 -16 12 -7 2 24 16 -18 13 -30 -30 10 -4 16 27 -18 -3 -17 12 26 -28 2 22 9 -3 -19 28
-3 7 9 -12 -20 27 -2 19 4 -27 2 -18 -36 8 10 -26 29 -4 -28 -13 -34 -18 -27 -18 -6 4 21 -28 -8 -34 -4 -20
19 15 -13 -17 22 -15 -14 -28 11 24 -11 -26 31 15 15 -5 -22 15 -28 -26 -20 -19 -9 27 16 -26 9 8 4 -4 14 -23
-25 10 -28 -5 11 -6 -11 -3 -5 -28 -18 18 -27 -5 -10 -28 -32 22 -28 20 -13 8 -22 -21 25 -16 17 -6 27 18 21 5
-36 3 -28 14 -7 -18 1 24 29 30 -22 -5 -15 -1 21 -29 -16 17 -13 -5 10 14 9 23 -14 -6 -12 -31 11 -24 -6 3
-24 -39 22 -9 -24 33 -22 -16 -1 -26 -28 9 -7 9 -13 -15 -5 -19 1 31 -7 4 5 -24 -12 19 2 -1 27 29 2 3
1 21 6 22 -4 -26 -19 11 -4 15 14 3 -12 0 2 25 -26 14 6 12 -19 28 0 11 -5 -24 -14 29 15 27 13 -8
-10 -27 16 -26 29 18 -19 -4 -32 30 22 -21 -23 -19 2 -19 11 -8 -14 7 6 -33 1 -26 -3 -30 2 14 5 -6 11 -8
-18 -11 8 -31 -11 -13 -6 0 -34 15 0 -11 -12 -8 3 -9 10 -13 1 14 -20 -19 -28 15 -14 -1 27 -32 -15 -7 -4 -21
-48 -5 9 29 36 26 -29 59 -15 29 -10 -17 44 20 1 13 11 -23 -21 38 -21 -2 18 4 -19 13 42 29 32 -1 20 10
12 -11 20 22 -8 -26 27 -21 -25 29 -21 -18 27 24 25 10 12 -30 1 5 5 16 -32 -19 31 -29 -4 17 4 -13 28 22
16 23 -4 5 -11 28 2 -33 -21 21 24 20 -8 12 -28 12 25 22 12 22 7 -6 4 0 10 14 -15 30 17 -9 -2 23
-47 -26 6 -18 10 -24 -10 -29 -13 6 -33 11 -13 -21 4 2 -4 -22 -32 7 -32 16 -2 -2 -30 8 18 -4 12 -7 -4 19
1 28 -11 -19 4 10 -9 -1 -7 -17 -10 -29 4 11 -6 -29 5 4 -23 -25 -28 -23 -23 -16 18 -15 -10 -16 -29 0 -13 4
40 20 -11 2 5 7 -27 -16 -19 -30 -17 13 -19 -17 25 19 -1 19 -21 -33 -5 -1 -12 -19 -18 -21 -30 15 8 11 -21 -27
