-6 -11 -4 -2 -9 19 -14 -1 -5 4 -3 33 -13 6 26 -9 25 -2 12 9 28 -7 1 21 -24 25 25 19 -10 23 13 -22 -1 -12 28 7 19 8 -4 -8 -10 -1 12 9 -15 18 29 24 20 4 1 25 32 -1 0 28 -14 17 24 -1 -5 7 -1 14
-17 7 11 2 -19 -29 -19 15 7 4 -30 26 -28 8 26 0 -32 -7 4 -32 -16 -22 3 27 -26 -29 16 2 -30 7 27 15 13 -25 29 23 -12 11 6 -2 -6 -10 13 2 -21 -9 17 -28 5 20 -3 30 4 -2 22 -19 -1 20 13 17 -22 16 7 8
-3 -35 -10 -2 -21 22 -3 -9 0 3 19 29 24 -18 -16 0 -21 2 18 -3 -22 20 4 -4 -21 8 1 14 -7 -5 -23 -32 16 27 2 0 -11 -15 -16 -10 -6 27 -2 23 4 48 1 -30 -26 -24 22 -6 -27 -1 29 30 9 8 -10 -1 35 -12 -17 7
5 -12 -11 19 1 2 -25 -16 27 -2 -6 16 -35 4 16 -28 23 9 20 -22 -30 -24 43 -19 -24 20 -28 -10 -11 -1 -24 -35 37 -30 5 25 -20 -27 15 -6 -47 6 25 29 -6 62 1 22 -10 3 15 -15 -31 11 -1 14 7 -10 27 2 -31 0 34 1
6 -5 6 15 43 -2 5 -17 51 33 43 -2 13 -45 -26 45 -8 1 17 15 -27 -8 31 2 -19 1 2 8 21 5 4 -28 3 -7 -30 7 25 -5 14 -4 -35 9 -18 -16 -21 -5 15 -8 3 13 29 21 24 5 22 -5 28 -17 -23 -41 -7 40 19 3
-1 -30 -21 -19 4 -31 24 3 13 -28 -10 -26 -17 -47 28 2 8 5 -5 -26 14 4 -13 32 4 10 17 -32 4 25 2 13 0 1 28 -36 32 33 -13 32 26 -42 0 -17 16 -49 27 -21 -19 -3 -22 -23 32 12 -5 14 21 30 -24 -31 -6 -31 -10 -29
10 17 -10 -26 8 29 37 -47 -42 15 20 -6 37 33 -20 -42 19 -11 21 -10 31 14 -44 0 44 -6 14 5 6 1 -22 -27 3 5 4 22 -10 25 -13 24 12 -33 12 -21 -23 6 -14 15 2 24 -10 11 -30 -2 -16 22 41 31 -2 4 -11 -11 -35 -9
-34 -10 -4 5 11 -31 -2 3 39 5 4 -6 -22 49 13 15 -30 10 23 -17 3 -4 7 -2 -20 -13 -4 -31 13 19 -20 5 21 24 25 -40 1 18 7 9 -23 -2 22 -15 20 4 7 30 30 -25 -18 14 -9 -9 36 26 6 -20 7 -35 16 -12 -36 9
2 10 -9 -31 -4 1 40 -10 -20 19 2 23 10 32 31 16 13 -42 15 -28 -4 -29 -23 32 4 -28 -11 -27 -8 -18 0 20 -1 -13 29 15 -28 5 13 17 29 -26 12 -35 -11 -28 -8 10 27 15 10 4 32 32 -13 -13 -3 -19 33 -51 4 -15 -4 25
25 -21 -9 32 -11 1 -6 -16 4 -32 -10 -11 27 8 9 2 19 -22 -7 -14 -1 30 20 17 -13 9 -11 -8 43 1 -15 -19 -22 1 -28 13 -16 -32 -22 -33 3 -2 -26 -44 2 -9 -8 27 14 10 -9 15 26 -42 3 3 13 31 -19 -44 3 -27 10 19
-18 -19 -14 34 -1 -10 12 42 -20 -8 -16 4 19 22 -3 4 -32 25 24 8 23 50 24 32 -20 -7 -28 24 20 23 24 29 3 -5 -6 -40 -24 -8 -34 -38 -5 -9 28 -2 48 25 33 -23 8 25 -26 -15 26 -22 -19 -9 0 -12 17 -53 15 34 -28 -3
3 -5 -11 -54 16 -30 0 10 -17 2 -23 -27 36 11 -14 -43 10 -7 24 -19 29 13 -21 10 -16 32 -10 -3 -36 -20 -10 16 -12 32 12 12 23 4 -22 12 31 50 -30 5 -34 -33 6 -30 22 -31 38 32 -28 -30 -40 18 26 -27 -4 11 19 -13 -8 4
-25 -7 39 17 -1 -28 18 -8 19 3 29 -22 4 -21 -31 13 -5 -10 22 24 -19 32 -7 -11 -18 7 -16 -4 -27 -29 21 -1 -41 39 -24 -21 -19 6 -38 49 29 27 -28 -3 1 -12 -6 -14 -5 7 -1 9 -27 -26 -12 3 42 -7 -29 -21 8 -18 -13 3
4 -12 0 2 -6 -29 -11 -26 -27 13 -16 5 19 5 0 -30 -6 12 -8 -21 -13 0 -4 -1 22 -32 -5 32 -11 13 -30 16 -11 -10 2 11 0 20 -7 3 18 7 -31 16 -7 20 -12 1 11 -15 14 -19 -6 -4 -15 -31 6 -10 33 -30 9 20 -14 6
-13 -10 -26 -1 -6 -9 -12 1 8 -2 23 12 1 24 -31 -15 -27 -33 22 -4 -28 -14 -21 -2 -14 -1 -15 -12 -34 15 27 5 24 -29 -26 1 32 -37 -9 -12 -14 13 -28 -8 -9 38 -27 12 -13 8 -7 -6 -31 8 -24 12 13 4 -6 -30 -30 3 2 16
12 -19 2 25 -21 17 -46 30 -13 20 7 27 -41 19 -17 -30 18 -12 -22 -9 6 -9 34 -30 2 18 -11 -12 26 -34 -12 22 -4 -6 -16 23 28 16 27 -21 -22 13 9 25 -11 21 -20 0 -31 8 11 -11 -4 -21 -15 12 -2 -11 24 -12 -39 -38 33 12
-39 -12 -19 -1 -35 -27 -37 25 -29 0 8 -6 -11 -29 -15 19 -8 -12 1 9 14 7 8 -32 -2 -29 2 -18 20 15 -26 -17 -37 -23 -2 -25 -9 11 -2 9 -23 -6 8 30 -20 -2 28 -14 30 -21 -55 27 30 -29 -29 14 -12 -31 28 16 15 13 2 -7
-29 -32 -21 -18 12 17 -31 1 0 9 14 29 25 15 5 -15 -13 6 20 5 -16 -10 -15 -27 -18 15 1 9 -24 27 -31 11 -31 18 -32 -5 -26 -8 -4 -22 -4 -25 -11 -38 -39 19 29 -32 11 -33 -18 26 -8 10 -7 26 16 29 39 -8 9 -22 -8 16
-6 -24 -21 -36 3 -23 -33 10 22 -19 -39 27 -14 -19 7 -8 16 1 17 -7 25 16 1 15 -25 -26 -19 6 -20 -15 9 -22 -18 12 1 2 -12 -34 -36 -30 -33 -28 22 -5 -36 -12 -17 -5 25 -1 26 19 12 3 -2 16 -6 -31 13 -20 -10 -22 -4 -8
-11 -37 -18 -1 -33 -23 16 22 -38 4 11 3 -21 -22 23 14 15 -11 8 12 1 -11 18 -22 -22 -15 -1 -7 1 -30 -17 4 -6 -21 -14 -32 32 23 -30 -33 7 4 12 20 -2 -14 19 -31 -7 28 42 -22 5 -46 -2 -25 -40 -26 -17 -22 18 -32 -26 25
13 -31 -10 -26 -52 -3 3 11 -10 -14 15 21 -34 -46 30 -8 5 16 12 12 -3 27 -7 29 11 -9 -17 -27 9 3 30 -25 -21 -11 0 -23 -17 -27 -18 -26 -31 4 16 -26 -8 -24 17 -20 -11 16 18 5 0 -11 -24 3 13 10 25 14 22 23 -15 -5
9 -17 9 -2 -2 31 16 19 4 -38 -24 -4 -30 24 23 -46 -28 7 13 8 -29 -13 7 -30 19 -24 -25 0 -5 -8 -6 -16 -6 -34 -25 1 15 14 1 -7 -22 -27 29 -14 -11 -9 23 20 -21 22 -10 16 -29 -6 9 -18 -8 19 0 22 21 -22 -4 -28
-3 -11 0 -13 -18 -29 -6 -8 2 20 -20 0 -30 17 18 -18 -10 -2 -26 -26 2 -28 21 21 -23 28 9 -24 7 23 6 20 -25 -12 -7 -11 -32 21 27 6 -28 -36 28 4 16 17 8 -14 -19 22 1 -10 6 29 -5 33 -38 5 0 2 -38 -3 -15 -25
9 6 -5 5 8 -2 -23 -7 7 26 -1 -35 -33 16 5 -14 16 9 -1 17 18 -8 -6 2 13 21 -22 -3 7 -24 -18 20 -9 -40 26 -9 25 16 -11 -36 -18 -14 7 5 17 9 12 26 -22 6 -21 21 12 29 -4 -14 4 12 21 -10 4 28 31 -16
8 -3 -40 -35 2 27 -38 13 -8 20 10 -20 -20 -24 20 -35 4 -7 23 2 -26 -4 1 23 9 33 13 -32 3 -24 -4 -26 -22 -35 4 -6 -14 15 16 -19 4 -16 28 8 -14 23 -19 26 12 31 -32 28 -9 29 -7 31 2 -3 -23 -23 16 16 31 24
-26 -36 -21 11 24 -26 -46 9 -6 -26 -31 17 10 29 -2 -29 17 -2 -30 -3 -8 16 19 10 15 18 19 18 -10 12 -27 -30 32 -13 -22 -18 3 -11 39 -28 14 -35 0 0 -32 -31 6 -27 14 -26 -26 -26 10 -15 16 -17 -24 12 4 -19 -36 -15 -7 16
