-1155 571 -2652 -1804 1666 -4703 -4595 2404 -4576 -6565 2512 -4041 -2669 2528 272 -7517 4442 1499 1526 2553 -5043 6466 10191 -7945 -7039 -2936 4172 4364 1777 -1943 -4689 -3085
142 -2190 5733 -365 2091 -2145 1571 -2395 6500 -5040 2595 7288 23 -2693 7240 7636 1128 1491 2223 5326 6565 -6437 -3637 -5097 -6906 -7377 7266 4539 -7476 -5542 5863 3355
-2845 -1881 -6016 -8577 -8861 5032 -2705 4580 2340 4698 8152 -4822 4442 4218 1775 3413 -6329 687 -3777 7091 7260 3498 -7366 972 -3645 9734 4452 -8047 4816 -3515 156 -4170
-1233 -1034 -7278 -6114 -4869 -9664 -3898 -2478 -8552 3660 -3030 -6960 -2623 -4103 -5717 -3453 4191 1204 -2490 -6042 -1474 1336 5235 -11118 503 -6100 -8070 2593 -3077 -455 -4244 -4116
-7338 -5893 4950 -6255 -4407 -327 -4396 -2991 -3320 -1567 -2045 -3684 -1485 -2709 -5896 -4518 3238 999 -503 -3515 -7161 250 802 -6531 -2902 -3176 -5361 1102 -2194 297 -2082 -7774
-6876 2287 -924 4536 -3127 6500 -917 -3871 -8080 -6027 219 -4419 1757 -5330 -5706 5311 -5389 6340 -5857 5401 901 293 3907 6429 -7331 1676 -1261 -2652 4844 436 -3504 1726
-5063 2041 8032 1900 -751 -3994 -1465 8419 -6049 -3842 -4536 3863 3829 2072 -6443 -2570 1997 -49 -2135 2104 -4011 -3696 -7011 -3536 -7002 -4527 -3793 -441 6961 7537 6926 -8147
-7935 -27 -2203 -5025 5986 7584 -4820 2112 -2325 -3652 5828 6013 5870 2668 -8063 -6068 6319 -518 -5417 -8049 2462 -3355 -6408 3386 7810 -2838 -1750 8060 -7680 4511 1727 7400
3637 4803 6299 -6345 -7530 -7187 -1788 1980 4038 -2223 -4372 1742 -6140 4999 -1644 4885 7202 -3183 156 306 -4585 2722 2368 4684 -6582 -2133 5566 -142 -2844 3273 -7585 5671
2867 -2851 6507 3340 8001 926 -5988 -7305 787 8295 -7246 -7400 5307 -1033 2216 -4808 89 4472 -5165 5704 -7290 -5496 928 2477 2609 393 -3 2497 -3382 1313 -4184 -6024
-3468 2737 348 -3391 3590 3825 3248 -3201 -506 10515 -445 -5834 -4528 2324 4379 4852 4890 1860 -2364 -1747 -5751 2026 4659 -10112 -2618 2614 -4220 9620 2586 -5342 -5260 -3459
-6282 6895 -3880 4974 -3415 -7701 3630 3196 -1089 5803 -3942 2098 2436 -5769 8045 1515 2878 322 -405 -7095 -575 7925 -3870 6007 -3858 6158 1108 -2718 -7444 -758 5660 5640
6499 -6504 5396 615 4956 -5836 1282 2974 3867 9015 -6287 2714 9493 3770 10789 -2951 1548 811 11568 5499 -4785 2248 5854 -9145 2065 13753 -190 5548 1573 -892 7885 6125
-6411 -1597 -15 4527 -2251 -4031 -7277 8241 5972 -5827 5906 -1322 7195 -273 6144 6159 3620 -7808 -4602 4578 773 708 2788 -7197 -3079 7866 -4175 -3681 3561 -298 -344 -7427
-6941 -1403 -6058 -1490 3699 2092 3130 -4891 2602 -5093 246 2993 -3186 -6434 -6488 -5004 -6110 -4237 4050 4445 1889 5953 7648 -4496 3551 6584 2493 72 4323 -6444 -127 -1729
-882 -119 -4082 -2370 -8546 -4178 2702 -3159 -8118 3659 4925 -7566 -933 -3016 7605 3991 2329 6533 1267 -5989 393 6853 6601 4110 -3058 -2099 -2478 6274 3944 -1387 -572 1610
2656 811 4977 3640 -7014 7253 3029 1783 -6106 -6832 3043 2318 4721 -2440 5877 -694 -1949 -6336 7792 -6537 3149 -6920 -4152 5795 -5693 -1959 4264 -989 577 5373 366 6164
-5328 925 -7977 -947 -1875 5337 4574 -1685 -5288 8585 -1654 -1396 -2796 -2054 -4068 -3266 -1515 -4812 4755 5094 -3349 3578 632 -379 -1665 2624 1661 -4184 -112 -4707 -2255 5915
2811 5150 -1565 -2771 -7458 -5229 5256 -1255 390 -371 -4438 5025 4731 4450 -6170 4910 1766 -2219 -5521 3558 -5120 6248 -3174 6242 305 2441 -739 -4618 2822 -2978 -7069 -4754
-4075 -7141 4949 2271 -1894 -7626 -5199 -763 -557 -6153 718 -829 3835 -1555 -1753 -8833 2423 107 142 -1427 -6703 2217 1532 -9563 -4743 6347 -6613 4739 -8101 -666 -3044 -4156
2353 -6562 -1325 5028 -4517 -6227 20 -6319 -6830 2184 4943 4858 3360 2257 6383 5100 537 -4688 1814 -7120 -7884 2856 -784 -6930 4584 -2913 -2275 -5062 -7095 4766 2425 -5103
-4331 -557 6636 5553 6825 -745 7363 6900 -3144 -2287 897 6387 6661 -8063 5124 6949 4378 5909 -1293 3057 4142 -3895 -2023 -8652 3194 -5714 -7125 6727 -3445 6897 3605 4994
-8463 1040 1122 -8051 -8978 -6084 -1281 -3343 -5375 -5732 -917 -5097 -2081 -8291 -6551 -8256 -4078 -3830 3621 -3527 -6260 725 -2110 -622 -6824 4402 -6557 -6751 -6364 2563 -2590 -5758
-6189 -7361 -3378 2868 -7988 -7523 -2402 -3228 -3394 -8057 -3970 4447 -1610 2480 1450 -3649 -3022 -1706 1638 -7188 -7238 -8183 -1574 753 -621 -3016 -3065 -7190 -413 6023 -2305 5040
-8087 2697 -253 5482 -7712 4153 7292 2423 -2648 -6524 2521 4113 2965 5013 -3122 3466 708 154 6820 -3454 4195 -591 8558 -3217 -7657 -6153 7708 -4395 548 -6130 -1357 -3286
-1991 -1953 5739 -2844 -1874 -2730 -7705 -7660 298 -1557 -6305 -7612 -8320 788 6084 -6400 -5054 4440 -576 2553 3361 1976 2990 4560 -7349 -4906 -8005 5787 5992 -8115 -6886 3871
1079 -4672 -3334 -3698 -1646 3886 6190 -413 6981 -8161 6727 -2632 -949 -4422 8165 3794 -6657 2539 -257 -435 -7462 4763 7318 4924 2464 -1254 6391 -5797 -8996 4555 -4637 -6199
4105 2733 2262 7396 6020 -4236 -385 -3652 -3782 6507 7620 6835 4065 -8115 363 -3241 -5536 -1988 813 -3698 1890 -1858 5201 -3303 3405 -3893 170 -5790 1184 -6479 4773 5451
4750 3566 -4078 -6556 -6797 4858 5251 -8453 2442 -4068 625 -1214 -3551 -7908 1824 2072 -6098 -4715 6268 5078 -5830 -1290 3633 1131 -1862 6197 2116 -4598 6588 -6885 -4904 2597
797 3235 -5401 2747 -1061 -2005 411 -6617 5058 -3591 5906 4019 6704 1017 3753 -8667 -7033 -6140 7952 3105 -938 2354 -300 4273 -4074 -2460 -2975 1565 -2931 -6601 -8234 -2210
2849 286 366 -6310 5058 6800 -2748 1858 5525 4160 -3299 -3963 -6240 4891 -1188 5691 -2946 1099 -8096 -5713 724 3824 3805 -1982 5863 456 6563 -1173 7631 -3236 4538 -2664
-2522 1005 14272 990 653 -1503 -1106 2632 125 -463 -6043 13759 -1886 -9592 2527 4087 12905 -2792 -5431 -5727 1459 -4173 -12217 -7388 3414 -3334 -6408 -7169 -5079 14037 3730 3126
-8033 5393 4906 3497 -4685 -3589 -732 8197 -2060 4476 3264 4697 5211 7755 1074 7693 2745 4640 1366 -4780 -2173 -3438 397 7031 -8302 7699 -4281 -2620 -2390 4441 637 -2286
-7387 4623 296 -3304 2172 -4368 -2195 5811 -1613 -1977 6653 -7918 981 1974 7380 4544 -5899 -219 5499 1062 -7107 833 -4593 3747 6439 -2458 -3252 -4363 -3390 3756 -5234 -3595
5967 -5737 4999 4992 -5733 -8072 3172 2046 1363 -2158 -6410 -6992 3108 5877 7338 -1750 5561 7274 7725 -6075 6779 1344 1639 -7983 3703 -1476 1919 -3561 -4718 -3530 -111 1492
-7208 3575 -3774 5422 5691 5428 -2038 -3543 2955 7558 -3741 5412 -5392 1439 -5871 140 5618 771 4542 -2 7202 514 -5133 1421 -2868 -3558 -44 5035 6159 7471 1934 -2668
-983 -3949 -10226 406 -6667 -6877 -414 4259 173 7587 9254 56 1166 -1970 110 -8688 -1767 -5524 4772 -2632 5050 -154 2475 -8325 -5787 -736 -979 -6845 -186 -6241 -7459 -409
3099 -6555 1766 8112 715 3518 479 -3268 -6562 -1317 -6688 6349 -4740 6058 -5654 -8180 6209 -5663 2855 330 -3729 -7760 851 -7116 3722 -6398 2444 -341 -7139 4879 275 5821
975 -1748 -104 2598 -4521 830 -2992 -7585 274 -6728 2708 -5378 -7728 -7576 -3442 882 2035 -1933 -7550 -4231 4901 1622 -364 -1537 -536 -8341 6821 3601 210 -4967 -6457 -4532
-3019 -2910 -2720 -4166 -5144 -4574 -6919 -5764 4287 7374 -3480 6458 -1728 5461 1448 7186 1883 -1340 3963 6594 -5593 3935 3519 651 5409 7805 -4977 2595 -3587 3169 3861 -501
-4424 3412 6315 2271 -6374 -2972 6690 -2208 -8054 2377 -7151 6948 -2313 5821 -2605 -7258 2391 -6315 -7993 -2030 -516 -1266 -1128 5438 -1086 -7051 6588 2128 543 994 -6609 -2397
-1185 -4046 6052 7552 4064 -8743 9505 -10512 -7550 -4179 -1527 -896 -5961 6786 -1976 815 6743 1107 -2038 784 -1850 2334 -321 -9941 7927 -5662 3081 1268 6291 -5576 1494 -4237
-6690 4110 247 -3640 4853 -738 -6122 -4095 3677 2678 -5995 -7073 4622 -2200 2145 3696 -4360 381 2536 -8480 5085 3468 -9356 -617 -7902 5310 2283 -6852 -6006 2661 -790 1865
-1666 -2444 8379 4083 3756 -2612 -2287 -6334 2133 -5418 8239 19 -1248 -6305 -1907 -126 -6717 7505 -7748 -3325 -8203 -1202 2328 -3873 -5044 556 892 6682 2357 -3893 5525 5983
-330 -1012 5071 6340 -2850 8170 5655 -4523 -3872 5656 -6978 2442 -8425 -5484 6872 -2012 -5568 7268 -793 3766 3092 -7331 5359 -7766 -5408 90 -1427 4344 6869 -2416 1756 -1792
-2305 5409 -864 -8705 3959 2570 -6982 2513 -2892 -5800 -93 -247 4500 -189 9726 -2284 -10058 1209 7550 6415 -2471 12946 -7726 -7742 4897 -761 -2637 -6414 1308 -674 4943 4040
-8607 -6938 1779 3091 -2657 -7898 6728 -6632 -1239 -2343 6027 6466 -483 -3714 -4422 7001 2620 -3617 7976 2087 105 3192 3255 -5455 4112 7174 -3490 -241 4806 280 -4878 -5217
-254 6764 -7798 10492 3353 -6323 -6336 1560 1145 -4380 -5842 -1676 -6276 6915 -563 4255 -5945 -1447 318 330 -3128 3017 3502 -1137 5188 6474 1329 7118 5093 -3499 3867 -4647
-3057 -5570 1221 8352 -4358 -6703 -5207 -413 -5886 3613 2834 1606 -3646 -2127 -5283 -4906 6008 -1535 -1939 6214 6116 -7722 1801 -5901 -7920 5078 3640 -6907 -4324 97 3931 -1282
-5539 74 -10821 -2284 -5313 2568 6177 8172 6621 3581 11677 4137 -6872 1640 7295 -1296 29 -5358 6814 5512 9622 8846 -7308 3034 -5604 3835 54 -8069 -505 -5844 4044 -3031
-8251 -7746 1232 689 -2993 -3285 309 10075 -7460 -3304 -3620 -4501 -2658 -5267 3124 843 4455 -9464 -7437 173 5484 3169 -5621 3530 -4923 1479 -2664 -7227 -4463 -143 -650 3394
3089 -283 -1415 1705 5455 2054 -4091 -426 -7534 -6755 4413 2765 -1842 -1023 4833 -5359 5544 7438 -33 -2414 2167 8631 13224 -7100 1541 286 -8464 6668 -5618 -2691 -4313 -6902
4429 -3588 -8585 -2418 -9394 960 3477 3157 6205 -6091 -704 394 3383 -6491 3045 4956 867 -2730 8418 341 -4090 6207 5351 6133 753 1769 -5527 -3683 -3366 -5717 -2318 4206
6260 3014 -5306 -1215 215 7815 2284 -7828 4038 3311 341 5387 5471 -5467 5563 3579 7360 5405 -4197 -1754 -2039 -1956 1269 6847 -1305 6548 6240 7785 -5495 -7071 -354 2309
-7968 -1361 3261 7775 -2445 1625 4447 2773 1578 178 -700 1267 -1119 676 -4427 883 -7227 -6155 3142 -4998 -1835 -2226 9747 1034 3385 1484 -5065 6079 6315 669 -414 -6646
-4946 2198 3571 5955 -406 -6030 1490 169 622 -4148 -7997 2221 -8403 2338 -3039 4006 3539 -3093 912 1566 -2520 -5097 -9730 -8398 -2590 -8570 -5999 -6041 -2745 7470 -5828 -4215
-6984 -2283 5306 -122 -6459 -5588 -4201 560 -6802 -7297 -3199 -6486 -1582 -5769 -5321 -3635 1274 1285 -2624 3388 839 -3330 2036 -5382 -36 1247 59 -3154 -279 -1058 4734 2395
-3862 -7079 6606 4879 -5595 -1646 -76 5664 -4972 7334 -8147 -2904 -2353 -6008 5538 6313 7607 1975 -2882 -551 1497 -4057 895 7092 3222 -1759 6873 -4639 -1946 3933 -6030 -4693
171 2920 -2152 915 -6043 4653 -5025 -4702 -1004 5662 29 5572 5763 6017 6334 6031 -3899 1472 103 -3602 -6009 -6505 6998 -5167 -5834 1336 7626 -6572 5658 4161 4860 1529
-3750 5300 -6324 -2021 6247 1301 -7053 -1497 4659 -5038 -633 -6885 -6620 -359 -7619 -7231 -5927 -6129 3713 -7276 2315 2818 10031 3573 284 -5072 1856 -4793 -6147 -4443 1056 -6856
5756 3762 6046 -2693 -1142 6341 6231 -4804 -4949 -4470 6400 -3172 -8244 1383 2684 4148 -5711 5311 -8376 -6436 -6078 4862 -3515 -5841 186 7207 2226 -366 6677 927 -3171 3861
-5966 5794 -5980 2127 -3153 1471 -756 5722 -223 -4073 -3151 5530 -7401 -7124 -3347 1185 -5520 -3711 4141 2971 -3650 6135 -3064 5055 4881 3416 7646 -4709 836 -5588 -1727 7446
1739 -1128 -7552 295 -5776 3709 688 6129 2843 4877 2017 3378 -2950 7460 1776 2325 1315 2236 4138 -618 -7805 1561 -6080 -6862 4374 -2271 4030 5244 -4958 3106 6713 1126
-2388 -7367 300 -6372 1866 -7222 2593 5709 -7593 233 -5630 -6410 5689 -5213 -1203 6091 -12746 -3131 4109 -845 -6925 4734 -1035 1526 -4631 3140 -2919 -5770 -5812 1670 5243 -1597
