11 -9 -2 -25 -18 -13 -19 3 -25 2 2 17 -4 24 -20 1 -23 18 -23 16 4 1 -32 9 -12 -17 -31 -12 -21 19 -15 21
7 -31 16 -5 21 8 7 12 -21 -23 3 -16 -14 -2 -20 -19 -7 -7 -6 -18 2 -8 21 -5 -17 -10 7 21 9 -10 -14 5
2 -24 21 -27 -19 -29 14 -10 -3 -24 53 -5 28 24 6 10 -18 18 -26 27 2 30 -11 26 4 26 -16 28 20 18 7 -6
-4 -19 10 5 -24 -12 6 8 -29 -5 -2 1 -34 -30 0 -10 -29 1 13 -5 16 -1 -31 -5 -27 -30 -29 -17 -7 5 12 5
-5 35 -2 -28 -14 30 0 6 -24 -10 109 19 -20 12 -16 -22 21 -18 -14 2 -23 26 -33 27 12 -22 -31 23 2 -72 18 -25
-18 -3 -25 -32 6 -13 -21 -30 -36 -9 0 -2 -15 0 -19 -25 -28 -10 -10 -15 -22 -22 25 8 20 -29 -3 -26 -4 18 12 -11
-24 -13 26 -31 -20 18 13 -19 -5 -20 -19 11 -16 8 -4 -2 16 -6 -13 -22 -29 2 -31 -8 10 15 6 -17 16 23 4 1
18 14 -22 0 -23 -3 -20 2 11 9 43 -25 14 -14 25 -7 -7 -20 13 4 -5 -13 -28 40 10 0 17 -18 26 -32 9 17
-14 1 -21 28 30 6 -17 8 -13 19 -15 19 4 11 27 15 -29 31 16 22 24 9 7 -13 -15 18 -18 20 -7 28 9 2
2 -22 -6 19 30 -27 -17 -15 -7 -25 9 12 -30 10 19 -30 28 -3 21 -29 27 -12 -8 -25 -19 13 14 -28 -11 11 -15 5
26 -9 -3 11 -33 -26 12 3 -28 -3 15 -22 5 -25 19 10 -8 18 -28 19 -13 15 -15 0 12 -9 15 8 -13 16 -19 -12
-27 -21 22 -12 20 20 -29 24 -9 23 -10 10 -29 13 -31 16 9 12 -26 -10 13 -21 29 -11 21 -28 -31 -21 -7 17 19 24
4 21 -7 11 -28 6 14 6 23 -8 1 -31 0 7 9 -6 -32 -34 17 4 -16 -27 -29 -7 -5 10 1 -26 -10 9 3 -24
5 -17 -33 -27 1 -3 -4 -12 -29 8 2 -33 -17 10 -19 0 -28 -25 -18 -31 11 10 8 -13 -38 -20 -27 1 -7 7 -27 -25
10 23 -1 11 25 -7 -3 19 10 1 2 21 -8 -32 8 2 5 20 -32 -10 9 1 -3 -16 -30 25 -25 -22 -27 -3 26 -4
-27 -6 -32 -5 -2 5 -9 -10 14 -30 -1 -16 11 -26 10 -18 -21 -15 -18 -18 4 -1 -10 -5 -8 8 -13 -15 7 -17 -15 17
-16 20 -16 -21 13 11 -9 -32 5 -14 -3 -3 1 -8 0 0 1 -9 19 -19 -10 6 -4 -4 -27 -12 22 5 -28 -14 -33 2
29 10 29 -23 12 -17 25 17 16 5 -6 5 -12 -12 11 -9 21 29 -2 -28 -30 28 21 -6 -14 -8 17 0 -24 2 -8 24
-1 24 8 6 15 7 12 13 8 -11 -62 15 23 -10 25 32 27 -2 3 5 -12 14 25 19 -33 -3 -2 -15 17 39 -11 -18
-19 5 -1 -30 -6 -25 23 13 -28 -27 -9 -16 18 -17 1 7 -9 5 -30 -17 14 -19 19 26 25 -17 -26 -11 -1 -14 16 31
-2 20 21 -26 24 27 13 -14 4 -17 0 1 3 -35 18 30 -9 1 -23 -24 -1 -22 -26 -13 13 -15 22 -18 19 26 11 24
7 10 -17 28 14 -10 -23 7 3 -8 -3 4 -14 -20 18 -4 -16 -17 -15 -9 0 12 -29 20 -24 7 -16 -5 18 32 13 30
6 4 -27 21 -15 9 -22 -27 6 -11 15 29 8 -20 24 17 5 -33 -17 -15 6 14 11 14 24 25 27 -15 4 -27 1 14
20 -32 -3 -15 7 -20 -6 18 -24 -18 27 -23 -24 -17 9 4 -27 3 -8 17 8 -26 -8 -22 -2 28 21 -28 28 11 27 5
-14 -24 5 -18 -18 -11 -6 -19 -18 -10 -2 -3 -27 23 -17 16 5 21 9 6 24 -8 -24 22 -29 22 -8 -23 2 -1 -15 1
7 -16 -3 -17 -27 25 26 21 -13 23 -2 16 -19 13 12 -2 -6 -6 -3 -9 0 -21 -13 -23 9 5 -12 -11 27 15 27 15
-26 22 -1 14 -14 -32 15 -28 -1 -30 -1 9 13 8 6 1 13 14 7 -19 -25 -15 24 -22 20 -16 -36 -22 -12 -18 -29 -33
24 -7 28 11 15 -2 22 -4 -31 20 21 5 13 18 9 -11 15 -13 -9 25 -2 -24 16 -30 -22 5 18 -26 -18 -16 2 25
-3 -14 11 1 2 23 -5 -1 -26 -1 -22 24 12 -4 30 21 7 -29 -8 27 25 7 -4 23 -21 6 -3 -27 13 -4 18 -1
12 27 17 -2 21 22 15 -15 -22 -24 17 -27 30 -12 -26 -1 24 -5 7 30 12 -28 -19 22 -30 25 26 -12 4 11 10 19
-12 -1 -14 -13 -20 -41 -24 -32 -22 -22 1 -5 -13 -36 -26 -27 -7 -18 -4 0 -37 -16 9 0 -22 5 -2 -24 -4 10 -37 1
25 -29 -7 11 -15 25 -30 24 -12 -27 -7 -32 -30 3 9 27 -15 21 9 -13 4 -16 6 -4 -13 22 1 -3 9 25 9 -6
27 -17 -29 -16 -24 31 -22 -19 16 30 30 -23 -27 23 -29 -5 14 -10 -18 -3 24 21 26 32 -11 -14 0 14 31 -16 29 15
-14 -9 -2 30 6 -24 -28 24 -31 -10 -19 -26 -12 -22 -17 2 -18 9 5 -28 24 23 -21 17 -14 18 -22 -17 -6 -16 31 -21
-27 7 -30 16 21 -19 18 -20 -30 17 2 24 -19 8 26 18 12 11 4 5 -22 -30 17 19 12 15 -13 -16 -3 -7 26 -17
-22 -7 -30 -15 -31 2 -21 -19 22 -26 -2 -19 -39 -4 -27 -32 15 -20 -26 -12 -11 -19 -3 19 -16 -5 -38 2 -2 -3 -37 -25
-16 -15 -28 -8 -24 -4 16 -15 -1 17 -1 -33 -8 -12 -11 14 -16 -8 -23 2 -4 -16 -6 -10 -4 -31 -3 0 -24 -9 -8 -10
10 34 -8 3 33 3 -29 13 -8 9 -6 22 22 0 5 15 -7 14 -13 -20 29 0 5 14 12 -20 -24 28 -18 -11 9 2
18 66 9 -7 -10 -1 -15 -32 -15 -2 -108 6 -20 43 28 -30 -24 21 27 37 -25 -29 -20 -128 18 10 12 3 -14 -55 -27 -5
5 -2 17 -22 20 12 10 -22 -11 0 -1 24 -14 -5 6 -8 2 15 22 -14 14 -8 -32 -32 15 8 -26 -5 -17 17 -20 -34
-8 -19 -15 -22 8 -22 1 0 -28 -1 -3 -24 -22 -11 -15 -1 -34 -12 2 -3 -28 -30 -31 6 -3 -6 -27 12 -25 -21 17 0
21 -16 -26 30 10 11 -5 1 16 4 -118 -13 -30 4 24 26 -24 2 -2 -9 1 6 28 35 -1 -8 -4 13 -31 -52 -21 24
13 -26 29 5 -26 -2 4 7 -16 -14 -74 11 -25 -34 3 13 -11 1 -28 22 11 -28 -12 -29 26 4 22 23 26 18 -10 -31
-17 -13 -10 13 5 16 4 -6 4 -16 -12 24 -32 21 28 20 24 -28 -11 -2 -31 -21 -11 -14 12 15 -28 10 16 -20 20 -10
-27 28 30 31 8 -16 -30 -21 3 23 -3 -16 -13 -15 23 -3 -9 12 -23 -26 -16 31 2 15 16 31 12 0 5 0 6 -28
-2 -54 12 -12 22 -6 -8 16 8 -32 -8 -28 28 -5 -21 23 11 -36 18 2 13 14 4 -39 5 0 2 -2 -12 -110 -2 16
-30 -19 -15 -12 7 16 -5 31 -9 25 4 -12 12 -29 13 29 31 -8 -1 22 2 9 11 -25 -31 5 -28 -18 9 8 -9 -13
14 -19 26 -13 -13 -8 12 -18 -18 5 -2 1 -15 -27 -19 -13 -9 6 -32 -6 12 -12 -12 4 -13 -8 24 4 10 -4 17 -19
-16 21 21 17 -11 -28 12 -8 16 -9 26 -2 -13 25 23 -3 -11 7 4 30 -29 -23 20 -19 -27 -12 -14 20 22 28 -25 -23
4 1 -8 20 -26 -31 -20 18 -15 1 2 -16 21 -1 -14 -21 -15 2 -7 -25 -4 25 -12 -1 -10 -32 7 11 -21 11 -9 -27
-3 16 -33 24 -22 25 -21 -31 -18 26 -2 -31 1 -5 -10 5 9 -2 -13 -15 1 -9 -28 -22 -30 0 22 -7 18 -22 -13 -3
23 22 27 -34 -4 0 0 -11 -1 -20 -2 -2 10 -9 -28 -27 17 -23 -7 2 -27 3 -27 5 7 22 18 -9 26 9 0 -4
14 2 23 -16 9 -5 -15 25 22 4 44 -25 9 13 9 -1 -33 -31 1 18 -27 13 -30 22 -14 21 -19 -31 -7 -2 1 -14
31 -9 6 16 8 -7 29 31 25 18 -8 21 -22 -12 -3 9 11 21 12 13 -29 -18 1 30 -16 24 2 -22 -19 -13 27 9
-23 -12 -24 -19 4 -16 -30 15 -17 -22 -2 -14 14 -29 8 -12 1 -20 -7 12 -24 -24 -28 2 10 -32 -28 3 2 -7 -21 -26
28 -1 -11 -20 -17 -22 -7 -31 -28 4 -26 17 -19 -23 1 -13 -7 -14 30 21 16 5 -2 -7 -11 24 -9 22 19 14 4 -12
14 31 29 2 4 3 -3 -10 4 -7 11 29 -8 9 -28 28 -23 -14 -7 20 18 7 -9 -9 23 13 -16 0 24 23 -4 -27
32 5 8 6 21 -2 28 9 -12 -8 13 -12 25 17 -2 -6 -16 -15 -1 23 -29 6 -28 8 12 18 1 22 -3 27 7 15
14 35 -18 -13 -27 0 12 -10 10 29 56 5 -9 27 -8 -37 23 -7 -14 26 8 -13 18 20 2 -7 19 -2 12 -43 -16 -5
-21 -24 -23 8 -28 11 -5 16 -15 -31 -31 17 -18 -28 -4 10 -16 -3 -2 -29 32 18 -4 0 -7 22 18 -25 6 29 17 -5
28 20 24 -3 14 -12 10 8 -24 13 10 8 -12 3 -1 0 -16 -25 -32 -12 -19 2 -20 -29 21 -32 4 0 -25 21 15 -26
-9 -13 -24 26 9 12 5 -22 10 -9 11 -6 0 -2 21 -4 -29 -27 18 -4 10 18 -3 9 -22 9 21 11 -15 29 -3 -27
-10 -18 -9 -1 25 13 13 28 10 -8 -65 -3 23 4 7 -17 36 -24 19 -13 17 16 -7 2 13 -26 -28 26 -19 72 -31 -2
37 44 -12 10 -37 8 -39 -4 -31 3 80 -32 -43 26 -21 -35 4 -4 -10 -15 -22 2 -31 43 24 23 -10 1 -18 -15 15 1
