-19 -7 6 -10 -10 -7 10 -7 -8 20 10 4 -5 0 11 5 19 -22 -13 18 7 -5 1 19 10 3 17 -6 3 16 -15 0 16 -11 -9 -13 16 -25 -1 2 -23 -8 12 4 -26 -22 17 -13 -15 -7 2 5 15 -3 6 7 -5 1 -29 19 -12 -15 -2 13
0 -9 -15 -12 -8 2 5 -11 -2 5 -14 -16 -1 22 -5 4 15 6 5 5 -22 18 13 1 6 16 -1 -20 -5 -4 9 6 7 -5 -6 6 -10 19 -15 -17 21 -9 5 8 -4 -8 21 -20 -6 -16 -10 -4 -6 -11 16 -19 19 -1 21 -4 -5 -13 -5 11
1 -14 4 -18 3 2 -10 -13 0 14 11 -7 10 -9 16 11 -14 -1 -6 -14 -21 -2 -16 -19 -24 2 -18 15 -16 -21 16 9 -4 11 10 -10 4 5 20 -9 -23 7 12 13 0 -3 -20 -9 -12 -4 10 -13 -7 7 -9 10 20 9 3 10 -23 14 2 -3
-6 20 -11 -25 -22 14 32 16 13 -15 -14 4 -13 -16 -11 -21 -7 -5 8 0 9 9 -23 12 13 6 -23 12 -3 -17 -12 9 -21 12 6 18 -13 16 -2 -15 -18 -11 -6 -11 18 15 -16 -8 -20 -19 9 0 1 -25 2 -23 -5 -4 -20 -4 -13 -1 5 2
5 20 -30 -5 3 -28 4 6 -7 -2 -10 8 7 -5 -24 -21 12 -11 19 -19 17 8 -17 -19 7 10 9 -23 7 -7 -28 18 -12 4 -24 -11 -26 9 -10 -10 -9 17 -17 21 -9 -2 6 4 -13 -25 -2 25 -18 -3 -9 -29 -11 -7 4 -14 14 -2 22 -16
-15 13 2 -4 -16 -5 -10 19 -18 -19 -15 7 -2 -11 17 2 12 8 3 18 -9 9 -15 -7 1 28 6 8 19 7 -13 17 -12 -7 16 -22 -20 -11 19 16 4 -3 -17 17 13 -3 0 11 15 -18 -9 13 10 -7 -9 13 9 0 16 -2 5 12 -8 -2
-24 18 15 -6 -10 -4 -27 5 -16 -13 -3 -14 3 12 -1 -1 20 -18 0 10 8 -3 5 -19 -9 -8 -24 15 17 0 -24 3 16 12 8 6 -5 -15 -23 6 -4 15 -7 -11 -13 19 -2 -1 18 16 13 -19 18 -10 8 -8 -10 32 10 -18 -6 26 -13 4
4 -22 9 5 -16 -20 -3 7 -2 -14 20 18 14 -5 2 15 13 13 -21 7 4 -20 1 -12 9 -6 -11 0 -13 -8 18 -12 -21 8 -11 -3 -12 -14 -16 -13 18 -11 12 -11 -19 19 -17 -25 19 -11 -8 3 4 -8 -21 -7 -18 -15 20 7 5 7 2 19
-11 -28 14 -12 19 -6 -14 -15 -5 -19 -1 -7 -12 -3 2 10 -6 0 10 2 -17 -2 -3 12 -25 -41 6 -6 -11 -3 -3 -12 17 2 18 -8 -7 -2 -25 10 10 26 11 5 6 11 -12 -5 1 -17 19 -3 -14 -21 18 7 -6 -9 -25 15 7 -25 -6 7
-4 16 15 -19 20 -19 17 -19 19 14 -10 -11 7 0 -12 12 8 -8 -22 2 22 16 15 20 -2 -9 -12 -14 -9 22 6 -1 15 -22 21 -1 19 -1 7 -6 -17 0 -17 -11 18 -13 14 -21 -2 6 -17 7 -19 -12 -18 -22 3 14 -13 -20 1 -12 18 12
4 -17 -6 -1 9 7 -16 -7 -7 -15 -1 9 -3 -11 22 2 -12 11 -20 8 -8 9 2 -17 0 1 6 18 12 17 -22 19 -21 -1 20 9 -9 21 19 21 4 21 2 5 21 -6 12 18 -7 -8 10 3 9 1 -9 18 5 -16 7 12 -5 13 17 10
15 12 15 -19 -15 -24 -20 -14 -5 6 -11 -11 6 10 16 16 -22 -14 -6 3 2 6 -1 17 5 6 18 -9 5 5 -20 17 1 3 17 2 16 7 11 -20 0 -4 -1 11 -9 2 10 18 -20 -9 9 18 -4 -6 -21 16 13 2 2 -5 18 18 8 -11
17 -7 -21 0 9 0 29 -17 -9 -19 -6 -14 22 -9 18 -2 -1 16 32 -17 11 -14 -5 -5 5 -44 -5 -3 -7 -17 8 26 -33 0 -16 -12 11 -17 15 2 -26 -22 -14 21 4 19 -10 -13 -6 12 -25 16 16 -5 -31 -1 -3 -34 -11 -4 -9 -24 36 54
8 1 7 12 -15 5 -11 -14 12 -6 -16 15 -14 -17 -2 10 -10 -11 2 2 -5 20 6 -8 14 15 18 -20 -21 9 12 -10 13 -16 -4 -19 9 -24 -6 10 -7 12 -1 -4 -23 -12 8 17 -8 -14 -7 -17 1 -5 15 -6 -10 -9 -14 15 6 17 0 -23
-20 22 -4 -1 19 13 -16 -13 -3 -2 19 -8 -20 -14 -19 12 3 0 5 -2 -17 6 -22 6 -10 0 -3 6 17 -20 15 16 16 11 -9 -14 2 21 19 -20 -8 -16 -12 -6 -1 -20 15 22 -12 -7 4 4 -19 10 18 -19 8 18 -9 6 -9 -13 10 16
3 10 -7 23 19 12 -5 1 8 -19 -7 8 -11 -3 9 16 -16 6 6 -15 2 -1 -11 -30 -19 2 4 16 -21 -12 9 29 -42 8 16 17 30 28 10 -4 -10 2 -20 -5 3 23 3 -23 -33 -24 -4 22 -12 39 4 -21 3 -17 -9 -18 1 0 12 0
2 -22 17 -18 17 18 -8 7 1 22 20 -17 8 2 14 -5 -5 -16 -9 -20 -15 -7 -6 -16 -6 12 18 -10 8 5 3 -7 -13 11 -21 -21 -20 -2 1 -21 -20 -13 -14 -14 -4 9 4 3 -4 11 -18 -4 22 -9 3 -3 4 17 21 13 22 -15 14 -20
16 -3 -6 -2 -5 -18 -5 -10 13 11 19 20 -14 4 -6 3 7 1 4 -17 11 -12 0 21 -7 -20 5 -9 18 -13 -20 17 17 13 -2 -12 -4 17 -20 14 11 -22 -12 -1 4 -22 -20 -2 0 8 -22 -2 -9 18 -10 -4 -17 11 -11 -19 15 -10 -7 -5
-21 -17 -5 -9 -11 -20 7 -18 -6 -9 -10 5 17 15 -3 -5 -9 -7 18 16 -18 12 -11 -19 12 -6 -24 -10 -4 8 2 -19 -4 12 -18 4 -18 -8 -10 -23 -3 -19 5 -11 -8 16 -6 -10 -5 -17 -13 14 14 -20 -14 12 -5 2 -8 -13 -13 -5 -11 11
6 -14 13 -25 -5 -16 19 -20 -13 12 -17 8 8 0 -12 -4 18 -16 -5 -4 2 4 -15 1 -23 8 -18 -16 -14 17 -1 -21 -10 -13 11 9 9 11 -16 5 -11 -4 12 0 -10 2 -7 4 10 -1 18 -6 -8 4 -12 -19 -17 15 -11 8 -14 8 -10 11
19 -7 -16 16 -19 -11 18 -10 0 7 -22 -21 16 20 19 16 -16 -16 -2 5 15 16 -9 -9 -17 17 4 -15 9 18 2 1 -7 19 -4 9 -18 9 17 14 6 17 15 19 14 -15 -15 18 -14 11 2 -10 10 -18 10 14 0 -11 14 -5 22 17 -9 -13
22 5 10 -2 -5 -8 -10 -7 9 -5 13 -2 6 -12 -1 8 -6 -15 -9 10 22 22 -5 -15 -10 -18 9 -2 -9 -6 4 -20 -2 -12 -18 17 -1 6 -9 -11 12 22 2 12 11 4 -11 -5 20 11 -11 21 -3 17 5 11 2 -21 20 20 -19 9 22 15
3 -21 14 17 -9 6 1 -21 4 12 -12 8 -4 -7 16 6 17 5 -13 19 -10 -13 17 8 11 -14 10 -3 1 7 -5 -15 -18 -4 12 -5 11 -10 14 16 -25 -6 -13 -8 17 -11 -10 14 12 17 -16 -17 0 -17 -11 10 1 12 -21 8 -8 -10 12 -3
13 -4 -18 12 -18 -4 -2 16 20 -23 0 -23 10 -8 5 12 16 6 6 6 -12 3 12 8 -12 -3 -4 -16 -22 18 -21 14 15 6 -24 20 15 -13 8 -7 -7 -10 -13 15 5 -7 4 1 -17 -10 14 17 -4 -22 -12 1 15 13 -17 -7 -10 -17 10 3
11 -10 -16 -14 6 2 5 20 -1 -22 16 18 -17 18 16 19 -12 -5 -5 13 -3 21 20 15 -20 2 6 -11 16 20 6 8 -12 -1 10 -18 15 20 22 -11 -8 -9 -21 15 13 -4 -12 -5 -12 -10 -20 -5 13 20 10 -3 3 14 -12 -22 -11 9 -4 5
12 -26 -16 7 4 -1 46 -2 -11 -33 -21 5 27 -27 -11 -8 -1 -12 36 -8 0 -12 -5 -34 -13 -7 4 16 -19 -46 -9 57 -8 -4 3 -17 -2 11 24 -16 -17 21 -11 26 -22 12 -1 5 11 20 -18 43 -7 -1 -5 9 -28 -25 -3 12 9 -4 23 21
6 17 13 22 -5 -4 9 16 11 -8 15 -10 0 -10 -4 17 -14 16 14 20 19 -5 18 18 -20 -19 11 -22 17 15 11 7 -21 7 19 15 2 8 4 9 9 18 15 -1 16 5 -11 -16 -19 1 22 0 9 20 9 10 15 -1 -12 -9 -2 5 15 -1
3 -20 -7 -10 21 12 -16 20 -20 -12 19 3 11 -17 -3 -23 -20 12 -18 -5 11 6 -13 5 -19 -13 15 -21 12 20 15 -12 11 -21 16 19 -3 -18 2 6 8 17 2 -17 18 -15 -10 -8 -1 -10 -19 15 0 8 20 20 -1 4 12 -8 -4 16 0 2
-17 21 0 -25 16 9 -4 -11 1 -7 13 1 5 9 5 10 4 -8 2 12 -12 11 18 -12 0 3 -21 -5 1 2 13 -11 1 -8 -22 19 -3 -11 0 -4 -17 -1 15 -14 -23 4 -18 7 5 -18 10 2 -13 -9 19 17 -5 -1 -8 -22 12 13 -10 -16
5 -24 16 -18 -11 -9 6 -15 26 5 -7 10 16 -24 27 26 -1 -26 20 -10 11 -2 20 -24 12 15 22 -11 -3 -20 5 38 8 -8 -20 -19 23 -7 -18 -25 -10 -2 5 37 16 17 -3 -20 17 8 -16 -12 2 1 -8 -19 10 -9 -7 17 23 -33 34 43
3 -11 -7 11 -5 -12 -7 -12 3 -12 4 19 22 -22 1 -23 -1 -19 -6 -26 -6 3 -8 -8 -11 -42 -16 -29 -7 -4 9 0 -9 -2 -10 -19 -29 -23 -10 7 -15 -12 -14 2 -14 -2 -8 7 -28 -20 -11 -4 5 -22 3 -22 -19 -42 -7 -3 2 -28 21 19
-2 -8 21 -9 -3 -21 12 -9 2 21 -3 -4 -10 21 14 -9 -18 17 14 -3 11 -7 7 -4 20 -19 -5 -9 -1 -14 5 -8 11 -13 20 7 21 18 22 22 -2 6 14 -5 14 15 -22 -22 17 -8 20 0 -21 -10 22 0 -6 -14 22 22 1 -12 -20 -4
10 -6 -23 -1 1 12 -4 11 -21 12 20 3 -2 10 6 14 -19 -15 1 -3 18 -21 -13 6 11 3 19 11 9 -1 13 7 -9 -1 18 -18 10 19 -16 -2 14 19 -7 -1 -20 1 16 12 7 -3 4 18 -18 5 -5 17 -5 11 -10 -5 20 3 7 -7
19 -3 15 16 18 -1 -3 -21 2 11 -16 2 6 17 2 -10 6 18 -20 17 0 -3 17 -6 -4 11 -15 7 -21 4 5 -15 -9 -16 24 20 -25 11 -11 -17 21 -13 12 -2 12 4 0 -12 -4 22 17 -17 -2 -7 2 -4 -5 -7 -7 18 9 10 4 14
6 -17 19 5 -1 22 26 -12 7 6 5 -15 25 8 -14 -9 -8 -3 0 -4 15 3 -21 22 -26 -16 -11 -11 -8 17 -15 20 -21 -2 20 -16 -21 -3 -1 -9 17 10 2 -6 9 -1 -14 3 -4 4 -14 2 16 18 11 11 -18 3 -27 11 -6 8 -24 2
-7 -34 13 -9 -10 -17 13 -10 28 -16 -23 9 12 13 -10 -6 16 -17 16 13 -12 -17 -12 -7 -6 -23 5 19 6 7 -5 16 -4 19 -8 -10 13 -14 -2 -12 6 -25 -18 4 20 2 -22 -26 13 -9 8 14 2 -22 1 -16 8 -7 -23 -24 -7 -30 -7 18
1 15 -4 -1 -2 -11 21 -16 0 -7 -17 -12 -9 14 12 -25 -19 1 11 -9 2 -8 0 -4 16 -3 -9 0 -16 -17 5 2 -2 20 -15 -20 -18 -23 -21 -7 18 15 -4 10 -1 -15 14 5 10 -12 11 19 14 -6 -16 13 8 10 -5 -21 -11 13 2 2
-4 -19 -8 11 -12 13 9 -9 14 -16 -9 -13 -2 -23 6 19 19 8 -17 -6 -8 1 14 9 -6 -3 17 -16 6 15 1 19 7 -7 2 14 -3 18 -10 20 6 -4 1 -7 -11 12 -24 -21 6 -9 -1 23 -23 -19 -21 17 -4 8 -13 6 -20 -12 9 23
17 14 4 -1 -16 18 -4 -5 -3 2 11 19 -22 0 0 -8 21 3 8 10 17 20 12 13 -13 -3 14 -22 -20 19 -7 7 7 -17 10 15 -18 -16 -4 -7 15 -14 16 17 -5 20 -16 -18 6 3 1 8 10 18 -16 -2 1 21 13 13 -18 -12 20 5
-18 1 14 -1 1 -21 11 -9 -15 14 12 -8 11 1 16 -9 -9 -22 -6 11 20 15 21 -10 4 21 -7 8 19 18 -9 21 -10 -22 16 1 14 15 -14 0 10 20 17 3 14 21 4 19 -17 -22 -22 -20 -15 -22 -20 -6 -6 8 7 18 -15 10 8 -1
-15 11 14 -2 -16 -12 -11 3 -15 7 2 -2 8 2 4 7 17 17 2 22 6 7 1 1 -6 -17 -6 -12 0 10 19 -9 7 -19 14 -14 13 19 -3 8 10 -19 14 -18 -21 18 12 12 -11 -5 14 11 -4 -18 -19 20 12 -6 -6 -3 -20 -18 14 -20
10 -13 6 1 -14 -4 14 13 12 -9 8 -5 -1 -20 8 -17 13 2 14 7 16 17 13 -5 1 -22 -19 -24 -22 -3 -12 -21 -15 12 14 -24 9 -14 17 -7 17 -2 10 7 -18 -14 3 17 6 0 -17 -26 19 10 4 -4 18 -16 -14 -15 4 13 13 -15
-29 2 11 -7 4 -4 -20 -26 -19 33 9 6 -13 3 18 1 8 3 -16 -4 2 -19 13 25 6 8 -22 -18 -9 19 7 -40 -8 -18 -5 -24 -14 -13 14 25 0 3 -25 0 23 -9 -6 -1 -20 -14 24 0 -15 18 42 -18 14 35 9 -25 -7 2 -10 -27
6 4 -5 7 5 -12 -28 -4 -1 13 11 -11 0 -23 -14 -5 -22 12 -10 -21 -4 0 -25 -10 -15 3 -5 4 -11 3 -12 7 1 -11 -15 -23 -12 -24 -5 2 -3 -13 -16 4 -6 -7 -4 -7 -14 -12 -9 -4 -13 -2 2 -24 -8 14 -18 -6 7 11 9 10
18 3 -2 -5 15 5 -10 16 -2 7 6 -10 7 -11 22 13 -15 4 -19 -17 7 10 -16 11 0 10 -11 -9 9 11 -12 8 16 -10 10 17 6 7 -4 19 -4 -22 -16 21 -6 18 9 -3 20 -16 17 -22 -22 1 -3 12 -4 -5 -11 4 21 14 -8 14
23 -4 5 -20 -25 -17 -18 6 7 23 -13 22 -19 -23 -13 -2 15 17 5 -23 10 -7 -20 9 -16 -43 15 7 1 -8 7 -23 -19 1 17 -18 11 -7 -1 1 -4 13 -16 -16 1 -11 -3 9 -17 -2 -8 -9 8 14 5 0 17 -2 -45 13 -19 16 17 -5
13 -14 -17 22 17 19 -5 -2 7 6 -11 -3 -8 3 7 -13 2 19 7 11 2 16 -18 6 -18 2 7 20 17 2 -7 19 -13 -11 -19 -3 -9 4 5 -22 -3 20 -7 -20 -9 22 -22 2 10 2 -8 -2 -14 8 -13 10 -22 19 22 10 -9 -5 -4 -14
-12 -14 -22 -14 9 -13 -21 -1 -2 -13 11 9 22 -7 8 3 9 -12 10 -13 14 -10 -9 15 10 -14 22 -6 22 0 -10 9 8 -11 22 0 -22 15 -10 21 8 5 -5 -4 13 18 16 3 -14 12 2 3 22 -20 17 9 0 0 12 -19 12 4 2 19
-11 10 10 15 2 -21 13 -18 -25 3 18 -10 -24 -12 12 -8 -19 -25 -16 -3 10 -8 -20 9 -15 -5 -21 -9 -11 -4 -28 16 14 -16 16 -19 12 10 10 -27 17 -12 -3 20 -10 1 -13 -12 8 -16 6 15 -11 18 10 -18 -19 9 26 -26 -18 -11 -3 6
-17 -2 14 0 -9 3 0 -7 -20 8 20 3 22 -6 13 22 -19 18 1 21 1 -12 5 4 -10 19 16 14 0 -6 -2 2 1 -16 1 -1 15 -15 -14 -20 10 -5 -21 -3 18 -9 -20 -1 -11 -14 18 -15 0 -6 -11 -12 13 0 -6 -12 3 -2 13 10
14 -23 -21 9 -23 -5 -15 6 -6 -13 -10 -21 2 5 6 -21 8 1 -1 9 -2 -20 18 16 7 -28 3 15 -5 -21 -18 16 -26 -3 10 -9 4 -10 -21 -22 -12 -16 -16 11 9 11 5 -20 -6 0 3 -19 -9 7 8 1 -1 12 3 -22 -7 5 11 12
5 13 -21 25 -23 24 11 4 8 -35 26 -13 13 -3 8 4 -15 -17 -27 -18 12 -6 7 -13 -12 6 -7 -8 -12 -15 -4 -21 -37 8 -5 12 -14 0 -16 19 17 0 -1 14 7 -16 15 -7 -7 -7 -11 -4 24 18 -9 -11 -20 30 0 -10 -4 -15 -19 -16
-8 -14 -3 13 -16 -11 -13 -3 -13 -10 -13 9 -19 8 8 14 12 -19 -10 -9 -7 -20 -4 -11 2 -7 10 9 -11 -17 -18 17 -4 -3 -21 1 -16 7 -4 14 13 8 10 13 -4 -6 -1 12 -11 -12 10 -2 -22 -5 2 -18 -21 0 21 7 -6 12 -1 -6
17 5 -4 -3 8 4 10 14 12 -15 -5 -19 -1 16 -21 19 1 -4 15 13 11 -23 -6 -13 7 -6 -13 17 -4 -19 -23 8 -15 3 -16 -15 6 2 1 -14 -8 -8 -19 -2 7 -23 -16 -12 -17 0 -6 -16 -8 -11 -12 -14 4 -10 -21 -8 15 -5 -2 18
3 7 -7 10 14 17 -8 19 6 11 -1 -1 0 -1 -14 -17 6 3 10 -20 -14 2 8 -6 -21 -4 8 -2 13 -1 -3 6 -1 -23 -11 -7 1 -22 -2 10 5 -14 -14 2 8 -20 9 12 -20 -4 10 -2 -23 -17 18 -16 -15 6 -9 -14 10 -7 8 -9
-3 4 3 -5 1 23 9 -21 12 0 -6 17 21 16 -5 -20 20 12 20 8 15 -13 1 6 18 -17 19 -23 -7 17 -11 21 17 3 8 -18 -11 5 16 -16 -19 10 12 -34 -13 -18 -6 -9 0 -8 -9 -8 -4 8 19 -4 -21 -18 -6 0 -7 -20 1 -11
6 11 16 -8 1 8 13 10 0 -1 2 -4 0 -8 -12 7 -10 5 -5 -17 -1 -6 11 4 -5 16 -10 -1 -20 19 -5 13 -20 -7 -10 11 -10 -7 20 16 11 -9 -5 22 11 -5 -9 6 -2 11 -9 24 -9 0 -13 7 7 24 -30 -18 -1 -6 -19 -16
-8 43 12 11 2 -23 -28 18 -13 24 7 -8 -6 5 -8 -23 -2 -6 -25 -20 -10 -25 -12 -4 3 -18 -22 -19 9 41 -17 -21 -2 -16 -5 23 -19 -2 25 24 35 24 10 5 -19 13 3 37 -16 27 0 -4 -3 -20 -18 3 20 36 20 -9 -9 4 -28 -36
-48 2 16 6 33 26 5 -1 -34 34 12 -18 -8 -19 -21 6 8 -13 -26 4 -1 -28 -17 65 -3 5 9 -20 10 44 -14 -69 37 -21 -27 -15 6 -11 9 19 11 22 24 -20 37 32 -24 -18 6 13 32 -17 -13 7 48 11 -24 85 10 12 -16 68 -57 -55
7 -9 8 19 -19 11 13 -16 -21 1 -23 -10 20 -8 1 4 4 9 6 13 10 5 -10 -3 7 -26 1 18 -16 -1 -20 10 -2 -16 -9 -19 13 6 3 -17 15 -2 6 -19 11 -19 5 -8 -19 -1 -20 10 -3 9 6 8 13 -20 4 17 12 -3 29 21
-1 -16 12 19 -2 -12 -14 -3 8 10 -11 -16 -6 11 22 13 -6 -8 14 22 -5 -16 4 22 -17 -1 5 5 -9 8 -3 -10 7 15 14 6 -8 2 3 20 -13 -7 13 5 -12 -8 -14 10 16 19 4 -9 -3 11 16 -12 6 3 -22 -14 10 -4 18 -3
-6 20 -1 -9 10 0 -11 -13 5 -17 -16 -3 2 11 -5 2 -25 -24 2 4 -21 6 3 -4 -12 -9 3 -14 8 5 -20 -5 -14 -4 -9 -13 -10 17 -20 2 -18 10 -2 -6 -19 -13 -13 3 -16 -7 9 -21 8 -6 -10 11 11 3 -16 -20 -5 21 3 18
-15 4 -8 12 -19 -19 21 -1 -4 -9 14 8 -11 19 10 -7 19 -16 2 -18 11 2 1 2 12 20 13 10 2 -13 5 1 6 16 -4 2 -2 -20 -15 10 -6 -19 -15 -12 9 -2 -11 -10 -8 -5 2 -18 13 21 22 22 -5 2 8 -7 18 3 -15 -15
-1 14 18 -19 -4 -13 -21 14 -18 -18 -17 -16 22 7 21 -6 10 -6 -19 -10 -14 3 6 -13 -8 8 16 22 -17 14 3 3 -3 1 18 -11 5 2 -12 22 -11 -7 0 -16 -10 -6 13 -19 -21 19 14 -4 10 3 14 1 -22 -8 -3 -20 -1 -18 -4 0
5 -22 -13 -16 4 1 -10 -13 -6 9 11 6 0 7 -8 -14 -14 7 11 -20 -2 -22 7 -11 -19 12 -23 -22 20 7 -3 -16 5 -7 15 -3 6 -3 -10 -1 -23 -16 14 12 10 -15 -18 -1 -5 10 -10 -2 -2 16 -17 1 -1 -2 -35 10 -2 -7 -6 11
-28 12 -5 15 21 -22 -12 15 10 -3 3 -1 -24 -23 -3 -19 21 7 -17 4 7 8 7 17 -20 8 20 -8 21 7 -7 -21 -13 -12 15 -22 17 9 17 0 14 23 17 18 7 17 7 -18 5 -8 4 15 -15 -11 3 -17 18 14 25 11 -15 21 -15 8
13 -1 -11 12 10 1 -8 -20 7 -12 14 -12 18 -9 0 8 2 -12 -5 -4 -13 -12 15 15 -9 -17 10 -5 -11 -18 -21 -5 -24 -8 -18 11 21 -4 -9 -5 -14 -3 13 -7 14 12 -15 4 -21 -9 -17 -6 1 11 -1 2 -16 -15 -25 16 4 -9 3 -15
-6 -10 9 -9 13 17 -20 -17 -6 28 7 -3 6 -11 2 -6 -1 14 21 9 -15 -17 -15 -25 14 -20 -9 -16 -13 -6 -5 10 -23 -1 21 13 11 -6 2 -2 1 3 -1 -17 -15 16 -14 10 10 -15 8 8 11 -24 -6 17 0 -14 6 15 -4 -20 18 23
-30 -15 21 7 20 3 18 -20 -29 48 -27 24 -20 13 5 7 28 17 12 -30 6 1 26 48 -12 -38 4 -15 -12 54 -4 -34 79 -4 12 -26 7 -10 11 11 24 29 -3 -49 -2 21 -17 -7 6 8 31 -8 -16 -20 32 5 3 24 18 7 9 27 -26 3
-3 -13 -1 19 15 -20 -22 17 -22 -13 -13 -9 -7 -20 -3 -12 20 -19 17 1 13 -19 -22 -10 -20 13 -11 12 3 -21 -12 14 11 14 -15 20 0 -20 -7 6 -17 -12 -5 11 -4 -14 -2 16 10 7 3 -7 9 0 -9 -12 6 16 3 10 13 -19 13 -12
-10 -18 15 13 -1 -16 0 -14 10 -19 17 -23 0 1 -15 19 -13 0 10 18 -2 6 -12 -2 -22 -22 -19 -22 -10 -2 1 22 -18 -1 3 -2 -19 -17 -16 -2 -15 -5 0 8 -8 -22 13 -7 -10 11 -20 -1 5 5 0 -19 0 -14 -11 8 -12 -18 18 27
7 -9 -9 -5 4 -21 4 1 4 27 7 20 5 -5 -12 -5 15 15 2 -14 -12 -20 7 14 9 -9 -11 18 -8 20 -13 6 0 -2 4 4 -24 -25 18 -19 13 24 -11 -9 26 31 10 -13 8 -17 1 -3 -8 16 40 -22 8 6 8 -2 -17 5 -17 -20
22 -11 13 1 -8 20 21 9 4 -21 16 18 0 -12 -19 -12 10 -2 -6 -2 0 5 -6 6 -13 -11 -19 -19 3 13 -15 -4 -19 -8 -18 11 13 19 2 11 6 -16 5 -16 6 0 -22 11 18 -14 17 11 3 -9 14 8 -1 3 8 -7 8 2 6 -1
4 1 2 -15 -14 -9 -10 10 8 15 -19 13 -22 5 -16 2 -12 3 17 20 -6 -9 -6 13 -20 -9 -10 1 -6 5 17 6 9 10 -5 -12 20 -14 9 3 2 14 -20 -19 -17 -2 -10 -17 -14 -15 5 -6 -5 3 18 -8 21 -7 -21 -6 -15 11 4 -1
18 -18 -6 12 -17 -21 13 15 -6 -19 14 -13 -20 -14 -18 2 13 -1 -20 17 -21 -7 14 -5 21 8 3 9 1 14 -13 21 -6 -20 18 -12 -17 3 18 -10 14 -7 -16 3 7 3 9 -12 11 -15 17 9 11 13 -15 -7 20 12 12 -15 19 13 -14 -8
-22 -32 -20 -26 18 -19 13 -7 -8 34 7 -17 12 0 -6 -6 8 11 -6 22 -23 14 -10 -13 -6 -6 -12 -14 -19 13 -9 -2 23 -11 -13 14 3 20 6 24 13 11 14 -13 -15 -9 6 4 22 18 -19 -11 5 2 7 -16 8 10 19 -25 -7 12 -24 -14
-18 18 4 -14 -1 11 -1 18 15 -1 19 19 -11 -17 -5 -9 -6 -15 -22 -22 21 0 9 -13 12 -11 -12 -16 17 -6 2 7 12 6 -4 -5 -5 11 6 -18 -10 -21 21 4 -1 -5 -16 12 22 11 6 21 -19 9 -11 15 5 4 -12 13 -4 20 -22 -3
-21 20 4 -8 -12 -19 6 9 21 -22 20 -14 15 -7 -21 16 -27 13 -14 -9 6 17 -14 -31 -1 34 5 7 -14 -18 -17 -3 -23 -24 13 15 -3 -19 -13 12 8 -27 14 51 8 -31 11 8 -21 -5 -29 -9 -17 -1 -24 15 -8 32 2 -25 2 6 0 19
18 -35 -10 3 10 -1 -31 8 10 40 -28 -20 18 -19 -22 10 12 14 -24 7 1 17 -11 5 -6 -38 13 16 -28 26 -22 -27 42 -5 -8 16 -13 -2 -30 -9 -1 16 -16 -36 3 -21 -11 14 -17 18 2 -37 -6 -19 -3 -8 -19 6 12 -16 -3 18 -3 -6
18 -17 4 0 -15 12 20 3 -2 -4 -5 -1 -12 -7 22 17 -3 7 -18 17 10 -7 4 12 -16 7 20 -14 22 -2 5 -13 -1 5 18 -17 11 6 -5 10 21 17 -13 -8 6 8 22 1 14 -4 -15 0 -1 -14 -12 -12 10 -15 10 -2 -1 5 16 -2
-6 22 12 4 24 -22 1 -24 10 -40 23 -4 12 13 12 7 -15 18 16 3 10 -11 -15 -24 -1 28 15 -9 10 -32 -17 11 -17 21 -12 -6 -11 -1 -11 12 -15 8 12 42 17 -16 -15 -6 -11 4 -30 18 5 22 -10 14 22 21 -12 -3 7 15 23 4
-18 2 -12 18 12 0 -5 -8 33 4 14 -16 4 7 23 -1 -16 13 16 -7 -22 8 7 -28 0 -6 -2 12 13 -3 -16 23 -14 -13 4 13 -1 7 12 2 -13 -12 14 11 -6 8 22 -15 3 -14 9 -17 27 -14 23 14 -4 -20 14 -7 -12 -20 21 24
6 -11 14 -20 -15 -8 -12 14 -3 -13 -11 19 15 10 10 -8 16 -8 16 10 -7 18 11 8 -6 9 15 -2 19 -18 0 -1 8 20 -20 -16 -22 -9 -9 -22 13 -11 6 0 9 -12 8 -8 6 15 -10 16 -17 7 -8 -18 -3 18 -1 -7 -5 -6 -3 1
-11 18 21 19 -14 13 -16 -5 -10 -10 11 -23 -19 -16 13 9 20 21 14 -12 -3 -6 0 7 4 8 2 13 13 18 5 12 -12 14 -10 16 5 13 -21 -2 -17 19 -7 -10 20 17 19 17 0 -4 18 -5 0 15 0 19 -21 -17 9 -18 -18 10 4 -12
6 -6 4 15 8 2 17 -24 -2 10 25 3 -32 12 -22 6 10 -7 -8 -8 -4 19 6 -7 -25 19 -9 11 -10 22 -7 -14 10 -29 3 -4 -27 2 4 -13 14 3 -7 -16 27 -7 -11 12 -6 3 29 -26 -6 22 -4 -4 -3 39 2 -4 -20 14 0 -40
-9 -1 16 -11 -10 -7 3 6 11 -20 -18 -12 -4 7 -20 0 4 -6 -12 10 -14 22 -18 -16 13 13 13 -2 -4 4 2 7 -13 0 -7 12 -13 -2 20 18 14 1 17 2 19 17 16 16 -4 -13 16 -20 6 -6 -21 5 9 12 -3 13 9 -18 21 20
10 12 -15 -1 -19 17 -6 10 17 8 -7 18 18 -15 -19 -20 -16 -2 0 -1 -17 -19 -2 -11 1 4 -22 -5 -11 14 -20 -3 -7 -20 -21 9 12 -3 15 7 3 -5 11 7 -18 4 14 -13 19 -21 19 0 -23 -1 -9 -21 -23 -16 2 -13 1 -2 3 -11
0 4 -1 10 10 11 -20 -5 -9 15 5 2 -2 -22 -2 5 0 -16 19 -9 9 7 11 -4 18 -3 18 2 -18 -14 -2 -15 1 -13 6 -21 6 -12 -10 -1 -4 17 12 -4 -2 -22 14 9 15 19 8 -20 5 16 -9 -8 7 -13 0 20 -22 14 13 6
11 -5 9 10 -17 -18 -22 15 12 19 -3 4 -12 9 15 -13 -8 -1 -10 -8 -6 -10 0 -19 -8 -3 -7 7 17 0 -5 -12 24 13 -20 3 -16 -22 -2 -7 -4 16 19 16 11 -7 -2 -6 -14 19 19 -17 1 7 -15 18 -9 -19 -1 14 -12 5 -6 -16
-23 -28 10 -22 10 11 -19 -16 25 42 -25 16 -11 7 -21 2 19 -18 9 -13 -20 5 7 18 12 -28 19 -10 -20 29 5 0 42 -8 12 -22 -1 2 -28 -15 -13 -20 -21 -46 23 18 -17 5 -19 6 17 -18 -7 -32 23 -9 -1 9 -2 -20 9 25 -12 -25
-11 -10 -11 16 -11 -12 14 -22 3 -24 3 -21 16 -26 -16 4 -18 3 11 -21 12 -10 3 2 12 -43 -22 -13 -17 -7 16 17 -9 10 20 -4 5 -13 8 2 14 8 17 12 17 -19 -10 -5 1 -6 -16 25 -7 1 -3 -15 9 -29 11 11 4 -27 5 39
0 -16 2 12 -12 16 -3 14 0 -16 -5 -14 4 -16 -14 10 -17 -14 -15 7 0 -1 -15 5 10 -8 -24 12 0 -1 3 -15 17 -3 -2 0 -22 -18 -12 -6 5 -2 -2 3 -18 0 -5 -7 -24 -8 0 -15 1 14 0 12 -5 -7 -29 -10 -16 -7 2 6
-19 -9 8 -7 -14 -10 14 20 39 -4 13 -24 25 6 21 31 4 -29 11 -3 6 -27 -22 -17 0 -18 -8 -13 -11 -26 -20 23 -16 -6 20 -1 49 26 26 -15 3 4 14 17 -19 -10 5 -10 -22 -9 -23 -15 19 -16 -11 -8 -24 -34 -10 -13 -16 -26 15 36
-3 -6 7 -2 -3 -8 -12 8 19 -2 5 20 12 -6 4 11 -21 4 -17 -4 0 -12 -7 19 9 10 20 -17 5 -3 15 16 -4 -5 -7 -2 19 14 5 8 14 6 -6 -9 10 -2 15 22 16 17 5 6 -4 -22 -6 -12 -6 17 -9 -10 -12 -3 12 -9
3 -15 -8 1 -8 1 -14 -21 4 -16 -4 -17 -4 -2 -15 11 20 -15 -10 -21 16 -8 -13 16 15 -1 -10 -23 -12 17 -17 -15 -2 -11 -1 -16 7 16 -11 -9 -22 -6 -15 8 -12 -5 -14 -24 17 -20 13 -5 -15 -8 -1 -7 -7 -7 -1 3 -4 -10 -2 10
14 -5 17 -19 21 15 -48 1 -4 -13 -23 8 -21 11 23 19 0 -5 16 -23 13 3 15 9 14 -17 -10 26 0 21 -7 -19 26 36 -18 15 5 -13 8 14 21 -12 -5 0 50 28 -24 -4 25 -9 20 -10 15 -7 26 10 -4 -8 -5 0 -24 -4 -9 -15
2 17 -22 0 -2 -20 12 5 -23 -15 17 0 11 -7 2 -6 -13 -2 -22 -2 -13 -14 -7 16 -4 -25 6 -1 -13 25 11 8 25 -23 5 -22 -17 4 6 -2 21 4 14 -22 13 -14 -10 8 -22 -17 -2 -3 -6 9 7 -16 -1 -2 -4 -11 -10 -13 10 17
-8 2 14 2 1 -17 -12 -12 -17 -2 15 20 0 19 5 -13 25 -21 -14 20 -18 21 -15 12 13 -21 18 20 22 19 -20 17 -16 -8 -14 -8 13 -22 -15 7 -7 4 17 -20 -5 0 12 2 3 -9 1 -10 19 -12 33 10 3 -21 -9 -9 16 9 -3 -17
10 -10 -12 12 17 -12 -9 -14 -10 -13 7 15 -13 -5 -9 -4 15 -8 -4 -19 17 -11 2 -2 16 20 2 15 -7 -4 0 0 -16 16 -4 -21 1 -10 1 13 15 18 -2 -15 22 -10 14 12 3 3 3 -12 11 -14 9 13 -2 16 0 19 -9 -4 -8 -18
6 -14 18 22 -10 -20 9 15 0 8 -1 17 -14 -19 4 -14 4 17 -10 -14 -4 -15 -12 19 -4 16 -6 13 15 9 -13 1 -6 -4 -9 21 10 -6 0 11 6 -16 19 0 -11 -16 0 -9 -14 -21 -1 7 -22 -7 -9 -11 14 12 -15 -9 9 12 12 -2
-50 20 0 -21 -3 -1 -23 -21 3 6 -9 -20 -17 -3 5 -13 17 16 -17 -1 -2 -18 -2 21 -14 19 9 -10 -13 8 11 -22 22 -27 -8 10 -22 -11 -2 16 0 -4 12 -21 -8 3 -26 -9 11 -5 -5 -12 13 2 21 -3 -17 35 6 -4 -27 36 -45 -53
-12 -10 -18 -2 -22 -20 -5 17 4 -8 -6 0 -13 -4 0 -25 -15 -19 10 -2 -22 -17 -5 14 1 2 -13 -12 11 10 -22 -19 9 -14 -2 10 -23 -5 6 -25 -10 -22 16 -7 -8 15 -13 8 13 1 -18 14 17 11 -9 -17 12 -13 -18 -17 -17 9 18 0
-16 -14 12 -6 -22 -12 1 17 -18 -13 -19 6 8 3 -18 -5 -20 9 10 13 9 9 -5 -20 -6 -21 -20 -13 -11 18 -15 -19 -4 -16 -10 5 15 9 -17 1 14 7 14 14 22 -1 -12 -8 -12 19 -9 16 17 -16 2 22 -7 13 -17 -1 18 -19 15 0
21 -12 22 -4 -10 -6 -12 -4 18 -5 -9 -3 -21 17 -4 0 10 -4 13 -10 9 19 -10 -19 21 21 13 21 -14 2 7 15 -18 -8 -16 6 16 18 0 -13 -19 -5 16 5 -10 -15 -1 8 5 16 -14 -20 19 -19 3 21 5 14 -3 -22 2 -14 22 21
-7 15 -8 0 -22 -8 25 -10 7 -7 -13 -3 -2 15 11 -23 -10 -18 2 -1 12 -10 1 -17 -2 -3 -16 7 9 -11 12 7 4 -12 -18 -10 -20 5 0 -14 14 12 5 -8 -13 -21 6 -23 -23 20 -12 16 8 -17 -5 2 -8 19 14 -9 7 4 -4 -15
3 19 9 -14 -4 -23 2 11 12 -14 -14 -19 10 17 -24 15 -6 10 -9 8 -15 17 -1 0 -12 -22 -16 17 0 15 -8 -12 -12 -7 15 5 19 3 -10 -2 13 14 7 -15 15 9 -16 -13 -6 10 20 -14 -13 17 -8 2 8 -18 -27 -15 15 -18 10 -14
8 6 9 7 -15 4 -17 17 -3 19 19 -6 -5 -14 13 -22 8 17 12 13 -21 3 17 -5 -16 10 11 9 0 -9 3 -7 14 13 11 6 -21 -10 -6 -22 2 -17 -20 7 8 -17 5 -8 -5 -5 -7 -16 8 9 10 -6 -5 8 21 -23 -4 12 4 -7
0 2 -10 -1 18 -13 2 6 15 -4 5 -17 -7 15 -23 -19 -14 8 7 -4 -5 3 -2 29 13 9 18 4 15 28 5 -9 23 20 7 -14 2 -18 -23 -3 -1 -11 -8 -28 3 -1 14 4 -16 8 23 -15 -7 -25 16 -20 4 23 16 2 5 26 -19 2
-10 -21 -5 -9 14 -21 14 18 -22 0 -2 19 14 -17 -10 8 0 17 19 -9 -11 -14 -5 -23 6 -10 -6 -19 6 -10 16 -5 -6 8 0 -15 15 -8 -25 -13 10 10 -19 -13 4 -1 5 4 12 -21 19 -6 -21 -5 9 -25 14 -19 -2 -6 6 -2 3 -10
-11 -12 -11 16 -5 22 -1 -11 11 -9 -1 -5 -21 13 -13 -7 17 -4 1 18 19 18 17 -8 -6 -17 3 -4 16 19 8 8 -12 -18 17 22 -20 6 -6 11 -9 2 -7 11 -19 -1 21 -7 9 -2 9 18 -13 -13 12 -15 -2 3 17 -11 5 -15 12 19
21 -4 -8 -15 3 17 15 4 4 24 -25 -18 -10 -11 -12 -21 -7 6 10 -26 -12 5 -6 -1 1 -44 6 -20 -16 7 -15 24 14 14 -3 8 -20 -20 -14 19 -13 5 -25 -6 1 -13 7 7 -14 20 16 -2 -2 -26 16 0 14 -34 18 2 -16 -20 15 29
11 4 -4 6 -8 12 -22 -10 -14 -16 -9 13 -10 -21 -22 4 16 0 -15 9 -17 -11 -2 1 7 9 -4 1 18 -15 2 8 1 -18 14 6 -14 -9 -15 -14 -16 -1 5 -6 -4 -16 -15 -14 -11 -2 -10 9 18 -13 4 -17 15 15 -19 -4 18 19 4 13
-6 3 -17 -8 -1 2 2 -8 9 -19 -18 16 19 -6 5 1 18 -5 -8 -10 16 -13 -11 -20 -8 2 18 -15 17 8 -10 -1 -12 18 -20 -17 13 -1 -6 12 -7 3 19 -9 20 19 -1 16 -9 -17 -15 -7 10 -18 -22 -3 12 12 11 7 -12 -20 3 -11
4 14 16 1 7 5 -26 -22 -10 12 -12 -1 13 3 -20 -22 3 -20 -2 -1 -9 8 -5 5 -5 12 3 8 -10 20 12 -5 -9 3 -21 17 -6 1 -11 0 14 -13 -13 13 -10 -3 -19 8 -2 10 -6 4 -24 -17 15 4 2 -13 -6 -4 -7 5 -5 -7
-4 -7 -4 -8 9 -8 -7 16 -11 5 20 19 -5 -5 2 -24 8 -2 -16 4 3 -24 -22 0 -6 -5 -9 -10 -18 8 6 -15 -12 -2 3 -7 -4 0 10 3 -21 6 4 6 9 9 -4 -20 -10 -8 9 11 17 8 7 8 0 13 15 -23 16 -15 -11 0
-24 -7 13 2 22 -11 0 -1 -18 11 6 -22 14 5 -13 8 16 -3 -17 15 16 -22 12 13 16 1 -5 -21 6 16 17 -4 29 1 6 14 -7 -5 -20 -16 -9 29 -6 -20 3 8 -6 -8 1 -6 6 -8 22 15 13 -18 10 23 21 -5 -2 22 -18 -17
10 -6 -10 -2 2 12 -10 -23 -19 -14 -19 -11 2 -4 -15 -1 -12 9 12 -11 -6 14 -6 3 -18 8 -12 -10 2 -9 9 23 -7 -18 3 11 8 -16 -19 -18 -8 1 -16 18 -10 5 -18 8 1 0 -12 -15 -9 -20 0 7 -3 13 -21 -18 -13 -16 -12 -5
-28 19 -35 6 -18 -9 -25 4 19 -20 -2 -6 -13 -10 -12 5 -16 -11 -12 -20 11 -4 6 -8 -20 -3 10 -11 -14 9 -11 18 -29 -1 -13 1 17 4 12 13 2 -20 -14 53 -2 -1 4 16 -19 4 -20 2 -22 -1 -32 11 -18 -2 6 7 -8 2 4 2
8 -6 -4 1 -13 12 17 -21 -1 -4 22 -12 7 18 0 0 21 -18 -16 14 -17 -3 8 -2 -2 -21 22 -21 15 1 -3 16 -16 17 -8 18 6 18 18 20 5 -5 -12 -19 17 5 -4 -21 5 -20 21 -19 -3 -1 5 8 1 -19 -20 -8 10 -9 -15 -1
15 -14 -21 -16 -17 -8 -19 -7 -4 9 -1 -6 -8 -17 4 14 -2 -11 5 -13 0 -14 -19 10 -13 -3 17 -18 20 5 19 15 -1 14 15 -4 12 -15 3 -22 15 3 5 1 4 0 7 -14 18 10 -14 1 7 -6 1 11 17 4 -2 -11 7 11 0 11
4 8 -15 2 -15 0 -12 2 -17 12 -5 -22 2 -6 -9 18 13 -16 -9 -21 14 -1 -6 -4 -16 3 -15 -8 -20 -2 6 18 14 -15 -11 5 -2 8 -16 3 -23 1 -19 5 -4 14 1 11 17 0 -4 -13 18 -13 -4 -9 7 5 10 4 -19 -7 18 -8
3 11 2 15 -17 -3 7 -1 -5 -19 -15 -16 -19 12 0 -21 -20 19 -23 -21 -5 14 -17 -8 -3 -6 9 -9 8 -7 18 8 -18 12 13 16 -24 -13 -8 -19 -2 -19 -6 -9 -14 0 18 11 -16 -20 1 -10 -10 17 -15 12 -2 0 -1 -2 -23 20 -15 -16
-16 24 -14 2 7 -12 0 -22 -1 -11 -10 3 -10 6 -18 -6 10 -11 -24 -24 -10 5 -13 11 6 32 -16 -4 -1 -20 10 -4 -4 11 -22 -3 -18 19 -15 11 12 0 -2 16 14 -3 13 0 -21 2 -1 18 -20 3 -3 -20 -13 4 -2 15 7 -9 -21 8
6 -7 11 -16 0 16 -19 -24 2 -20 -3 -8 -14 0 -6 -4 -16 6 -8 -5 -2 13 17 -22 -5 10 4 -13 -21 -16 -19 5 19 -12 -9 -25 -5 14 7 -13 -22 2 20 6 -2 4 -15 -24 -4 -11 10 -1 14 11 -2 14 -3 13 29 5 -7 19 -17 -8
-9 8 10 -19 -18 0 3 -20 20 -2 -18 -12 13 -20 20 18 13 -9 -1 -12 -12 12 -22 -12 9 21 18 9 5 22 15 1 13 -4 17 -19 -8 17 1 -19 -21 21 -21 -22 -7 -3 -21 -20 -17 14 -7 -2 -8 -22 -20 9 -17 19 -9 9 -19 17 -7 -8
9 12 -13 -9 6 -1 -14 12 12 22 -9 21 -1 2 -16 11 20 1 -20 17 -2 -3 22 -22 8 -13 -6 8 8 16 5 3 -19 18 -12 22 9 20 -17 16 -1 18 -8 5 21 1 20 17 1 -7 -22 22 -13 15 -22 6 -11 -7 11 1 -18 -21 -15 1
-5 7 6 18 11 22 -15 1 21 -14 7 21 -1 -9 18 -8 6 -9 -2 -13 -5 9 9 -10 -3 11 -11 -14 -4 -5 -22 -17 -18 15 19 13 1 17 -4 6 4 0 -15 -19 -4 18 -1 11 15 -22 17 -5 1 -21 -10 14 -15 21 11 13 6 16 -6 -2
9 14 14 27 19 12 1 -3 -36 31 6 3 -19 -3 17 -14 36 7 -10 4 -4 -4 38 8 6 -31 -24 -4 3 20 -4 -36 53 5 -2 9 -15 -18 5 15 12 23 -15 -8 24 -19 -10 -8 -18 -11 29 -30 -7 -9 14 -26 -9 10 12 11 16 -10 -3 -36
