-3305 -3184 -3440 1347 3567 -6688 2775 5270 -5527 -315 -1843 180 -4350 -1705 -1599 4684 23 1526 -4453 -4093 -4593 -1314 2230 -3604 1345 3111 4962 -877 -2936 2062 4402 1170 2556 -4708 4313 4433 1125 3202 -1107 -887 2898 1780 -5461 -538 5090 4816 -703 -5624 4695 2752 1334 63 331 4259 -93 675 4276 -226 -4077 239 -5668 -3319 4516 -5194
-1677 3477 5844 -8766 -7949 2816 -3793 3759 -362 -819 -10194 7040 -2415 6837 -3082 -3234 2162 698 4833 -765 -4261 -3752 2430 -2474 -4901 2818 6406 -4773 2357 11780 2498 -127 403 8621 -1335 1961 4594 -5546 -8103 -404 -2649 2629 556 -3051 -5384 5392 1981 5129 1574 12428 7034 -4877 5966 -5420 1655 -4851 3347 -2330 -946 -2294 -3354 3379 3333 -1488
-1497 -6256 -1071 8592 2944 569 -2262 -4708 -5913 3997 5351 -1427 -2573 -2766 -3042 2260 349 -3561 4864 -783 4305 -6067 -2068 -1880 4914 6374 2636 -996 927 -4436 2417 -18072 -948 2489 3877 3096 -926 3769 6043 -660 -7245 46 -2905 -33 -320 1651 -398 2 2066 2130 -2552 1923 -3271 2606 -767 -10748 -5799 -924 216 982 -5374 -1864 -4295 2874
3354 3755 -5512 -2487 -1862 536 -4141 -2243 -6195 3103 -1124 -777 -5689 -533 -5773 -217 -3332 3146 2314 -812 -5305 1140 1481 -1172 -6005 -5674 -4289 -1445 -972 -2416 -3339 1613 -4632 3011 4841 -3475 1024 3924 1880 964 1460 -2809 -654 4482 -3418 -4205 -3331 -235 -775 -2116 -117 -2577 -896 1359 1470 -3160 -928 -5038 3457 -1926 -6054 -6215 -1799 -4134
-7072 4596 5328 -6672 -5023 -254 9161 -5757 294 -977 -3658 -5112 -3158 -3439 -4647 3423 -1879 4382 -7271 3523 2459 -2731 3113 -6834 -3978 -10498 -895 -5049 -1512 11635 990 5782 -2967 2365 -10188 -2342 5060 -5177 -10327 -1819 501 1373 2286 -1372 -8558 3150 2679 -4428 294 411 7238 -15622 5689 -9469 -3854 7805 1820 -9124 -3515 -616 -1733 -6186 -8406 10738
-715 1756 -5424 988 558 4327 -4171 -3311 821 451 -2021 893 3155 2025 4457 -5484 3951 -532 -1699 4170 3016 -4800 -4437 -1508 -4163 -4954 -2078 5370 -6620 3118 -5652 -1150 -1277 -483 2566 3563 -3911 -2710 522 4639 -5409 1926 -936 4372 961 -5568 -4934 -545 3401 -2093 -4261 -4751 -4262 -2313 -2916 -697 -1811 3420 1693 -3737 -4761 3295 231 2036
-1267 -1774 -3110 2478 4944 3088 -4658 -5672 -3782 -5465 1850 686 -4690 3612 3148 3739 -190 1463 4650 -25 -4090 1979 -1959 -1552 -3800 -2794 -3422 -3481 -3939 3866 -1246 -508 -2909 -445 -4434 -604 -549 4505 -351 -2016 -4846 -1754 -350 329 -5009 -2605 -990 -3142 1807 -2071 39 -3646 327 3799 3581 3562 773 1128 4754 4197 2730 -3594 -1821 1072
-944 5769 -2555 -5731 4830 2545 2183 2083 5250 3017 -4319 -5282 -1776 -825 5781 4453 -2418 2401 297 -853 1674 20 4394 2096 2523 4454 -3568 5068 -2594 -2930 -1047 -543 5096 433 -2278 -795 5464 -2661 -3309 5517 5622 -2465 -143 -2210 -3785 3144 1770 3463 524 1504 5107 -1324 -5404 3025 2320 -4885 -4502 1110 -5176 2936 -1592 -3238 826 464
1691 1327 4270 -3721 5869 3118 5407 -5006 -1137 985 836 1284 487 -833 -2078 2980 1901 -1506 -420 -852 4794 3614 -1917 1114 854 96 2617 -387 439 1417 -1303 5933 3660 1842 -869 -4392 -5721 5354 2818 4018 -3645 1738 -611 -2091 -3298 -3731 -5918 -4697 506 -638 7764 -1124 4319 -3152 -4310 4564 1475 -3538 -1381 -5848 4573 -3132 -1849 -6380
3318 -439 46 671 2404 -404 -411 -2183 1677 -1406 -1268 -3391 -2507 1969 -2126 2711 -5228 5190 -4236 4386 2885 2707 -550 -2865 -2007 -5816 1831 3865 -1936 -4619 4038 2005 -4934 3216 -5685 2300 -1356 224 -5144 2468 -3504 6187 -3847 2950 238 -4726 2401 -532 5131 -4998 -271 -6447 3992 -4099 -569 -3258 362 -327 3658 1591 1088 3619 -168 -1140
2756 -306 -1419 5941 -2368 -5970 4321 -1602 3659 -3800 -1739 -1765 -4262 -397 -5378 -4041 -543 231 -4825 1854 5098 4248 -1409 960 -2765 -4921 -2471 -4471 -4963 5523 -2220 1733 5397 2077 4958 5098 -753 3894 -2864 -3855 3833 -244 5390 -4788 -1055 3182 5143 537 -2046 -1625 4253 -4122 3188 3476 2512 5827 -4020 -3060 2375 -3174 3251 4958 445 4309
985 -4669 -2081 3388 -4340 -3338 -4769 -5864 -962 -242 -1365 -5225 -4071 4608 3687 2292 2688 2424 4360 5203 -3738 2544 -2824 4374 -182 951 -5342 1747 -3459 -3803 -75 -1645 1715 -1511 4282 -2333 -238 -5333 3912 -3687 4280 -6830 -4241 4854 -4094 348 -2124 -345 1318 364 518 337 2954 4557 -5041 4381 593 -532 -3453 -4282 2221 -59 -1356 3353
2904 -1207 880 -1944 -2581 -5267 -676 -1708 -1876 -4998 2710 -1358 5293 -5946 -4228 1539 606 -204 -3909 15 823 -2598 2610 -368 -5158 -6 3474 -556 1182 -3020 -1023 699 195 4292 5021 164 -2208 -760 -1367 -4381 -2580 -2187 -4065 -1158 1880 4444 -1412 -1099 4885 -162 -1137 587 -5560 2421 3435 588 3414 -2378 -482 462 -1868 -854 -5831 573
1963 605 -2165 1662 4119 5441 -1931 3357 -5378 4916 3378 4723 -487 -987 -5593 -2056 -3631 -2794 5146 -1137 -4768 3357 -4485 322 180 2626 -669 2326 841 5041 5770 4263 -5419 -4553 403 154 2910 4758 -5231 385 2059 332 1190 4418 -323 -3944 -667 5691 2392 3584 3608 403 1896 1163 4872 -3000 -4040 5066 -4047 3285 2624 4278 -5543 -1646
3669 1330 -6095 1190 3760 3035 4915 33 2995 -207 413 -2828 -343 -5291 1672 -3070 3005 -5494 157 5056 -5582 -5085 -5956 3347 -3902 6344 3090 -1659 2040 -6761 -3077 6149 -4900 3702 -3525 -4634 -3077 1438 -1051 159 5011 -2799 -4244 -1232 -5763 -3908 2196 884 -4036 7140 -485 5895 -7412 1251 3575 4351 2070 -3165 1119 -4811 -4698 -2741 -6242 -2881
-1686 2434 3910 1557 -4024 362 -2658 4686 -209 3144 2342 -1763 -652 -6228 -5614 -5546 4768 -5177 1449 -4044 1083 -840 673 4557 -2796 2326 -1784 2285 -6667 3622 -5437 -1013 -5970 2260 -809 3097 -136 -2632 1410 87 4455 -952 1102 4132 -3951 279 4628 -3001 -689 -4460 2778 -2316 -1645 -2535 548 -2280 -3642 -592 110 2043 2402 -3696 -4351 -3767
-5179 -3076 1233 4792 1991 -2668 -7450 -813 2832 -1689 -2769 -1494 1904 -1778 3618 -3626 -5418 4624 4426 -2054 283 -2851 5688 2233 -3629 -4481 5639 867 1358 -2640 -6341 -12098 617 1267 -7624 5207 4674 4857 129 -3293 -6006 4745 2807 -2506 -651 -1802 -3811 76 -5688 -194 124 -9318 -358 -3418 2772 -3352 4045 -1145 179 -3581 516 -1442 963 6044
5292 -4545 2825 -444 -4368 -6409 3651 2517 -3246 -4707 8590 -1941 -3552 205 -4446 2707 1989 -5189 1240 5184 1633 3227 -4915 -4021 3051 2778 2351 2457 -4291 529 -4416 4121 -3659 -6027 -643 -3880 3693 -3753 -367 5017 1585 -5937 2730 -4321 -1615 28 2779 850 2667 -3934 -3843 3981 1053 2047 -52 -4530 -2451 -1748 -2948 -3096 -1469 3293 2252 -1302
-3788 1734 510 3255 3486 -3569 -2291 5735 -4295 2565 -69 1066 -241 1989 -906 -215 1648 -4996 -1943 4367 -1814 -3065 188 4693 -4677 -701 -3667 1711 1159 -4288 4665 -5245 -5560 2075 2544 3994 -5373 -1728 -5774 -1704 -2911 5505 3286 -57 1144 -2876 -874 4493 2788 -3074 612 -510 3827 -5298 -4264 1464 -1470 5760 -2112 968 2674 3338 3178 901
335 2254 -2451 1168 -2146 -579 1189 4965 2295 -3049 -2602 5168 3259 1818 -453 -800 2040 -4490 -5785 -1240 203 3837 -4198 2456 5115 -1031 648 -332 318 -102 -4189 1973 910 3728 560 1507 -3392 1364 2226 -2047 276 2156 -3562 -4581 -921 2876 -3264 -324 -5178 -1653 2678 1106 -4319 -2275 5780 -5514 184 881 -5982 -2820 -1743 -4590 -5718 3729
407 3268 -9618 1363 6494 1746 4682 -5538 -2503 -1618 71 4119 -3939 2438 2357 -3205 -4856 -3333 -6917 -3064 -13 -2291 -1182 1988 1855 -63 -908 -3593 66 -958 -5804 307 -5084 -6575 3755 -2318 -7096 -1560 -3828 1306 -7489 -818 6248 -3859 2793 -2001 1640 2178 4895 -2087 3953 -24 -3618 -794 5873 8576 -319 1418 3876 -839 -1042 -5175 502 860
7692 -5052 296 4876 -6 293 -3274 265 -576 -3081 1200 3106 1384 -5065 -5230 -2322 -1501 -5608 -5422 -1854 4522 4040 -4345 -5047 1000 1191 -5777 -4136 671 3010 -3243 -10305 5195 -580 -6012 -4146 3314 2958 645 -4911 -1469 210 -3976 3055 4425 4370 2951 7023 503 -4013 -127 4933 -3286 -1092 -727 389 -2807 -876 -5104 4250 -170 3097 67 -4235
-370 2943 -5183 -3393 612 -1185 3419 -4061 -1877 -328 5086 -3074 73 5428 -3953 3003 2945 986 -838 -4628 3535 5478 3668 662 1612 -3252 5692 -1624 -981 2780 3221 891 4324 -1826 -2141 2563 4542 3695 -2960 4708 -5081 2249 -5608 -4062 -2231 3883 2801 2045 -5624 3585 1425 -1942 1655 2312 -4787 181 -3884 -4877 -5371 -3752 -2542 3634 -2423 -5672
-1234 -2917 -7323 1565 5439 3412 7669 4179 -5420 -5735 4286 -5824 5686 -2254 3593 -4997 4317 1085 3273 -981 -5649 1332 -6329 2191 -2964 -2827 -235 1014 -7244 -8191 1555 4380 -1812 -8148 5065 4709 -6744 -3714 -3572 -1465 652 -3053 -3401 3697 476 1545 -1311 -2809 4852 -1348 -7740 5646 -5982 4283 -1264 -324 3426 -6120 -4805 -2544 3424 -5551 1345 -9009
688 5623 -2584 -3629 2921 2406 3642 5495 -4386 4872 -2838 -1974 -2460 -2164 -2787 3855 2905 1099 -552 -310 -3174 -5677 4345 2774 -5103 4412 -1741 -5178 2562 2045 -2710 964 -2914 -4556 -4483 -5268 -1729 -5359 -2652 4870 -1512 4155 460 3081 736 3474 2212 2879 459 5777 4432 -3550 5196 3739 -3620 -3509 -3667 5726 5178 602 -5686 2591 -208 1649
-3829 -1656 -2347 1352 -3398 570 1103 3054 -5300 -242 -2863 2495 1688 1978 2911 3378 -5094 -2655 -5586 -5546 -3885 1166 4597 5725 -5168 -6013 356 -2225 2440 -4606 212 -3768 1123 -4972 -3519 992 6976 -5437 187 2112 2666 3292 2273 -310 2527 -2318 1733 31 -4967 -2960 504 -8052 -3057 4051 -993 -4781 166 4276 -4932 5846 -6327 4652 -3650 -3967
-1767 -3282 -7539 1562 7940 4533 6948 5024 -432 6257 -606 -2757 1122 3993 202 -3478 4747 1830 1559 3650 -4482 -3450 3212 -24 1769 3244 1285 13 -2530 572 3312 6282 1182 -1498 -354 -86 -4063 -1616 -978 -1762 4077 -316 2663 -6041 -3250 -901 -1449 6159 -1777 4320 2201 -2031 -2116 -3867 936 5685 2661 496 -3751 -2727 5048 -4291 -2345 -6448
-3315 -12 3624 -1373 4426 -459 359 -4755 857 297 -1024 2789 -4699 3417 100 -2977 4174 -4688 1947 4258 1626 -2869 2917 2328 -624 2575 -4222 3911 -3659 1645 227 -579 2303 3447 -789 -4242 -2042 -1312 4785 -184 3398 4722 -3551 3700 -4268 -5148 -3720 -3125 -1165 -5864 1367 269 2319 -4969 1273 5045 -1743 -3798 -2422 -1359 3579 1622 -6579 3614
344 4643 1518 -4396 -3053 1880 5992 5918 -2893 1573 -4084 2287 715 1508 2592 -4742 2088 -4767 3017 3767 -2324 1528 3864 777 -2752 1662 -798 -4148 -5926 -608 2288 8577 -1053 4546 4113 -749 -7124 -234 -5294 2294 -4242 -552 -6132 4849 -4182 -4117 1721 5089 3846 -2991 -1819 91 -2849 4740 -2198 -734 5789 3745 -3176 2203 -2277 5269 -3052 -1249
370 1937 -1087 -5149 1343 1611 2632 -5434 2579 -3393 1063 -5454 2053 -734 -4403 -2798 -4991 5009 -3914 1356 4404 -2839 1389 -1367 1151 -1979 -5335 1066 -5767 -2797 -801 -2667 5058 -1562 -1711 -1991 -3936 -675 794 -3466 -1201 509 -3829 -2430 1726 -159 -789 4579 -442 3312 -5362 1313 3990 -1160 5040 2142 4716 1630 2606 -2658 585 -2145 4077 -487
-5261 3321 -2975 1825 -3128 -439 -3897 -3425 3470 5046 541 3899 -2780 1459 -2107 -3817 -1672 -1230 2417 525 494 -5685 2011 -5743 -5086 4930 925 -4338 -1353 -4352 -3919 -2161 4389 3819 -5377 -3172 -4874 -5136 4783 2548 879 -1892 4307 1924 -5726 -1290 -4101 3253 2888 1213 5615 3298 -3218 4872 5090 -4677 2807 -840 -1717 4809 -5326 3557 3832 1425
-106 3416 2415 -3235 -3324 3829 -1707 5472 2856 -3471 944 4719 5402 -2358 315 4503 1426 2744 2589 -437 -2057 -5316 2939 -3426 -2458 2278 -1373 1979 -1804 -1125 -1824 -1846 569 -1761 -5607 5047 3683 -656 5382 -3857 -3714 777 5105 4186 -4981 -1952 2989 2186 5014 635 2558 2002 -4898 4977 -4933 1270 2378 5353 -1286 2032 4610 2087 -1807 -1728
1125 -5204 -1554 978 1517 -6943 -1510 9 -2211 -1840 5479 -6045 -3302 -1385 1694 4459 2189 1214 -5761 1366 2683 3591 3499 -859 -2732 716 290 -2806 -2388 -3782 -99 43 -1116 1818 -890 136 2186 -4825 4449 2718 137 -2557 -4000 -4281 896 3609 -2759 4173 -1118 -2903 -3241 -2976 1933 727 1463 -3160 3836 -4027 -3147 -2901 1859 -5736 -5606 4231
456 -5163 3285 -492 4273 -5179 456 -3366 -5805 -4212 1986 4152 3083 -2920 -413 -2623 -436 2121 2390 -4568 2452 -5678 1322 -3577 -71 -2269 -5612 4546 -1944 2360 2055 3730 -996 -5457 1820 -4318 3194 838 -1996 1133 351 -7360 1150 -946 -6112 -4229 -3361 3149 -120 134 -5395 -1373 1636 -4573 195 2205 1349 -5934 -5042 1975 1380 -4978 -1981 3832
5661 -1523 7830 -7699 -792 3673 -2874 -2177 -3180 -3619 11308 -193 -4067 5176 391 -5634 -1266 8639 -2059 5680 4092 -1942 -3949 -311 14 4066 2438 -5076 474 5356 5029 -9067 2928 3817 3826 -878 4130 129 -2825 1987 -528 4957 -3903 -3785 -3734 11590 -552 5201 -4234 3762 -5618 2095 1041 4329 3596 -7827 -4098 -591 4282 -710 -6220 3346 -4273 4136
-1594 5656 5382 -213 -5045 3923 3190 -1299 621 2900 -1205 5223 -4826 -4224 3670 2308 -5480 -1975 -4165 -1180 659 1438 5197 2498 -1839 -1677 3287 3367 -4480 906 -2676 946 2895 4187 3060 2100 -4003 2919 -1884 2647 2684 -186 -2486 3282 -3308 -1886 -1625 -3900 -2808 4187 -846 3613 -2915 5258 -3090 463 3176 -3585 2209 -1660 5387 71 639 -2329
-3042 -2958 3134 -5753 5333 2751 -4196 526 -5301 -61 -5715 -3021 2825 -1409 -4961 -5410 -62 3424 3548 -887 545 -3909 5379 1806 1841 229 1180 -2819 2797 505 -4673 -4223 2890 5403 -2888 1688 -4287 -4882 3919 -4883 2938 -1484 -1127 2901 2539 3076 4717 -1347 2693 -1878 -4882 -2453 -2102 -2253 973 2950 5107 -4464 5154 -747 4987 -2697 1790 -108
1242 -816 232 5402 -5124 855 -1643 -5183 1210 1424 3269 -6183 -5225 -4880 -663 4126 3532 1613 -875 7400 -4246 -4443 1112 959 -5988 3804 3250 -2906 4922 -3267 3640 -6516 -2275 3117 1958 2507 1322 2365 -4143 -4059 2498 -1350 -5912 2095 -4535 -2490 5024 -1436 -4864 1150 -1585 4500 1376 576 3510 -8071 -2980 1722 2497 212 -5129 -619 1868 3363
1784 1263 1636 -5175 -13692 -7934 -9652 1712 -2428 695 -9317 -2594 -1583 -2782 1996 1161 -902 11841 -2588 1815 -4651 -6052 10574 -4989 -3084 -1373 4047 -7349 8389 17042 -4171 -6465 1684 4986 -5757 -4053 6189 326 -5078 4815 -8055 2415 -7097 -3579 -1115 8713 7524 -392 -894 7304 -2465 2828 4934 -1513 -2347 -5530 -292 -994 99 2550 -4490 -2935 3149 13577
15452 4183 -1050 23545 20275 -536 -6818 -4436 3728 -3560 17496 -2341 7815 4408 2224 -1189 -2434 -3046 1971 11012 -660 3783 -17968 -6394 1592 -602 1980 -2136 -2963 -5856 -3142 -5601 3879 -5903 5637 5789 -5132 -1709 1034 4908 -2892 -2816 2741 1893 2632 -1718 -3856 -2825 -403 1244 -5557 22349 -2164 5152 2387 -5487 -2636 -3756 3739 -4008 -410 -349 1282 -12100
4314 2684 -3809 3339 -5534 4394 -3733 1555 -670 -64 -2856 5474 3059 -5714 -5605 -5409 1900 -165 4609 1186 2348 1437 -2332 -1850 3332 859 1636 -146 -5141 2294 -1962 5089 4945 5171 2831 -1276 -1204 4004 1670 2538 -2673 3302 -3568 2652 -165 -5515 -1904 -5779 1406 2333 3890 4558 -4600 3148 2670 4545 38 -4867 -2409 1766 -581 1921 -2096 -4887
4869 3836 1380 864 4256 -3986 -5017 -4822 1342 -4068 3749 549 5338 -484 -3186 -1128 4865 5616 1482 4498 -6037 2972 2361 2105 277 430 2269 3539 -3176 -688 1701 -2748 -1272 3309 -6382 -2547 8023 165 2342 4680 1634 -2876 -2381 -3936 -4014 -3280 773 3208 3104 1986 91 -7475 688 -649 6088 3307 -1987 4545 -5181 3131 2660 -3866 -5120 6385
4455 -4710 -4013 3581 3746 2174 -3911 2429 1962 -2101 3916 -1122 -1821 5088 -689 -3475 -3235 -3603 704 3820 3653 5574 4763 -3525 3597 -2500 3302 -2586 3712 -2012 305 -3170 -293 1882 5258 2043 4773 -5333 1865 1430 2407 5167 -3145 -3633 -2584 1593 -2335 3368 -3624 -2743 -4258 3632 -3768 -1097 751 -395 4094 -3127 -2600 5055 3846 -3754 4925 1325
948 -4891 -310 2168 -2060 1038 3630 1465 1520 -3361 -4448 -4315 -3503 -3314 -1172 -1902 -5960 -3730 -5165 4551 -5665 861 -857 2573 1518 -1841 3933 -5951 3759 -1733 2446 -1206 5040 2933 -4948 2790 -1240 -201 5515 -2586 -4134 4474 -5834 -5298 3174 -2267 833 -5539 -5821 -3751 -52 -970 3862 -3821 -404 -2160 2711 -2237 3444 1248 361 -5381 2634 -3121
5411 1797 28 -1594 -1256 1326 2095 5123 -5518 -3820 332 -1606 -1798 256 1037 804 -3277 4354 4124 2939 -1662 -5202 3661 -173 -1795 3481 -3408 4119 470 3615 720 2398 -2934 -3306 -5110 1050 6556 -534 -145 -2648 4166 -7930 2305 4773 1377 672 15 -3389 -3215 -1509 -1133 -1489 3335 -2683 -666 -885 1591 4965 2046 -2968 -1978 3381 4485 4199
-3317 -1821 -1217 -7363 -3950 -5687 6414 -1125 4249 4192 -9263 -4914 1503 2184 -5807 423 5259 -3096 -336 3528 3014 1188 -921 -614 -5652 -3362 1211 -332 -376 2348 -944 5560 5828 4804 -965 2695 -3919 927 -5157 -697 304 -5772 -5467 -278 -3041 9445 -2561 697 1894 10437 8260 -4208 2928 1850 -7811 4203 3387 480 -1594 -11313 -841 -1719 826 6911
-3608 2628 4783 4617 334 387 179 1760 524 2525 -1270 -2200 4665 -5302 -2044 -6082 -123 -635 -2108 887 4146 -5254 1056 553 -940 202 3489 -1662 -1088 1074 -3510 -379 -21 -4626 -646 -1189 966 -5413 2821 -4450 1611 2793 -3195 2145 2749 183 -183 -2568 -581 3676 -554 1236 2168 -3315 -3672 -1307 864 2090 -2938 1943 5069 5032 4516 1521
-350 -935 1398 -3778 -4209 -3218 3581 -3167 -5008 -5668 2626 2506 1644 -1580 -4498 2585 2724 4036 50 4050 -406 1090 3670 -925 325 4852 -3711 2857 3138 -2189 1970 5227 -2683 -2995 -4751 3050 -3074 110 -2013 -2840 -3874 -194 -3781 -2596 5604 -1648 -3950 -2184 3361 1382 -4032 1038 -882 679 -4246 5727 -2777 -698 -2659 -454 2305 1529 -3111 -5225
6374 4236 4324 -4327 -7473 -7618 -13312 -662 1341 2097 3580 -1058 2101 1401 2543 2850 -6553 6533 -3478 6753 4245 883 -532 -6091 -353 4974 4677 -1237 8407 4667 -817 -15493 -2353 8335 -2147 -5109 4327 -2154 21 -2697 -3791 -5041 -1524 -5615 -225 5250 5956 -173 -4235 6472 -298 6295 8275 3331 -3849 -13360 -9456 -565 -4542 3438 -207 4638 -1420 10853
2160 3982 -1307 4056 3856 2858 717 5167 747 -5041 -5189 -4567 4029 310 3848 4827 2629 5245 4897 -3272 2644 1332 -5546 -3582 -56 1207 -2119 -1074 -1954 1646 -2945 5349 -4291 4775 2702 -5316 3558 3163 -1861 -1659 5459 903 888 -2283 -13 1097 -1328 5142 -684 209 -3875 -4899 -832 -2384 2954 -2746 5710 1247 4849 1900 -2864 4986 -3043 -515
-3256 -2494 2440 2204 2594 -1000 1445 -5149 -1595 4110 -1763 1703 -5563 2835 -3001 -4745 3689 -564 -4775 508 4676 4756 3170 788 2415 3248 -5295 4065 -5822 -24 -5107 -437 4972 -2650 -1732 -3538 -2319 -3160 -99 1053 2591 -2756 3882 -4295 2991 -4864 -3858 3154 -5998 -3486 -4576 2582 3365 -2556 -2857 971 -2200 3506 2490 -2488 -1307 901 -5170 -1016
-1677 439 -4407 -1263 1717 -4792 2421 3718 492 645 2576 -2044 -3899 -1018 4494 -5904 -1777 -759 -2734 -2100 -4910 -623 -1039 -1110 3095 -338 1274 -6033 2911 1515 909 3160 -1211 -3035 -178 -23 -212 -4735 -3504 -3195 4080 2275 -3710 -518 1263 -359 -2082 -3569 1395 1686 -3075 -3909 -172 3019 -4737 -1076 -3178 -4870 1925 -4213 2073 741 3995 0
-3324 730 -3514 890 -4084 2506 4089 2724 4499 -1363 2745 -3504 -2369 -6388 2878 3829 -5152 -3388 346 -3997 4199 -4857 -2063 2164 -4721 -3059 -5207 468 -4985 -3946 1535 -3552 -5608 2189 773 5115 4849 -2432 -456 -5709 -4327 -6525 5666 1327 3610 1970 5508 -3879 4411 -5393 -1158 1708 -4435 -436 2158 -998 1497 3635 1337 582 -3201 3480 -2824 -1745
283 1897 -2924 4190 3545 902 1040 -4255 262 1443 -5850 3080 -2383 -4969 282 -2998 -3692 3336 -1500 6033 4836 3900 4230 -2148 -5549 3359 -3254 1426 -2591 -3006 -4578 1462 3237 -1332 4334 -5471 -7548 -1837 1997 2303 3405 -4107 -3482 -5154 705 -2689 -961 2366 750 -2424 1839 -1128 1988 468 -5702 2101 -1192 3314 -2702 -3832 -4990 -2626 1112 435
466 4751 2589 -2899 -946 4062 -5763 27 117 -1074 -278 3022 5655 4339 2334 2930 713 -1931 2741 -441 1733 -3405 3528 -4792 4420 -2761 1334 -2423 537 -1862 -3003 -6076 -3428 -4608 -1736 3616 -1230 -3952 -5497 2687 -5943 3769 5191 -381 -1511 2539 -5007 -3696 -5574 96 -739 -2278 -4117 -6381 -5089 322 722 990 3270 -2470 -5498 -4752 163 2915
6064 -3039 -2003 5220 -1010 -1363 -8632 -5654 -1990 1396 6389 -4460 -1329 -3134 961 -800 -1209 993 -5701 -3118 -4840 -5284 -3615 -2170 -5212 -816 -2196 -5951 -789 1591 -4748 -10299 1651 5766 -1443 -4750 -2161 -5057 -3947 -1496 59 -2957 -3805 2934 4205 4805 -3057 2179 2348 5012 4616 2449 4085 -1437 3577 -7474 -3238 -1542 -3506 -328 692 -3889 85 -1058
-2926 1718 1425 405 -424 -69 -3127 -2009 -81 -2866 -2721 -4561 2712 3337 -5535 -3010 -2467 -4990 -1934 859 -4760 -6221 2290 -4785 1581 1491 -6157 -3696 2661 3265 33 -911 3579 1175 -2251 162 3942 3486 2292 4234 1904 -6124 1841 5055 3352 2967 1823 4348 -1313 -3900 -2735 -1755 -1120 4219 -1038 1067 3586 -1895 -5918 2596 -327 1993 4186 -2600
2933 -3054 -3745 -684 4315 -1117 4431 3536 -952 -4263 -236 -6557 2010 -5065 -3337 -3537 1656 126 -3512 4904 -576 95 -1661 -195 -1914 2482 -549 -5579 3122 -1248 2122 671 -5250 -3726 1000 198 -6461 5178 -73 2641 2316 -4459 -2471 -5905 -1418 -317 520 -2475 4472 -835 4494 4140 -4792 2292 -956 2175 1983 1 676 5369 1748 1380 31 3006
-3518 -5072 -4357 2603 3862 -6532 2353 -3128 4332 1917 -3093 2496 -6973 -4656 702 -645 -2859 -319 3671 -2748 827 -1143 -199 3473 2298 3760 -6140 -3215 3665 3937 -642 2291 277 -5971 569 -1192 4693 1020 -2134 3637 5009 -1491 4139 -3859 -4305 -3838 439 -7532 -4902 33 -637 -3152 -3460 -1897 -6048 -2786 -4253 -3665 -5029 -3288 710 120 2121 -4987
13882 -2751 -5143 5359 4898 -5236 -3420 -1693 -4795 -1734 6899 4822 -1363 -5056 -349 5573 -2761 3586 3438 -844 3967 5865 -3696 -2379 -6416 2190 1800 2807 1192 -1409 1843 -3960 -4024 -6880 1822 -1750 -652 7562 1017 721 -4574 7745 3876 2182 -6139 -4432 6161 3691 -468 -4106 568 4866 3571 3480 6902 -287 4009 1567 -2727 440 -112 -6682 -4578 -6679
-867 -5435 -1998 -2959 1103 5695 2543 4382 -3370 -1702 2767 -2787 1784 2669 -3721 848 5562 2543 5437 -2974 -2173 2319 -4675 2447 5750 1992 -5694 -4399 585 -1185 -5475 3312 -3956 1993 525 1285 1260 -970 482 4278 1328 5193 1775 2132 2984 -4791 3631 78 -785 2016 -3500 2258 -3113 -1949 -3944 -1787 -2803 3458 -2557 -3411 3324 334 5072 244
-1435 4246 1745 2569 1185 -4108 -2736 1069 -4006 3615 -5227 2794 -3935 -4168 -3015 5159 -1383 -1713 1517 3421 4629 1578 380 4647 -3773 2987 2169 3899 -2522 3787 -5255 4128 1610 -5002 338 -5572 -3420 359 -5224 5210 -4603 -4245 -1547 1494 830 1847 -4230 -693 5543 3434 -1745 -1674 3007 3250 -2064 1796 -1613 -4321 1841 3316 -709 -3551 -4773 -1968
-3325 -3160 -431 -6915 -1319 -3690 780 -6117 -3798 1258 -1463 -3072 187 -4853 1672 -3689 277 4660 -4513 -3685 3531 1558 3684 3229 2437 4734 1830 -5040 -2303 5285 -413 3224 -777 -4212 1203 1623 -3047 -211 3107 -3312 4048 -7222 2991 -2228 -3313 6285 3808 -3158 -1788 1894 2724 -4010 2790 -6357 -2269 3405 336 3628 4105 4602 2202 -2444 2526 1089
2869 -1467 -2076 2135 2333 171 1283 3144 3832 1044 3525 -4899 -3458 -2944 -3495 -187 3803 1309 -5135 -4428 -5130 -2209 -159 1715 -3445 -1299 5483 3736 -2469 3033 2159 -1390 -750 -835 -4137 -2717 -3771 928 -1458 -2080 -3808 -692 -2849 -1830 471 -4097 4769 -265 -5156 -1497 -2460 3122 -858 3221 5267 3854 -408 -2258 4420 -1655 2369 3994 -625 4647
-3764 3547 -3500 3584 3408 -3363 3635 -3255 -2284 -1986 -2941 621 5401 -4511 -710 -4820 1384 5084 -2194 -3205 1277 2432 -4887 -4751 5790 -2104 3212 -3028 5236 2724 -676 5255 -5283 -4808 688 -1887 -2892 -1950 4078 -4590 -87 -4962 -5273 4501 4318 4450 2709 -5511 3907 2597 -1610 -1229 2169 -2219 3104 -4695 28 -2751 -941 -3027 -1682 -4901 2219 5559
1756 4120 -3589 -1891 6004 3195 -2847 -1011 -3362 1017 -5763 -4480 -952 2441 -245 3597 4882 -2050 -3325 -1225 -1529 -1707 4343 2555 -5951 3039 -1485 -4872 4621 -5311 3713 1360 -569 -2929 -1732 1483 3639 -2267 2388 -1769 2883 6281 679 -4838 -555 -269 4113 5275 3127 -794 -3915 -1504 2431 -1638 -99 3403 2770 2885 -1842 501 -1276 -1743 -1304 3532
3366 2519 -3864 3592 1475 3259 -6136 4144 -2440 3723 978 -5532 1156 -4978 -5319 2896 -1669 -1923 -2477 2187 -5201 1082 791 -6057 -4697 4147 -3799 -2667 -2735 915 -6253 -6273 192 -5378 3927 -647 -1985 3824 -3260 -3376 -6037 3185 1304 2719 -2616 3548 -4975 5311 -4561 -4797 1602 5292 5156 1214 5411 -2830 1830 3778 -2105 -4279 -71 4164 3709 -4309
3221 -586 1394 1068 -5054 4958 674 5734 1495 -1805 -1715 -863 -3803 3198 468 -494 670 730 5352 4189 3792 2516 2633 -4699 1129 -2604 4030 2093 5478 194 3130 -4861 -4548 -4974 2162 683 2273 1899 1612 -5241 -422 2907 2510 -3361 5733 4809 173 -5243 -2633 3311 -339 715 -2469 2253 -775 2634 5697 -3364 -5488 -5054 2325 -109 -2597 -4859
-1803 -2201 783 3820 2032 -2467 2660 2955 588 258 -2480 -2147 4039 4750 -6145 3039 964 2287 -1728 5897 -1651 -1154 1793 1692 -2621 1915 -3903 -1360 -3168 2782 3334 918 361 -4339 560 2245 -1128 4949 -931 -1069 -5644 -7265 651 1727 3076 4924 -311 -3556 1863 4864 912 5142 4447 -65 188 -2460 3243 -752 3009 2284 3272 2766 -1570 784
-3263 623 5130 74 -1945 -5192 -2332 -5163 4406 -4432 -3131 4804 -5196 1518 1678 5332 -3373 -2652 -3456 -763 -4017 -5554 915 1313 -4231 117 2178 -527 -4012 2974 -5506 4485 -1607 2125 -2391 -2741 5010 2468 5119 1032 3743 -3846 2078 -5005 -4660 2387 745 -625 3038 -4288 4422 -5575 5596 -1375 2603 -3002 -1641 495 2519 -4978 1640 -1242 5426 -2325
1736 5180 4608 -2650 -3893 542 1137 -2231 1294 1351 1389 -5842 2135 -3977 1677 -1813 -1066 907 -6143 -198 4334 -4443 2577 1181 3235 -4758 975 -1151 -5878 4104 3691 -5297 -2482 4964 4349 -5552 -1331 1281 5232 1603 -5219 -3958 4464 2052 -771 -2623 -985 2069 -5274 3061 5675 -740 -2072 4637 1856 -4503 -5772 1680 -3669 -2744 -5284 -2158 -4672 452
-8938 -2761 2903 803 -3192 -3102 -1367 3445 -1730 2944 -9326 822 -7326 2374 -3222 -1731 5027 103 -4325 5706 -3075 5402 -1214 4788 216 -5070 1244 4514 1404 -6657 -791 16008 546 -3069 2347 4760 -4141 -2358 3085 2442 -5458 -1214 6662 3614 -338 -709 -2894 3630 8244 2371 5813 -191 1349 -5256 3266 8323 7582 253 1709 -2384 710 -6152 1276 -649
-3196 3750 3521 5206 -4633 -5467 628 286 2077 -5707 5735 -169 3615 -5565 1322 46 703 1252 2085 -2644 -1188 -2302 258 1959 -1912 299 -5585 2436 -2550 5574 -4317 201 -2442 -946 -5161 1062 -2207 -3270 -453 4467 -4718 1896 1164 -3436 -4873 -4072 -1011 4784 -782 1196 4547 -1937 -4860 -2074 1014 5123 -4570 -4785 50 -4234 -4967 76 342 4268
-2872 2507 5670 -5993 -3658 -4450 484 -3105 -619 -1582 -6258 1053 5555 2940 5161 305 -64 1314 3511 -1337 -5525 3316 -500 3315 -4032 3027 175 -4700 858 -4282 -1856 2836 -3869 2724 3272 -4520 -4993 1406 3582 5169 -385 -731 4778 -5639 5791 -3913 -495 -4380 2995 -2075 -5958 -3804 -3031 -4853 1549 1102 4414 1324 1697 3308 3593 -2407 2172 -1103
4034 -1338 -781 -817 5366 -4382 5724 4068 2626 -527 1177 -5370 -950 -4240 -1822 5562 529 3533 2971 -1202 -60 5106 -2483 3474 1546 743 820 -48 -2443 4859 4095 -4302 -982 -1439 -2850 2565 -2057 -2574 1566 1428 3532 -690 -501 -1296 -2303 1886 -1021 5491 -4454 -3402 3164 -5086 -2637 -2186 409 1978 3435 -1839 -396 -5595 -4053 -1422 -3124 4234
3313 -701 1848 -2986 1232 1510 -3000 4042 -3570 3668 -2146 -441 -6694 -4975 3617 -1949 1588 3571 4475 -2328 -452 -1275 -4534 1082 4008 -3692 -2070 1578 2200 -2101 -2778 -4997 -969 -2571 -4815 -182 4078 2086 -4948 -1182 3289 -1709 1298 3633 1023 -918 3585 1433 -144 -1172 2829 2602 4982 65 2708 -2591 1446 16 -5503 -4362 -1710 -1659 1147 4222
3409 -4239 1302 3948 3373 107 -2541 1158 1241 10 1804 5330 -1845 3878 201 -3776 -1483 -3321 2532 -3852 3782 4962 -2081 -764 -4725 -2821 -3874 2125 897 5714 1428 4080 -696 -5190 2318 -5486 -143 -3346 214 3510 4731 4068 -5023 4455 -946 4632 5768 -4182 -5631 3333 -5118 459 4624 4153 1283 -4055 2556 1545 -4810 268 233 -2555 -2164 -3364
-3073 -1395 -873 1814 -529 -5101 -4425 -4107 -5642 1708 -4265 4108 5780 -1246 216 5789 -5120 654 -3452 172 -5450 820 5511 2737 4774 669 2524 -1438 2816 -4674 2859 2476 1812 -5474 5625 3452 237 2197 4754 -3459 -2911 2618 3937 173 4906 -2910 -264 1079 4428 -5637 -3976 3255 -1237 1096 -526 -2653 -5243 -5321 -129 -1824 -4207 1665 3446 -39
-1831 -1550 -9323 7988 6537 2166 -5964 5166 -446 5975 1796 3098 6345 -1746 -92 526 -1179 3854 -1601 -1620 -4990 4028 -3319 1924 -3287 1856 1377 -2162 3944 -2504 -4384 -4148 -289 3007 2107 3763 -4841 4613 3245 1734 -1218 7028 4626 -3392 -257 3880 4672 -5361 4593 1002 -3145 -4607 3415 2137 -1338 -2400 4995 -658 4195 5799 177 -606 -318 -5612
3737 -2544 -3500 176 -3283 -5338 5125 -3713 -3630 741 1379 5164 405 2715 1850 -3684 -1576 2648 -4903 -3599 -4035 -1802 3732 2040 2942 -5153 -1889 4741 5150 -1853 -645 3155 -4981 -1102 -1802 788 1210 3425 -3266 -350 -5551 -121 -4292 -3567 -5625 -3089 2973 599 1007 -2077 5749 -4590 -2825 -3576 5092 -1459 -1955 -3918 2274 -3156 -2145 -3075 2859 -3278
-1538 -3749 5138 -3907 -5411 2635 2109 -516 -2158 -1804 -5073 -3903 -1946 -4227 -4420 2442 -4798 2285 -2518 147 -4914 -2154 4644 -2754 -749 -3503 -1967 3918 -3137 -3293 -2355 5725 2412 1269 1452 -5315 1209 1082 -3506 7 3698 1802 1566 148 4850 2607 5334 -1754 2409 3943 -2498 1252 -5510 -3376 3973 953 -78 3131 -3090 1146 -4790 1646 -5273 -2735
5905 -1296 4836 490 606 -4843 -4710 -5111 4363 3384 -2214 -2762 5179 -3328 -5559 4169 -1669 3338 -2248 -462 1661 -377 2720 -5195 -132 237 5147 -5160 236 4292 -419 -10810 -3712 926 166 4982 -3260 -4492 -3230 1241 -4719 -2463 141 -4279 4585 2655 1265 -2129 -353 -4959 1342 7898 3440 -1182 3550 -3331 129 882 -4339 -839 -720 -4668 2600 4790
-875 3526 685 2001 2752 -6337 5029 460 1368 3554 411 -2975 -587 3925 -3886 1008 -2533 -4213 466 -3429 4227 -3871 -3107 4150 -3159 4597 2051 2926 466 -1883 -5789 -3725 -3935 -3707 -3234 2851 -3047 -392 -4988 -172 -3259 -5250 -2517 -3006 3718 -2845 4462 -7098 -2543 -523 1773 -2547 -1665 -4686 2116 3664 -2120 -2809 -4199 -1319 115 3821 4620 -2696
2599 -3716 -3302 3395 6576 3488 3507 -2807 4892 1159 412 1604 444 -5120 2892 -4644 -2479 -5864 929 4674 4197 3384 -1249 -2754 -728 5936 -4911 477 1827 2910 3990 -3432 -4672 4730 4655 -5086 -16 -20 1760 -3846 -1354 -4051 5465 -2752 532 -2307 738 -441 -2219 2598 -3476 -3391 -4603 -1364 -3052 -211 4423 -5660 4351 5077 -735 -3113 1955 3818
2776 803 -764 1335 -6039 256 -1519 -5152 2536 2351 -3173 -5621 -3154 -2829 -3371 -3752 286 -4055 -3470 -3083 2884 -3532 -682 -4525 -2580 -5890 1510 3584 2843 3127 2362 311 4222 1048 -1250 -1782 -2404 5566 4993 -2747 -4150 5713 -2817 2344 -3684 -388 448 -6652 1104 1888 4461 1295 -2880 -2132 -1371 5816 -1855 1251 2149 -6258 -1651 4072 -5044 4626
752 473 6103 -996 -7815 -6043 -5954 2240 2272 -3907 -6111 -2438 -3866 -4837 -6447 -1030 -5331 7894 3335 3848 5415 -6223 7554 -5264 3883 -1211 5191 -1051 4807 8668 -4626 -3989 3360 6110 -8145 -2777 11292 -4463 -5068 -3362 -3267 4076 -7112 -773 -6442 10152 6254 2359 -4482 6583 -161 3043 10372 1071 106 -6548 -6596 -5786 -4839 -3852 -1259 2849 4480 13438
-4628 2496 -4657 -4886 2204 -6470 4647 -103 -4628 2446 -2669 -244 307 1145 2243 -4415 2893 -2739 -295 923 794 -1663 -2861 -1270 -4259 2788 1271 1367 -5537 -578 4390 4067 -3940 730 -5445 -4183 6304 1973 -3831 -3064 3388 3063 2765 -77 -4456 1007 -6027 -4904 -3608 -6183 6703 -7568 3741 -1581 -5331 6907 95 -5821 -5239 1760 -6435 4589 -939 1884
2632 -1027 1408 2485 779 -8199 -1920 -5916 -5352 -1257 5294 -195 1053 -3818 4117 396 972 -1803 -1923 1493 3055 1597 1831 3445 -4035 -4676 -3867 -6342 -4930 1392 -6818 -1025 1147 -5902 -6863 -4283 5809 1410 -3261 -1239 -2949 -670 -4277 -4194 -4442 -627 544 -1804 4421 -1025 3155 -5423 2588 -6215 1854 -1499 836 -5629 -3242 -5195 -1624 799 -1779 -786
2690 -2815 636 2337 887 -3039 7 4911 502 2744 -570 2364 -1193 3595 -2247 -4866 -4998 2691 -4405 1182 -6268 3821 -2801 338 -2609 -2425 -2611 2326 2900 260 3393 -372 -652 4690 -37 3237 2685 -4109 1570 2153 2673 1852 -1898 -5190 -59 -522 -5110 -1488 -4743 -1100 -2922 -634 -512 -3094 -387 3520 -4275 -2387 -1805 -2407 3271 3540 -470 3226
-3081 -4127 12582 -16025 -9297 3282 735 519 3138 -4547 -10497 2046 10521 7530 -7578 623 6147 9583 1306 2465 -4784 2941 -4359 -5392 -3619 996 5839 -5185 9696 13487 -216 827 4036 12315 -3253 -5340 6536 -3441 -6989 4701 -7232 -827 -2372 -3633 -1832 21462 11066 5042 -1112 21356 3588 -11233 7690 -6082 -5466 1656 938 -6963 -4332 -5208 -2040 4019 1198 3530
3882 -2900 3286 -4207 -38 2738 884 4979 4977 924 -4168 -3620 -4789 4256 -3534 -3356 -1247 2127 2211 -3065 -5510 3750 -2018 1638 -3286 -5532 4073 2102 3314 -1914 -243 305 -2936 603 -3305 1778 -1562 -256 9 5206 -4580 -1943 -5773 -5800 -2470 -4429 -1391 4665 375 -1739 539 3839 2106 -6525 -6313 -704 -3633 2839 -4894 -5039 1920 -1613 2802 -1261
-172 1176 2794 -318 5178 3083 -329 2259 2422 -4332 177 1855 -587 3410 -3748 2246 -2227 -2689 -6265 -3246 2309 1792 2722 -4468 3286 446 -1047 -5330 1235 2037 2423 3481 2027 -288 -3527 1190 -3705 2640 3235 -853 -3489 -782 -5706 1814 -4870 3972 1348 -3712 2610 -762 -5292 -717 2923 -5032 -534 -237 3782 -2328 2092 -4025 -2829 2102 2997 3426
-2303 2582 -1208 3961 3780 3636 2205 -1379 4737 -4817 -3011 -119 1221 -4304 3633 5258 -2705 -3992 -3278 -5107 693 -1270 -133 -971 3061 1391 -3362 -4563 -3662 4818 1646 -860 -1297 -922 -5643 2045 -4491 5273 -4828 -2208 3995 -2239 4116 -270 687 -4522 -530 4002 2991 -4020 3741 2929 1023 -5612 -2149 -5789 -1999 5361 3413 5120 2709 -1159 -2840 -3943
-6226 -4520 5253 66 1289 1763 6807 -945 3058 3419 -1403 -4275 -2752 -3710 2655 -50 336 2767 -693 -4245 1095 -3788 1372 1315 3214 -3158 584 2680 -1162 4401 -33 8472 -3768 -69 2384 -515 -2050 6075 677 -6547 -2614 976 -3183 -3402 1845 -69 904 -3208 1092 -7841 74 -11348 -5552 4347 -1121 1842 5444 453 -3007 -7227 2253 1778 2995 -982
-4241 4192 181 -5427 2463 49 11107 -345 2980 -4155 -5285 -5898 -2086 -4133 -2032 -3813 -4906 -203 2182 -1965 -2411 952 6171 2810 -2602 -7034 -888 823 -5262 -4363 -4917 9965 -196 -4093 -4809 3595 2099 -2449 -347 -3420 -4447 2665 4539 4565 -2888 -4645 -1502 2232 -4567 1124 8092 -7196 -3472 1113 -781 6385 -5205 -249 -1119 3526 -7526 3657 2321 650
-2809 -4240 -388 -3680 2953 -3778 1691 -1828 828 -537 -5344 -502 579 -1643 -10 -1243 -3525 2561 -255 -672 1625 -1635 3396 -5637 2058 -1329 -3958 -4983 -1362 -4476 -2098 -1638 3168 -2282 -323 -5268 -2031 4393 2424 3212 1174 1430 -964 -4795 -5275 9 -4080 -1918 -2810 -5970 3811 -4237 -3170 -1465 3648 547 -5625 -2356 29 4650 3309 1014 381 2435
3593 -137 321 -2607 -2969 -1137 4258 3360 -881 1620 6463 1808 -3166 -3973 -3339 -5337 923 3112 -831 1718 2000 -1180 -3859 -2887 4091 1997 310 -1686 184 -2450 -137 -361 712 4281 -1876 2290 3243 -5096 -2605 -4216 -2818 -2663 -1135 -6204 -5487 2828 4884 -857 -3622 -3635 318 -710 1638 1800 -1648 -3575 1931 -2028 -963 -1492 2970 919 -6110 -3811
693 -1516 -3120 1821 1468 3090 -2257 -1027 1440 -2227 1832 -3924 -4430 3252 1772 -5911 3568 -5917 -1389 5973 -6083 3955 -1299 -2787 4553 -1793 -2333 2926 -2933 -8033 -2853 189 1145 2285 738 -5163 -6863 -2223 4839 -2908 -5809 -2738 -5115 946 473 -2150 -3667 -1833 4524 1087 -698 -1493 1243 -797 -2482 4043 -1522 740 -1258 4524 1936 -4472 2060 -7124
-4615 -296 2580 4923 4805 -4841 2844 1773 456 -686 -5698 -3781 2787 4082 -2693 -210 5117 5649 -3759 -5154 -202 -2070 -2986 -4209 -967 2549 -3371 3983 443 -2991 2280 -955 -3054 -1323 -2578 4140 2813 -3115 5145 1360 1544 1801 2156 4305 3761 2290 -187 -3052 3206 5463 -5178 -1169 -380 4743 -3329 1655 4189 -757 4407 -5610 2767 3000 2941 2583
-1300 194 672 -635 -460 312 5700 4206 5976 -4077 2305 2117 -4233 1229 -1036 4817 4346 4162 -1337 2620 2630 1067 2159 1072 2480 3682 2021 1811 1061 2011 3497 -736 -3741 -5520 -662 4094 1917 -409 1049 -1805 -2314 1046 4244 4312 1216 -2629 5174 -5267 -2820 2446 4655 1514 -4213 5024 2712 -1370 -2019 -2986 4070 -150 4790 -5576 -480 3775
5023 -4640 -964 -5290 3722 -5691 -4057 -5270 -5344 5047 4669 -1258 -1202 -3152 -4303 2783 -5024 767 1665 -1935 -5713 4887 -5194 2328 3263 2301 4826 1736 1349 5223 2955 4149 -3541 -655 5427 -458 -4843 577 -719 -130 2035 5462 4146 5754 -1614 -5216 -1845 2308 1315 3301 -3838 -5002 -3261 1301 -3059 371 1221 -2104 -5770 790 -3475 4803 -5703 5712
-1722 -5113 365 2403 5063 -583 4161 813 3796 2130 -1594 -3821 -2403 -5880 -998 -2697 -4341 -5971 -6213 -1560 4750 -3514 1391 -5374 3723 -2341 -3288 -4296 -536 1858 -2508 -2723 -938 -3503 -3327 -4576 -1086 -3286 -873 4497 3499 -866 -4113 914 -4476 -251 1995 -6945 -1891 4252 2251 412 264 590 -4595 3873 711 -3323 1961 4808 207 -1356 82 1074
-2876 3002 1276 714 -1963 -6996 -4593 4452 -2872 -4776 -1241 666 -1331 499 -5659 -6225 -2947 1034 543 -1173 2774 -5832 5569 2077 4122 5289 -2841 -3158 4339 -5546 -495 -3335 5177 2461 1745 2291 804 -4806 -2086 -1231 -5027 2835 5358 -770 550 -1913 4105 1142 563 3340 -387 1034 4771 -4998 1102 434 239 -1477 -4407 2078 4875 -4354 -4719 -3711
5789 1227 -3673 4088 -528 -5342 5127 -3964 -4630 -911 3643 20 1681 3343 2504 -769 -245 -1202 1606 -2390 5521 -4698 1858 -1749 2809 -1891 -3691 -985 -2465 -4587 5238 3391 -3038 1711 -4491 4230 -4118 1461 -4086 -1290 -23 754 -3630 5061 -4883 -2002 -467 -674 4986 -909 2543 -2652 -2010 -472 -3652 1932 4945 4339 -743 -3238 2623 -2577 -2470 -727
287 -5433 -2713 2010 4503 706 -1434 3956 -3465 -2970 477 -6095 3872 -5362 -5900 -3048 240 3050 -2020 5294 799 -3201 -41 -1582 -3767 2586 -3048 4387 3549 -3648 5087 2674 1046 -5061 -3480 4342 273 6552 -3302 2238 -569 4138 183 -3897 -3290 2851 -2099 34 4163 -5657 6457 3739 507 3607 4158 -2745 -2459 -114 1329 -4992 3465 -2602 871 2597
3069 -974 3684 -2163 1658 -1547 -4754 -6092 -5149 851 -3384 -1218 -4862 461 -2637 -2825 -6072 3456 4756 5531 4452 4575 1810 -423 2480 -3539 1342 1537 -821 -3924 -3852 -1088 -1188 702 -4496 -1401 -4887 1906 -99 2945 4815 2050 -1423 -1002 -3680 359 -76 -5437 -225 5083 -2113 -3317 108 -202 427 -1655 2221 -2644 -931 -5284 2350 -5332 2917 -1048
-1764 -4164 -5421 -1704 -3557 2668 4598 -5468 -3451 -2924 -5429 -2208 -6675 -1389 2175 648 895 3186 4266 1998 -1303 -1361 1195 -2855 3821 846 4726 3073 14 -664 -6047 2334 1024 1127 4129 -4384 370 -156 348 3946 -318 -906 1512 860 2289 163 501 -5609 -846 2435 2902 3303 -4209 2374 -4022 -142 3771 4434 -5237 442 -4171 -6377 -1609 -702
-2599 2420 3214 1142 2785 3846 -1887 -2470 -347 -4517 -3820 3295 -3412 4166 -3612 -4613 1586 3723 2445 -3402 3685 3634 2888 2853 -1920 5293 -4739 3481 -5802 3311 -4055 823 -5712 1020 1131 -4280 1664 -1538 -4385 -3506 -3480 -736 5413 -5187 -2319 -5739 2325 -2892 -3109 4950 2455 4771 3001 -565 -3068 110 948 -4181 1437 -4284 -4344 -2453 2381 2794
-2699 3281 1910 3280 3412 596 -4805 -3684 -2708 -3147 7166 3982 -3360 -513 2508 1729 -3695 -1701 -5474 2505 -4066 -2058 1868 4098 1289 3381 2192 158 -1909 4096 1094 -3010 87 736 -561 -4363 -4517 1818 5073 460 -5490 -7150 -3223 -5071 995 -4701 -2325 4403 -4814 -4836 1715 -2615 -4109 -4038 -2943 460 2811 -1981 -1096 -1359 -5941 -6461 -4866 -4366
-5330 -4566 501 -2511 -2422 -2142 -3879 1368 2052 -5056 -5860 -2586 38 3972 4300 4046 -926 1645 2305 71 -2511 -4618 -5666 -275 2511 -942 -749 3197 -4432 3356 -4770 -2228 793 -4944 2650 -575 -6335 -509 -299 -4568 1964 10727 118 1084 3044 -1010 -4656 4607 -3814 -1661 -1456 -1931 3124 -1884 3999 4288 -567 -4790 -2756 2402 3838 1106 3277 -7427
-5301 -4652 3576 3744 2618 511 -3928 -5618 139 2886 -990 -3304 5082 -4432 -2152 99 1018 -3107 -1806 -686 -3796 480 577 -3535 2932 1212 -5411 -877 2509 3630 -3258 3233 934 199 2800 3302 1330 -177 -4675 -5295 1330 193 -2103 2258 -2688 -3408 -3205 -758 -5259 -3218 -755 2733 508 3879 5139 -435 1845 3499 3843 -2909 -2638 2944 369 -74
4843 -4490 -85 -519 4740 2689 3638 2242 694 705 -5083 -4537 1349 -3932 -595 515 -1896 -4897 -3784 -1656 -183 -3810 -4222 3065 -5359 -3098 189 -2350 -3019 -3553 894 -2755 -1826 -2117 -4435 1976 -769 3737 2556 -35 -1526 4456 -4182 -2549 -1119 -37 2861 1342 -2376 -5538 1238 -1130 5053 2620 5122 4864 5181 -3858 -5263 5225 604 -5271 1491 -3820
4568 2360 -872 -2168 -2774 3318 4136 -2149 2826 3089 -498 -5279 -6142 -4510 -1993 1119 669 2794 1892 -251 -1300 -3174 -21 2632 -245 -1643 -4301 -3245 -2925 -3056 3242 -1538 -5899 -5292 -1513 1228 2397 2859 1084 -5639 -2677 3383 -3158 -83 4193 -2364 -651 -5793 2705 1854 1551 -938 -2159 1711 -3272 2342 4477 -72 1925 5216 -2611 5031 465 -270
2857 -430 -4470 4191 -5656 -5500 167 -3460 4105 -2818 -4862 -1563 3406 4883 5348 450 -4614 5607 3029 452 3352 -253 4552 -2792 2955 4434 -1362 984 2109 2273 2133 4574 5341 2612 2442 2779 1535 -2781 2069 1793 -4314 4767 3993 2427 -1731 5103 1572 395 -3981 1593 -1553 4114 -5609 1755 -1413 1014 -3316 3793 -4909 -4123 -3774 -2880 4209 1942
-4139 -5070 -9640 -1095 4149 -2614 4744 1593 -4490 1124 -1875 -2951 955 -2404 -9189 -4980 1297 -5211 -754 1427 531 -3064 6983 3978 -7020 -2875 -2837 4099 729 -6720 1613 -1949 1030 -4205 -6087 147 3772 -329 -1348 -6110 -5225 -2575 4220 -5415 2291 -1015 -5421 -7382 -6564 -6434 1911 -5716 -4960 -518 300 2544 3542 3270 -6344 -3541 -3852 -2016 -1590 -2713
-2646 1577 1255 -3263 1433 -3112 242 2434 2342 870 3903 -3095 4403 2918 -3536 355 -2083 2468 2378 4369 -1590 3334 2211 4645 2430 1518 -3393 -5102 4514 1508 5188 4559 -520 1345 -2630 -597 -2146 -1141 -3603 -1969 -4092 -4844 -1036 -4898 4020 119 -788 4857 4927 3960 5608 3715 4223 -2284 249 -2170 -2050 9 -2300 5342 1585 5104 523 -377
-5497 2075 1610 2683 1289 -3638 211 -5779 -63 2876 1501 5650 -1816 -1904 -778 648 -717 -3666 -4365 2260 5574 6330 -4689 1785 3624 3208 1517 2309 -6000 -7872 703 3090 -363 -830 -1304 875 -15648 8015 1028 1093 -5111 7336 290 506 1794 -8580 -7042 -4108 573 -6581 4910 -29 -3851 -2071 -5499 4405 5789 -461 993 -2384 3529 -3400 953 -1221
2872 -4605 -7137 51 1707 3489 -2902 -6162 -163 -1092 1339 -585 -1166 3848 -4940 3143 -3220 -2851 -3464 -1521 -471 3033 -4174 6076 2576 -1251 -1376 -333 -3612 -5402 1593 2265 -3735 -3532 1137 2942 -8992 -1611 1956 -2865 6154 -5260 1823 -5433 -3323 -3156 -1739 -5307 -4519 2752 538 3029 -761 -3839 -445 -1919 -2918 -5237 2852 -3307 -3041 1975 -542 -7494
5129 -2551 13460 -12695 -13374 2589 -2775 1740 -1236 709 -2758 3761 -5987 -4007 8247 -3163 3949 6420 -887 5233 5955 -194 2478 -10395 3227 -2734 -4856 1662 11498 21995 840 -6544 -2480 3847 -6760 912 2559 -2054 -5494 8923 -7270 -1552 660 4516 -713 12572 7118 1130 -6364 233 -4064 814 14262 -1265 2471 -6235 -11501 -2387 -5043 1556 326 -2150 1986 16846
320 4841 4517 -3651 -4737 4806 1277 4823 -2105 -357 2869 -1636 -1474 1086 5791 3078 5653 5709 699 -1297 4027 -3071 -1959 1209 3059 -2331 4789 -5278 1878 -546 -1655 1539 -1340 -1125 -486 3323 -299 -1331 760 -1633 1351 588 -1897 2047 3968 1862 -3743 1877 2446 -2018 4373 -489 -4492 2253 -1501 -3982 -4255 5413 639 -3615 -2207 5149 3085 -3360
3345 4775 -2542 4992 1847 4783 -4510 -235 1902 1915 -1373 2123 4428 1510 -1498 -70 -4492 -2779 4458 -5083 4577 -3902 -2831 297 -2196 -4125 2202 -665 -2660 -2136 -4546 3887 3624 2644 2877 -1917 1473 539 903 5030 -300 -1362 -2068 -2619 -274 971 -100 802 -2157 -1880 1935 -2538 3446 5596 942 -4285 -2628 -1550 5263 -1091 -4574 4338 981 -329
-4658 -619 2972 -13054 1597 1814 -867 -227 4355 6066 -5247 225 3378 -4305 4709 -1128 1484 824 1591 7009 4462 -2907 7004 -2272 2302 2054 -2661 -4368 4704 9596 2837 -5340 -2557 -3014 183 -74 354 865 -6731 4845 2655 -4255 5512 -3414 -1314 9835 5064 -3391 -4099 2785 2057 -7622 5501 3664 -6360 2443 -6128 4535 -1477 -5155 -54 2173 1549 3782
-688 1061 -4628 -5282 -4883 -462 2310 2823 2276 1106 -1029 4553 3876 1341 5089 -2992 2246 216 4378 -5323 1990 -3109 3541 -541 3932 3496 -5353 -3917 5062 -3833 89 -6 -3834 4609 -4839 12 2917 3145 -150 -2059 3408 4052 4515 504 935 3016 -3749 2535 4155 1221 2365 208 -1157 -4246 -2689 -3832 -2743 -782 -5019 1682 4223 262 -1579 2319
3657 496 -2654 -1196 -1982 106 489 -1537 475 -1614 -944 4476 5001 -2182 521 2977 65 -2539 -713 3595 1158 3394 468 2914 1552 -5458 -4140 -784 -3443 687 -4985 -2666 -5622 -4409 3665 -1146 626 842 2363 996 1473 -2438 -5482 -5713 1960 -2411 727 -4469 1333 4925 2668 -521 1916 5747 1895 -2895 -4546 -3943 2829 -997 -5484 2250 2182 -1075
-2141 2748 -2331 110 -3831 1180 1802 -3889 -1080 -5180 3060 2651 -649 -252 950 1601 4061 -411 -5725 5088 -5868 -5268 -96 2999 4338 -4169 4033 -3460 2132 2693 -36 422 -802 -4231 4919 -5413 3338 -2138 -4048 -2839 1422 -802 277 -1379 -1785 148 3475 -5322 -5295 -947 -1956 3226 -4074 2356 -6252 413 -539 3675 -1392 5333 -3567 4827 -2096 -1218
-3368 4950 2125 -1617 -2974 -5388 -212 -349 3306 1455 -7086 -6602 5579 -2424 -5796 -2638 -5490 -5204 2848 -3901 -1010 4826 3360 -2855 -3361 -4661 -3077 2168 1972 4084 -3216 -6390 386 -4004 4776 -5283 1562 -1214 -2035 -6116 -5661 645 2972 -3027 -2348 1634 -820 -2651 -2 -3581 2312 4717 2820 -3864 2501 -338 -4203 1431 -5660 -3823 -2607 -5245 -5555 4046
3647 -1301 6404 -8214 -5474 3015 -4217 2844 -2231 3237 -4215 3077 3623 2857 1278 -1058 -1696 -5272 -5321 -752 -187 -255 4306 5159 3704 3130 1528 2953 3611 3240 -1532 2179 138 -311 770 -5241 7275 -1792 -2021 -1908 -1065 -1887 -3918 1571 3419 -4451 -4819 1254 4783 6006 2758 -4994 555 -3583 1524 -3499 -6268 4020 -2861 4804 -3929 -5839 4344 3255
-4615 -4207 -3001 -1559 2766 4931 -4665 2679 -2256 3309 -4506 -5066 -5766 -631 -3366 3646 -5278 -291 -3147 4340 4543 -5007 2845 -318 3481 -577 722 2876 5667 -3833 5444 -5039 271 2598 -4110 140 3831 3245 2068 605 -4915 4040 -3261 -4100 5470 968 -3677 -1141 -1354 -4089 4652 -2975 3426 -3307 2759 -5014 2624 1443 -2478 2627 2986 2997 -4769 5116
