-2836 1148 -813 -1500 400 6 -1786 2595 -1578 1829 2528 -1191 -4295 4367 129 -2260 143 -265 3624 1592 3180 -1853 5701 -97 6435 -804 826 -1532 -99 4288 5557 467 -2939 -1828 227 3835 1638 486 275 -1081 696 1500 2841 -2255 -1035 2128 -2402 3077 -266 1421 -915 -2208 -2203 -2983 -576 -1740 -1708 -1846 -669 2451 4497 5303 1009 5336 3512 -2397 161 4655 -1479 2404 -1026 2076 6009 3701 4579 -2671 5633 6417 1517 854 6334 -1418 -3426 -2439 5832 2669 -608 2232 -3496 3141 -2522 -3026 2424 -998 232 -1547 -2002 -1468 4026 -162 6398 -1849 528 2742 -1321 -2146 -3854 -2103 -1220 2796 -2429 5728 -2310 3512 -104 3984 4536 -2284 -843 3884 1943 1208 4778 5005 -2785 -1263 -3809 3930
-2838 6196 4151 1843 -1332 121 180 -1654 -3520 3038 -4260 -1264 -4800 408 1185 261 5794 1805 1598 2233 -621 1072 2217 -2261 -2504 -609 4631 -6152 -7414 5032 2188 -5918 -3400 -6994 -669 -4531 272 2870 -1082 -2083 -605 1681 -2698 -1916 -2280 6491 447 -2819 1309 -3940 -1308 -6521 -8521 -4997 2690 2616 2103 -3627 628 -2315 872 -2191 1659 -3042 -731 1673 4719 -3947 496 4323 2120 -5838 -5790 3871 -4677 1435 45 -3053 3237 -1431 -4444 3404 -6947 3004 -2713 3996 -3082 4707 3510 8560 -4230 955 -5256 -4671 -5543 -2459 -2617 -980 -2073 -5323 -4930 -16 -5466 -1827 -3320 -5312 3640 212 -2166 -4431 -5538 -4958 -2436 -2831 368 2360 949 -6096 -3761 -5622 -2879 3778 -336 4521 1913 3834 -6077 -2821
441 12184 -6506 -2188 6726 3183 -5810 4214 4163 2194 -1067 -2669 -6401 1067 7580 -3505 -4559 -3099 -1204 -1030 -4322 -8550 1667 3055 6349 -1943 -4198 -3210 621 2848 -350 -3212 -7557 -507 -903 -2376 -5573 3104 5760 -869 1716 -3125 -160 2431 494 -2765 -5384 -2734 5854 2490 238 720 -2828 -3986 -6888 -9223 -6291 6884 1522 -8953 3389 2270 -4372 -3412 6246 3839 -4752 1387 -4868 4678 -4689 -1452 3978 2025 -1867 2440 3857 2779 -7247 211 -5964 -8694 -2147 -6914 -5429 5572 121 -329 -926 3272 3070 -2852 3900 1155 9213 -4114 -2 1328 -4028 3263 1713 -4434 -2371 490 -6240 -3253 6185 1112 -5420 -2974 -3800 -851 -4164 124 2184 -3139 -6219 7223 -5545 283 -5814 -4108 785 -5467 -5604 -3436 -8763 -1529
214 -9182 -846 -6582 9582 -3470 -8647 941 -7204 -602 -2818 -2414 -385 -6198 -6625 -1201 1520 4432 5044 -2764 -11250 -4789 4621 -1650 -2601 -9286 -6340 -18 -2322 -6165 -1512 2491 2734 -6361 10480 -4545 3109 9923 9784 2914 -3069 6349 4342 3088 213 -7037 -2868 -2632 5049 6032 1126 -5813 -9316 813 -2579 6131 -5061 -1088 -3850 5876 -4602 3847 2792 5490 -2015 -6774 5297 4529 243 -580 -4711 249 -5106 -955 -6196 -3301 -3318 -3276 -1527 28 1828 3090 -10217 -2496 4315 23489 -4582 3501 764 -543 2476 446 -495 2202 -3950 2608 5033 -3465 1079 -938 4046 -490 -1746 -722 1444 3206 498 -5104 1712 4124 715 -5984 -4233 -371 -8435 5491 -1903 -692 15956 5958 1418 -1769 -6215 -1672 825 -1534 -8033 1055
-3949 8549 6957 -4249 -397 2822 -4636 481 -12243 -5250 5616 5822 5595 -2619 6024 5628 525 7353 -5735 -261 -6957 1766 -4813 11572 5126 -4627 -9553 -4883 5795 -3682 1030 2071 -3504 -209 -1698 4202 -4153 3097 623 9063 -1534 -4254 -4057 -1552 2897 7411 6146 -4572 8708 5238 -5727 -805 -2460 5758 5873 1575 810 5487 2383 3214 -888 4291 -1003 3712 6285 -4320 7103 1280 2888 5441 7200 6098 4699 4382 -3337 -1469 1217 -2522 -4242 4312 -3253 10826 -8349 -3171 -5530 6688 -7012 4945 5466 16248 2746 2716 -5412 -7596 -6092 -9896 3072 38 5162 4886 -681 -7440 385 1382 1490 -2347 -5091 3031 -2802 -3410 -1337 1207 -7032 3274 -6437 1978 -6058 7865 7130 -3880 5359 6883 971 6456 7848 5508 3487 1602
4275 7950 -5002 -1087 -2082 -3138 -3988 -4096 -7362 -612 -1118 -929 -366 -2846 8685 -4692 -2584 853 3118 -5425 -5400 -784 -498 10658 -6439 3079 -4642 3770 -1716 -3489 1646 5403 2577 -2272 -4720 -5294 5804 3354 -1051 774 -2726 1579 630 -1732 199 5596 -526 736 5908 -3832 2754 -5833 1325 -607 -2590 -3625 -3307 -2237 -3360 -2062 5735 -1141 3168 1443 -1245 2271 -5625 -4533 -6266 5293 -6724 -2547 -2221 -1968 2572 2745 -381 -5917 1479 5377 -6289 -1762 3508 -5921 -4189 -2956 2713 -3172 4191 4743 3980 101 6459 -10635 4352 -2848 -6834 -599 1983 -3609 -265 -6350 -5000 -5834 3723 2974 -6264 1493 -11 2891 3278 -4284 3881 2917 1380 367 8045 4646 -2739 432 6300 -4141 5243 -5445 5201 1215 -4911 3399
1398 -6222 3236 8661 -10900 5631 4272 -4546 2395 2647 -4312 1414 2873 -3286 8236 -1351 -10211 -2450 388 4654 6155 1317 5818 7536 -3083 -1864 -4279 -1084 329 4029 -4447 -3227 -2419 -7280 2344 1166 -4517 -6733 -12031 4907 -559 -3271 -860 -7019 -5645 7137 -141 -1557 -17010 -982 1021 -97 -1009 302 -6838 5074 -762 4104 5883 16429 -3919 -4446 4234 -4135 -4962 -3613 2829 5548 -5154 1447 -7675 3243 5124 -2347 3805 -9399 1324 -2674 -1543 -3663 1702 -5406 8990 -3558 -3502 -22879 6725 3413 3528 -11775 -6389 808 3755 -3339 992 -1938 371 10012 -4428 -4571 -4001 -2838 4110 -1503 -1902 -5010 4753 -3679 6430 4489 -748 5945 10060 -2979 8217 4862 3027 7118 -15874 1987 5925 1956 -4146 -261 -1803 -9384 -5540 3004
635 2361 4823 -1625 -2381 -4347 -3934 -2751 6243 -6131 4342 1537 -4443 3844 71 129 7339 -9494 -2627 -3964 -6228 -1309 4397 -5592 4433 5712 3775 5271 -1350 4582 1310 -277 -6437 -5140 -11050 2527 754 -5109 -4202 -3935 2267 -66 5409 -857 -7452 -614 1297 2155 14294 -2209 -2603 -1370 -2477 -1395 -750 977 -2162 -2252 3598 -7023 727 1287 3982 4812 6425 -432 -4234 5150 3329 1237 5272 -5386 -4627 -4328 5208 -5459 -286 3533 4489 -5591 -2079 496 9252 -6262 -5324 -9905 3588 4445 -7021 9303 6265 -5502 2942 1711 -2621 4317 -254 2023 3467 4263 4017 3057 -863 5588 -5220 3223 6358 2456 7182 -1377 6511 -3530 4156 2576 582 -6169 -1147 -2840 -12679 2774 -3249 4367 -210 -2887 -6328 1299 6993 5992
-1994 10273 5061 8233 -11557 5090 7734 -1723 6846 4403 -4418 5924 4319 5779 5803 2534 -12128 14067 -1134 4378 1799 7020 4200 5372 -2516 -567 285 407 4107 -6001 4588 1696 -6417 -3440 2059 55 542 5390 -5278 19756 191 3656 -1301 4471 -9755 1008 -552 -3130 4570 4532 -276 -4916 6111 -4158 -6752 15632 3001 6210 5716 11202 -3589 846 -3284 -2397 2148 2334 6663 -5102 187 -5639 -2300 4547 -3611 5919 -243 3132 3328 -1421 3601 -3029 -2675 -2359 -1374 -2717 6884 -9341 -7139 -1121 3625 6555 2883 2419 -2178 3658 -9635 -1364 4414 3165 820 3484 3972 -1868 -408 -3847 6848 5930 -2286 -4794 7921 285 3127 -1626 6702 2985 -6233 -3101 -2970 9888 -7921 565 -1841 -5257 730 4880 -2521 -2061 -10711 -3535
3720 -2497 -10504 4903 50 -656 -346 -5327 1589 4224 1768 977 4140 959 -7067 -5818 11386 -11144 -2566 -3891 -1666 -14547 1092 -7952 -4728 2744 2712 5249 -1901 -4839 1789 -5911 5213 -890 -2149 4109 -2434 -8484 12490 -21419 1453 4726 4019 -2458 2048 1596 3784 -4017 1995 290 -3955 2504 -4789 -5965 8073 -2450 -1270 -6990 2166 3129 -3353 2013 -3694 -210 -1726 3945 4329 4346 -5777 -5543 3051 561 4005 932 257 2065 -641 -4968 252 2480 4735 -3531 -2520 -2620 -2769 4218 6203 772 -5030 -8036 -3206 4433 -1435 6483 -2063 1996 -4514 -7626 427 2354 1973 -767 -582 2906 2657 -4073 5932 4378 -5441 5113 -421 -4537 2687 -5588 4716 5165 -1957 -4530 401 2930 -3929 3310 3580 -3074 4065 1640 10470 4537
1029 9738 -4374 -1248 12249 -3083 7325 1223 -186 -3112 -4764 3529 3521 -2140 -2144 6037 6530 -2320 -1220 -1137 7383 -8676 1220 3130 -1145 5654 3196 77 6566 6430 -4716 -1074 -5064 5414 185 -183 3697 -3617 12329 -10634 6238 -1958 -3009 -6609 7426 11058 2807 3826 7157 2104 -196 4007 575 692 6550 -7818 4751 -469 6991 -9566 5655 206 6117 -4730 -3373 57 -3934 -146 -1648 -4984 1026 -1834 -1971 -5418 90 -1766 5351 -4620 -496 -3492 122 -8802 -822 -1938 -2465 4702 6874 4478 -2578 -6866 -136 4407 4942 6762 6512 1673 -5414 -7538 -5460 -1434 -4560 6713 -3727 4793 3459 6494 461 4555 -1240 -7031 229 -2814 2620 2512 4982 -4005 2645 -2581 6083 -1385 4544 4223 -3466 1667 -1308 9878 8396 -2883
-340 -8179 -1319 -1024 1663 4498 -2957 -2388 6528 4649 2413 -1314 89 4607 8249 -4583 -2492 -1896 -4364 -5447 2168 -4386 4080 -401 -1583 -90 1791 4551 6402 4964 -5735 -2628 -6517 -3080 263 -5696 -4991 -7943 -3767 -7385 -742 -1183 181 7437 -2897 -778 -5051 -2510 -9345 -1249 3257 2408 -1076 3913 4257 -14484 -5786 4281 -522 5859 -4940 -3982 -7512 -2743 -3534 7178 -8153 4559 3488 -4368 -2664 -3749 -4077 2891 1166 -6321 3055 1085 -563 4487 3497 -3249 7599 1394 1831 -4145 8263 -4048 -6045 -7283 -4235 -422 5270 8143 8764 2612 -5505 7107 371 1788 -4236 3782 -3194 3256 -3266 -2185 -753 -3295 -1524 6686 3213 1779 7352 -1152 6987 -5916 4059 -6838 -23181 2505 -5060 -3455 -3145 -2167 -526 -7657 1719 2194
7231 -3193 -11361 -4614 8897 -3059 -165 -2187 11721 -3791 4421 2556 -2653 1976 7864 -4293 -841 3015 2970 -4849 -3487 -7520 3214 12670 -4434 351 -1464 2498 -3804 1353 -5810 -393 2981 1147 2424 2820 2258 -13612 -5553 -7712 -5815 -670 5957 -2739 -1473 3313 -2913 1704 -4570 -275 7244 2743 1230 10038 -126 -9378 -4256 8670 3293 -6820 -1716 5580 -1790 4693 -1477 4123 -3613 -3413 990 5005 -3831 -3821 1936 2279 2833 -4668 -1596 5024 -5810 3603 4395 -13547 2391 7195 -4292 -8678 11327 -955 606 -2580 3823 3837 1017 6073 12139 2727 -1082 5677 1903 2118 -5021 359 -6364 2519 -656 -3959 5862 -3366 571 -454 1104 -3029 5132 3979 5584 627 -3274 4786 -9964 1585 6410 -40 4668 1776 -2761 782 -2007 -2855
-8115 -7671 -3653 2956 2886 5047 1479 2371 -5312 4944 3038 1108 -7863 -2761 606 349 524 3413 -214 577 5285 -4737 98 1205 1401 2530 -243 3723 3852 -2071 -2231 -1364 -3710 2669 -1163 1036 -763 -3992 -5346 -4126 -3498 5943 1978 -2904 3747 4159 1336 3987 -8460 -697 3712 1742 3001 -5406 1220 -3338 -765 1421 4599 5200 -4651 -3796 -4833 -666 790 -4277 1187 -4254 -2977 -4572 -1318 4524 1537 2673 -2088 -7586 4039 5511 2972 -3359 -2599 -4939 -1663 -5591 4307 851 5506 5426 -6009 -1848 -3930 -2395 -5786 601 5149 -539 -2108 -3445 -5077 -3076 -714 -3440 3503 4393 -2036 -3858 -5547 -4913 1097 5235 123 -6218 3782 -5869 2625 -183 4798 -2903 -2973 -808 -2685 4481 -2665 -1301 -3834 -4702 -4038 -6212
2732 -524 4154 -1435 -5620 1748 -1302 1381 5379 3589 4247 2416 4590 642 1341 -1845 -1315 2332 -4250 459 3905 -1527 4557 3060 488 -5987 5451 -5195 1662 -4533 -6242 -3297 3032 -2806 -1992 4592 551 3739 1013 7300 1325 -666 -3317 1140 -564 -4708 -6798 -6460 5570 521 -1128 -3326 1412 -1602 -5553 -2455 1273 -422 -2438 652 -4455 -2697 425 1500 -923 -5649 -1009 3596 -1905 1366 677 -1759 -1389 4837 -2723 -4115 -312 -4863 2983 -502 -3796 1389 -4985 906 -3151 708 -4604 -2253 774 1226 1206 -2090 -2927 -2508 -3202 -2222 -326 4314 3254 -6725 6398 1460 2289 -5756 858 3259 -6862 -24 -1431 -3382 -384 -3704 -5087 4646 458 2058 -3744 2454 -3118 1139 -263 1500 -3603 180 2439 1359 -8287 4545
-5207 4289 -2480 -3327 9236 -5715 1176 -4331 3778 -2763 4810 -5421 -4598 1716 -5940 -59 3000 -4554 1856 -1700 -877 1142 -3243 -4433 -2156 -2979 158 2910 -4315 -3721 5517 -3503 -3186 4652 3847 3123 -4132 4958 16621 1913 -4718 -2828 -4223 1210 -3898 4117 -1218 841 4252 -982 -9715 -129 -8468 -8217 932 -693 -6239 -7697 -1387 821 1521 5195 5542 1635 825 -3397 -4801 -144 1806 1948 1840 3870 4640 4918 -4350 2887 -3913 -2855 4438 2727 -967 1313 -6056 -6664 5843 2358 -7257 229 -2744 3053 2858 -3671 4822 -348 -3401 -3696 3807 -4608 5129 2760 256 -718 1531 -1439 -5391 5875 -5727 4680 -3092 2075 -3302 3786 -6896 -5583 -5148 1860 -1929 -3741 10737 -164 -4093 -5484 -6391 6089 -1578 2727 1401 2420
3033 -1271 -4805 -7461 10079 3979 -5680 3852 -57 7468 -5069 -6620 1119 1743 -4291 1598 -2262 -5907 -6364 -2279 1235 -7363 367 462 -1017 3124 -5258 -5670 -5447 -5772 4128 -4465 -3462 -5367 5117 4193 2558 3439 6572 -14895 5282 7172 -327 -6864 4373 -543 -6889 -3143 -4465 5857 -4079 -7637 -2155 4528 -4969 -646 -6509 -11165 -8189 5951 6 4348 2942 -4730 6151 -6204 -7291 4106 -6933 -3420 4534 5092 -2809 -3995 -5654 2652 290 -2026 1202 5119 3486 2744 -2 -6526 103 4282 -4337 3825 -3826 -5374 4119 -2132 -1369 -5259 -5024 265 2531 -5128 -6167 -5284 -51 2445 -475 -3046 4976 5345 -8866 196 -892 1689 106 -2813 -8909 2343 -3114 5969 525 -10045 13653 5610 2675 -1742 -868 4779 1973 -3158 -791 -1067
-3169 2095 2587 -4160 -7270 2372 -1199 -4011 5911 -3080 3569 1621 -1754 1790 -5 -310 790 -5950 3241 -5972 2147 1700 -6319 -3472 6078 -1604 2227 -6666 -2518 5139 -2476 -4421 -1489 -6617 2897 -3588 -4219 2855 -1123 -3064 -5112 -6496 5761 5164 -3360 -5104 -5928 -4872 -7731 2435 1699 2185 3498 174 3751 -2229 -8675 2679 4098 4675 -1456 3288 -982 -4021 4459 3536 4507 4739 -4544 723 -8727 1553 -5731 -6216 2981 3832 -4936 -5849 -4198 3774 2395 -7608 2584 2699 4505 -1025 1297 3405 -6907 -1636 -733 -7698 -1887 6093 -4112 -2057 -5466 -3383 -1262 2173 -902 148 2932 -1195 4925 5 -6725 -3566 4037 826 -5633 -1982 1519 3111 -894 -3618 836 -3632 -2567 4279 -2381 -4404 -2840 -194 -1324 -381 -3739 3411
2614 10221 -8040 -6758 -7754 -2313 -9132 3655 -2198 4477 -5236 1567 3055 -3017 4666 -9027 -2818 -4195 -3580 4360 4949 192 -5334 6349 2302 -5915 -5217 5654 2252 -2172 -1080 -1228 -4915 2508 750 1571 2132 -2767 -1276 882 5072 314 -5763 4242 -9733 -1454 -4659 -2979 -2003 -1156 -6550 -6929 -8281 6412 -6382 -7418 2613 -2339 -5653 -2301 4990 4207 -4734 -3106 -3850 -432 -954 4227 1790 -4185 1777 2702 -1650 1897 -4866 752 -5702 -511 6081 4081 -5804 -10840 -3959 -5644 956 -1555 3135 2081 1676 8856 -6791 -8084 -2009 1631 5490 1913 -8823 3308 -1340 1176 5375 -1093 -7555 4109 3437 -4796 -3186 2088 -253 6488 2941 3778 -4145 -2036 -601 1197 -5241 7660 -10151 -4444 -2254 -5642 392 -4894 -8857 -1223 -8028 6261
4190 7342 -6327 -7483 9428 -6451 -2255 -954 7977 -4368 2952 -7045 2711 1144 9668 2918 -7604 -8146 5152 3291 -656 -7354 4676 -421 1978 469 -3897 247 2726 -2115 -2095 -6189 -9069 4996 -10361 -3613 903 -8121 -4952 -7484 -4086 -5300 3955 -7936 -2601 -5373 -6682 984 940 -200 1720 4029 863 2934 -975 -8324 3680 -4020 3042 1743 1695 1344 -871 668 2097 -1726 -3048 -6346 1500 -4890 -9703 2956 3285 -662 -6046 -7790 -5658 -6372 -4847 -4340 4419 -2921 5071 -4963 -79 582 4567 -1846 -4107 8045 2944 2907 3962 1248 11350 439 196 -4464 2835 5294 4146 -4129 -967 1831 -7043 -7856 5351 -7307 -6460 963 -1726 1648 -81 -2740 7738 3860 495 -186 -12066 -2823 -326 -913 -5920 1048 2077 -7202 -93 -4167
3122 8934 -7853 -1581 6137 2270 -2630 -526 3256 5735 4190 -2562 -7377 2180 -1951 -7367 -2278 -273 -2130 -2306 4954 -4075 5397 -1395 -6294 -5477 221 845 -3370 -5769 3204 -4330 4850 2246 9108 -682 -1719 305 9991 -13825 -2693 6400 -5255 -396 -7046 -3595 515 -1246 3208 893 724 -5255 -10205 -902 296 1632 -4091 -3004 2418 402 -3206 -655 3671 6057 -5698 -3647 -1437 -3840 -760 -490 -4706 -6603 4261 -5801 -2353 -6239 4043 3902 -741 -6070 -4066 -7155 -4877 -6509 2225 2264 2742 5541 -4966 2692 1985 1 -4263 5944 3768 4277 27 -2621 1901 -709 1213 -5531 -4083 3920 -2603 1181 4332 -2432 -3494 -3336 -3334 1027 -1135 6033 -3884 -3798 4310 -5909 4409 -5223 4122 -4666 -1208 -3965 -5072 -5503 1115 5228
322 -7891 388 -5411 10488 -4681 -3281 -3506 6047 -4541 -5642 -5428 -4305 -6265 -6946 -3905 -489 -2478 3359 -4564 6508 -1079 1179 -837 -2650 5895 486 1903 2685 654 -2666 2582 -4932 -4186 -345 -5759 -2305 2261 2167 -12457 -548 -1885 -2824 -4768 1113 2227 -6992 -5928 -756 -1641 -254 2693 -7285 -6409 2796 -1506 2121 -6398 1032 -1118 -5206 6369 -1165 1838 3664 3794 -8477 -4674 1173 1079 -1506 -3676 -3902 3155 -149 -2272 399 -5831 -5781 -3344 -3419 -5718 -2720 -515 406 6891 2231 2052 1501 4554 -242 -281 1109 -352 5093 6606 1273 5889 -1951 -3446 922 -5769 -3849 -5218 -4866 724 -6591 1840 3416 -6364 297 1878 3800 4926 5426 -6061 -5405 537 -2856 -3118 1599 -426 3589 -5278 -5141 -1028 1759 -6278
-8083 -2849 88 745 -1295 -5389 -5387 405 -4441 483 -1977 -3442 -4408 2052 3563 -7032 -943 -227 -1193 2644 4001 4023 798 -3525 4944 4025 328 -2989 -2971 411 6073 -6157 -6280 844 -360 -947 4509 -1900 8081 -2948 1831 -6928 828 -3797 -4256 3930 -3607 -1160 6759 -1388 -6123 -7935 486 -1847 -7431 789 -5606 -6696 2608 -4109 3901 6060 6375 5189 -5880 -6134 5030 2189 5383 6098 966 1940 3334 -6474 -5924 -5643 -3401 1511 -3639 -5115 -4636 -1963 -3916 -4737 -2239 5782 -6153 1962 -1177 -988 -7475 -5579 -209 -6813 -533 -3239 -323 53 -2559 2570 4673 -455 -5692 -4202 -4536 3453 -603 -1225 64 -559 -21 -4073 -7152 3093 178 -987 -4188 -3826 2700 2709 5324 -3711 2009 -2954 -5892 28 -899 -114
-8672 1308 1853 -5938 4280 -3713 -7286 2254 -3501 -5797 -3748 3740 -7478 -1835 624 -4300 -6382 2191 -4114 5036 6221 4986 -2571 -3598 -506 2623 -1508 -2613 -4560 5582 -72 1584 674 -4447 5551 -5923 4492 -1334 7733 2721 1409 4616 -984 -5589 -4501 4405 -6512 5529 9654 -3675 -3115 -2361 -2725 -6338 3297 -327 -213 -6753 1657 7831 -2395 -1150 3903 480 -150 -5129 -6131 -2275 -6563 -4069 1921 -3599 -70 -4242 -5243 -6461 -4367 4358 -563 -5314 -4303 4678 128 1476 471 4019 -7423 581 371 8535 -958 -103 4097 865 -5750 -3062 4447 4842 5427 -4976 5078 -7583 -1536 -5292 -4652 -3547 2057 -2194 -2189 7049 399 5916 -9562 -5352 -5063 -2011 -5038 1755 3678 4627 -4805 94 2752 -5984 3139 5514 -2744 3191
-5672 -3031 6762 1069 -8751 -3029 373 -1871 -8447 -1564 -4809 1428 2613 5077 -7928 978 7948 -6229 312 1935 -6355 7107 245 -4002 -5875 4110 -7495 -489 1238 1871 -189 -3151 2709 3450 2392 -5403 -4126 9585 920 -578 5345 438 5318 -3732 -2019 -112 1646 -5272 11130 6046 449 -5049 -8373 487 130 3674 3195 664 -9566 -884 -1833 1247 -2656 2505 -5578 -2394 1252 -3534 -5098 2234 -6895 4065 -2139 -5368 -5431 -582 -4733 246 -6037 4852 -2592 5162 -1969 -1632 -687 660 2415 -1209 -759 8231 4496 -9087 -3507 1033 -1058 3703 -2681 -212 -913 4925 3713 -3831 824 -3717 -5886 -4203 -8223 2327 -241 -4136 287 4059 -5108 -1280 -1296 1142 4646 3008 717 493 -3865 1128 4661 2064 1393 4752 2989 -2803
47 15095 6758 -7267 -3817 1280 282 1308 -8913 -6107 -1851 -4374 -1390 -2485 -2158 -7247 -2762 3701 3561 -291 6424 8378 -2864 -1726 -241 -6200 -350 -6137 477 432 -29 2637 4982 -1196 -4368 -6062 354 8080 8617 1423 -4412 -7596 3950 571 -880 -1072 -2470 -4313 10458 -1218 -3892 -6748 2424 -467 -5942 6343 -1983 340 -9470 38 2272 773 4249 6027 5428 -432 6094 564 3892 -3825 1875 3196 -2311 115 3935 163 2436 -2230 -554 5538 -1305 3150 -6099 2032 -5461 -1199 -3478 3514 -2488 1787 -482 4025 -2297 -4950 -4236 1553 5060 -2562 6237 785 4096 -4717 -7400 422 1827 -5598 -699 -1639 -6829 2597 -1479 1900 -6276 -5095 -9220 1023 3862 3965 2549 4823 3533 -5165 -3775 5022 -7210 5198 1566 4385
