4 26 25 17 -18 -14 -7 33 -4 5 8 -3 32 8 -22 -16 27 2 5 -16 0 -30 7 28 28 6 18 34 -7 -17 -7 -9
9 -10 -15 30 -31 2 14 2 6 -34 -2 8 31 30 29 -31 -27 8 -21 -50 36 -42 33 -8 21 21 -4 -14 -4 -7 -19 -6
8 17 -17 -8 -23 -34 -24 -19 -32 -23 -12 -19 3 26 -15 2 40 -25 -2 -27 -18 2 -40 -1 -21 -31 8 -39 -37 0 -20 -28
20 -36 9 17 -35 -26 -27 34 -27 26 -13 -18 -12 31 4 2 -15 -43 -23 -6 20 -13 30 22 -3 38 19 -1 -26 -47 8 -7
15 -18 -37 -45 51 1 38 -22 -42 31 12 41 9 50 41 24 -8 -4 20 -35 -5 -15 32 35 -2 47 30 17 68 12 30 33
-12 7 -38 -41 35 27 -25 36 -5 6 -17 16 -30 26 -21 2 -1 12 11 -33 11 -22 -26 20 -28 5 4 -24 -18 -28 3 -17
-19 23 29 -44 -10 15 -20 -19 20 7 52 -4 -6 -69 -20 -10 3 48 -19 -37 2 -12 30 11 9 -36 -3 -38 -10 -51 -16 16
-16 -40 -28 6 -24 -38 -16 7 16 -19 38 16 12 12 0 39 -22 23 -21 1 -26 7 -44 20 39 -8 31 -12 4 15 19 6
-22 7 39 28 -3 45 -18 -20 19 -4 29 -27 32 -5 20 15 23 17 -5 35 31 -14 34 -31 11 -18 23 18 1 -6 5 14
7 -8 38 -17 -74 -16 14 32 -9 -24 10 22 -19 6 17 -8 -26 28 -19 20 -18 -36 -45 29 -18 4 -40 -17 -33 36 42 30
82 -29 -1 7 -17 -25 10 10 3 -41 12 17 31 -33 -45 -10 5 -3 -34 22 -33 30 36 34 13 -29 17 -26 -43 23 -15 11
11 3 -4 -1 -23 -40 -30 -25 34 3 14 4 -8 -52 -47 14 7 6 -36 35 -6 -11 -9 -38 21 -50 36 15 -14 -4 -67 18
-17 -2 -29 35 53 -25 19 -29 53 13 3 18 2 -50 -10 25 15 0 -18 13 -72 36 -3 23 4 -37 -1 5 8 34 -26 14
13 -32 1 8 -34 -47 -25 -10 -14 -10 15 -32 -21 0 12 -30 -2 12 -4 -16 -11 -18 -32 -37 -21 21 -36 -13 -21 17 -17 -27
-8 -34 -31 26 -10 -11 -43 25 9 -15 27 26 -35 30 -42 34 -38 1 -11 27 -23 -49 -32 25 -17 9 12 18 12 -22 -24 13
-5 -11 -30 34 -17 -44 -34 -2 -6 -6 6 -17 -32 -25 -4 -34 40 9 -13 -78 -3 -46 20 -38 15 -16 -15 -39 19 18 24 11
24 -26 -15 16 -32 -37 14 -5 2 30 -29 14 -28 -35 16 -18 -19 -2 3 -22 2 -45 32 15 16 -16 -15 10 10 -30 28 -26
-12 35 -8 -41 20 -4 19 -19 -20 3 46 -12 21 -7 -24 -34 13 -44 39 -14 2 -33 -3 -5 16 -25 -36 17 4 -44 -13 -9
16 4 -37 -39 1 21 -11 15 -7 -26 21 -30 -18 -33 -26 25 11 -8 -13 -22 17 -41 22 38 36 -42 10 17 -13 -9 8 -15
22 -20 -8 -13 -46 -29 21 -22 -8 -35 -3 -25 25 1 8 6 -8 -13 14 50 -30 30 0 18 10 -24 -15 21 -15 -12 -1 -6
-39 6 4 -41 -60 13 28 -38 6 -33 -12 17 12 18 -13 23 -36 -42 28 0 -36 -10 47 -15 -9 0 -18 -24 -32 11 -30 3
-10 -3 36 -43 -31 -21 -12 3 -39 18 -35 -17 7 -23 13 15 29 -57 -36 -37 21 39 -9 20 -36 26 -7 -25 -49 -41 13 -20
-5 -41 -25 1 22 26 24 -40 -35 -23 -26 -7 2 -35 -20 10 -25 -61 24 -25 38 14 37 31 -3 -38 -27 11 -3 -61 12 -33
4 33 39 -38 -11 -42 -38 -11 -33 21 -44 -23 -26 -12 0 -22 -11 -27 0 -57 12 -26 20 25 -11 -15 4 15 -9 -17 10 -20
-35 26 -3 9 -57 -49 -10 1 -26 -34 -4 -3 -29 15 -23 -38 6 -5 -30 -57 39 -47 32 -2 -39 29 16 -34 -4 -15 25 -4
-2 -25 -30 -38 21 16 -34 5 0 25 33 35 19 6 -43 -15 23 -61 -20 -86 13 28 0 5 -35 3 -28 -25 4 -3 -19 -37
