-4 2 -10 -7 6 -18 -18 9 -18 -25 10 -16 -10 10 1 -29 17 6 6 10 -20 25 39 -31 -27 -11 16 17 7 -8 -18 -12
1 -8 22 -1 8 -8 6 -9 25 -20 10 28 0 -10 28 30 4 6 9 21 25 -25 -14 -20 -27 -29 28 18 -29 -21 23 13
-11 -7 -23 -33 -34 20 -10 18 9 18 32 -19 17 16 7 13 -25 3 -15 27 28 14 -29 4 -14 38 17 -31 19 -14 1 -16
-5 -4 -28 -24 -19 -37 -15 -10 -33 14 -12 -27 -10 -16 -22 -13 16 5 -10 -23 -6 5 20 -43 2 -24 -31 10 -12 -2 -16 -16
-28 -23 19 -24 -17 -1 -17 -12 -13 -6 -8 -14 -6 -11 -23 -18 13 4 -2 -14 -28 1 3 -25 -11 -12 -21 4 -9 1 -8 -30
-27 9 -4 18 -12 25 -4 -15 -31 -23 1 -17 7 -21 -22 21 -21 25 -23 21 3 1 15 25 -28 6 -5 -10 19 2 -14 7
-20 8 31 7 -3 -15 -6 33 -23 -15 -18 15 15 8 -25 -10 8 0 -8 8 -16 -14 -27 -14 -27 -18 -15 -2 27 29 27 -32
-31 0 -9 -19 23 29 -19 8 -9 -14 23 23 23 10 -31 -24 24 -2 -21 -31 10 -13 -25 13 30 -11 -7 31 -30 17 7 29
14 19 24 -25 -29 -28 -7 8 16 -9 -17 7 -24 19 -6 19 28 -12 1 1 -18 11 9 18 -26 -8 22 -1 -11 13 -29 22
11 -11 25 13 31 4 -23 -28 3 32 -28 -29 21 -4 9 -19 0 17 -20 22 -28 -21 4 10 10 2 0 10 -13 5 -16 -23
-13 11 1 -13 14 15 13 -12 -2 41 -2 -23 -18 9 17 19 19 7 -9 -7 -22 8 18 -39 -10 10 -16 37 10 -21 -20 -13
-24 27 -15 19 -13 -30 14 12 -4 22 -15 8 9 -22 31 6 11 1 -2 -27 -2 31 -15 23 -15 24 4 -11 -29 -3 22 22
25 -25 21 2 19 -23 5 12 15 35 -24 11 37 15 42 -11 6 3 45 21 -19 9 23 -35 8 53 -1 22 6 -3 31 24
-25 -6 0 18 -9 -16 -28 32 23 -23 23 -5 28 -1 24 24 14 -30 -18 18 3 3 11 -28 -12 30 -16 -14 14 -1 -1 -29
-27 -5 -23 -6 14 8 12 -19 10 -20 1 12 -12 -25 -25 -19 -24 -16 16 17 7 23 30 -17 14 26 10 0 17 -25 0 -7
-3 0 -16 -9 -33 -16 10 -12 -31 14 19 -29 -4 -12 29 15 9 25 5 -23 2 27 26 16 -12 -8 -10 24 15 -5 -2 6
10 3 19 14 -27 28 12 7 -24 -26 12 9 18 -9 23 -3 -8 -25 30 -25 12 -27 -16 22 -22 -8 17 -4 2 21 1 24
-21 4 -31 -4 -7 21 18 -7 -20 33 -6 -5 -11 -8 -16 -13 -6 -19 18 20 -13 14 2 -1 -6 10 6 -16 0 -18 -9 23
11 20 -6 -11 -29 -20 20 -5 2 -1 -17 19 18 17 -24 19 7 -9 -21 14 -20 24 -12 24 1 9 -3 -18 11 -12 -27 -18
-16 -28 19 9 -7 -30 -20 -3 -2 -24 3 -3 15 -6 -7 -34 9 0 1 -6 -26 9 6 -37 -18 25 -26 18 -31 -3 -12 -16
9 -25 -5 19 -18 -24 0 -24 -26 8 19 19 13 9 25 20 2 -18 7 -28 -31 11 -3 -27 18 -11 -9 -20 -27 18 9 -20
-17 -2 26 22 26 -3 29 27 -12 -9 3 25 26 -31 20 27 17 23 -5 12 16 -15 -8 -34 12 -22 -28 26 -13 27 14 19
-33 4 4 -31 -35 -24 -5 -13 -21 -22 -4 -20 -8 -32 -25 -32 -16 -15 14 -14 -24 3 -8 -2 -26 17 -25 -26 -25 10 -10 -22
-24 -29 -13 11 -31 -29 -9 -13 -13 -31 -15 17 -6 10 6 -14 -12 -7 6 -28 -28 -32 -6 3 -2 -12 -12 -28 -2 23 -9 20
-31 10 -1 21 -30 16 28 9 -10 -25 10 16 11 19 -12 13 3 1 26 -13 16 -2 33 -12 -30 -24 30 -17 2 -24 -5 -13
-8 -8 22 -11 -7 -11 -30 -30 1 -6 -24 -30 -32 3 24 -25 -20 17 -2 10 13 8 12 18 -28 -19 -31 22 23 -31 -27 15
4 -18 -13 -14 -6 15 24 -2 27 -32 26 -10 -4 -17 32 15 -26 10 -1 -2 -29 18 28 19 10 -5 25 -22 -35 18 -18 -24
16 11 9 29 23 -16 -1 -14 -15 25 30 26 16 -31 1 -13 -21 -8 3 -14 7 -7 20 -13 13 -15 1 -22 5 -25 19 21
18 14 -16 -25 -26 19 20 -33 9 -16 2 -5 -14 -31 7 8 -24 -18 24 20 -23 -5 14 4 -7 24 8 -18 26 -27 -19 10
3 13 -21 11 -4 -8 2 -26 20 -14 23 16 26 4 15 -34 -27 -24 31 12 -4 9 -1 17 -16 -10 -12 6 -11 -26 -32 -9
11 1 1 -24 20 26 -11 7 21 16 -13 -15 -24 19 -5 22 -11 4 -31 -22 3 15 15 -8 23 2 25 -5 30 -13 18 -10
-10 4 55 4 3 -6 -4 10 0 -2 -23 53 -7 -37 10 16 50 -11 -21 -22 6 -16 -47 -29 13 -13 -25 -28 -20 54 14 12
-31 21 19 14 -18 -14 -3 32 -8 17 13 18 20 30 4 30 11 18 5 -19 -8 -13 2 27 -32 30 -17 -10 -9 17 2 -9
-29 18 1 -13 8 -17 -9 23 -6 -8 26 -31 4 8 29 18 -23 -1 21 4 -28 3 -18 15 25 -10 -13 -17 -13 15 -20 -14
23 -22 19 19 -22 -31 12 8 5 -8 -25 -27 12 23 28 -7 22 28 30 -24 26 5 6 -31 14 -6 7 -14 -18 -14 0 6
-28 14 -15 21 22 21 -8 -14 11 29 -15 21 -21 6 -23 1 22 3 18 0 28 2 -20 6 -11 -14 0 20 24 29 7 -10
-4 -15 -40 2 -26 -27 -2 17 1 29 36 0 5 -8 0 -34 -7 -21 18 -10 20 -1 10 -32 -22 -3 -4 -27 -1 -24 -29 -2
12 -25 7 31 3 14 2 -13 -25 -5 -26 25 -18 23 -22 -32 24 -22 11 1 -14 -30 3 -28 14 -25 9 -1 -28 19 1 23
4 -7 0 10 -18 3 -12 -29 1 -26 10 -21 -30 -29 -13 3 8 -7 -29 -16 19 6 -1 -6 -2 -32 26 14 1 -19 -25 -18
-12 -11 -11 -16 -20 -18 -27 -22 17 29 -13 25 -7 21 6 28 7 -5 15 26 -22 15 14 3 21 30 -19 10 -14 12 15 -2
-17 13 24 9 -25 -12 26 -9 -31 9 -28 27 -9 23 -10 -28 9 -24 -31 -8 -2 -5 -4 21 -4 -27 26 8 2 4 -26 -9
-5 -16 23 29 16 -34 37 -41 -29 -16 -6 -3 -23 26 -8 3 26 4 -8 3 -7 9 -1 -39 31 -22 12 5 24 -22 6 -16
-26 16 1 -14 19 -3 -24 -16 14 10 -23 -27 18 -9 8 14 -17 1 10 -33 20 13 -36 -2 -31 21 9 -27 -23 10 -3 7
-6 -9 32 16 15 -10 -9 -25 8 -21 32 0 -5 -24 -7 0 -26 29 -30 -13 -32 -5 9 -15 -20 2 3 26 9 -15 21 23
-1 -4 20 25 -11 32 22 -18 -15 22 -27 9 -33 -21 27 -8 -22 28 -3 15 12 -28 21 -30 -21 0 -6 17 27 -9 7 -7
-9 21 -3 -34 15 10 -27 10 -11 -22 0 -1 17 -1 38 -9 -39 5 29 25 -10 50 -30 -30 19 -3 -10 -25 5 -3 19 16
-33 -27 7 12 -10 -31 26 -26 -5 -9 23 25 -2 -14 -17 27 10 -14 31 8 0 12 13 -21 16 28 -14 -1 19 1 -19 -20
-1 26 -30 41 13 -25 -25 6 4 -17 -23 -6 -24 27 -2 16 -23 -6 1 1 -12 12 14 -4 20 25 5 28 20 -14 15 -18
-12 -22 5 32 -17 -26 -20 -2 -23 14 11 6 -14 -8 -20 -19 23 -6 -8 24 24 -30 7 -23 -31 20 14 -27 -17 0 15 -5
-21 0 -42 -9 -21 10 24 32 26 14 45 16 -27 6 28 -5 0 -21 26 21 37 34 -28 12 -22 15 0 -31 -2 -23 16 -12
-32 -30 5 3 -12 -13 1 39 -29 -13 -14 -17 -10 -20 12 3 17 -37 -29 1 21 12 -22 14 -19 6 -10 -28 -17 -1 -3 13
12 -1 -5 7 21 8 -16 -2 -29 -26 17 11 -7 -4 19 -21 21 29 0 -9 8 33 51 -28 6 1 -33 26 -22 -10 -17 -27
17 -14 -33 -9 -36 4 13 12 24 -24 -3 2 13 -25 12 19 3 -11 33 1 -16 24 21 24 3 7 -21 -14 -13 -22 -9 16
24 12 -21 -5 1 30 9 -30 16 13 1 21 21 -21 22 14 29 21 -16 -7 -8 -8 5 27 -5 25 24 30 -21 -27 -1 9
-31 -5 13 30 -9 6 17 11 6 1 -3 5 -4 3 -17 3 -28 -24 12 -19 -7 -9 38 4 13 6 -20 24 24 3 -2 -26
-19 9 14 23 -2 -23 6 1 2 -16 -31 9 -33 9 -12 16 14 -12 4 6 -10 -20 -38 -33 -10 -33 -23 -23 -11 29 -23 -16
-27 -9 21 0 -25 -22 -16 2 -26 -28 -12 -25 -6 -22 -21 -14 5 5 -10 13 3 -13 8 -21 0 5 0 -12 -1 -4 18 9
-15 -27 26 19 -22 -6 0 22 -19 28 -32 -11 -9 -23 21 24 29 8 -11 -2 6 -16 3 27 12 -7 27 -18 -8 15 -23 -18
1 11 -8 4 -23 18 -19 -18 -4 22 0 22 22 23 25 23 -15 6 0 -14 -23 -25 27 -20 -23 5 30 -25 22 16 19 6
-15 21 -25 -8 24 5 -27 -6 18 -20 -2 -27 -26 -1 -30 -28 -23 -24 14 -28 9 11 39 14 1 -20 7 -19 -24 -17 4 -27
22 15 23 -10 -4 25 24 -19 -19 -17 25 -12 -32 5 10 16 -22 21 -32 -25 -24 19 -14 -23 1 28 9 -1 26 4 -12 15
-23 22 -23 8 -12 6 -3 22 -1 -16 -12 21 -29 -28 -13 5 -21 -14 16 12 -14 24 -12 20 19 13 30 -18 3 -22 -7 29
7 -4 -29 1 -22 14 3 24 11 19 8 13 -11 29 7 9 5 9 16 -2 -30 6 -24 -27 17 -9 16 20 -19 12 26 4
-9 -29 1 -25 7 -28 10 22 -29 1 -22 -25 22 -20 -5 24 -49 -12 16 -3 -27 18 -4 6 -18 12 -11 -22 -23 6 20 -6
